0 10 1.000000
0 0 -1.000000
0 0 -1.000000
0 0 -1.000000
0 0 -1.000000
0 0 -1.000000
0 0 -1.000000
0 0 -1.000000
1 10 1.000000
1 0 -1.000000
1 0 -1.000000
1 0 -1.000000
1 0 -1.000000
1 0 -1.000000
1 0 -1.000000
1 0 -1.000000
2 10 1.000000
2 0 -1.000000
2 0 -1.000000
2 0 -1.000000
2 0 -1.000000
2 0 -1.000000
2 0 -1.000000
2 0 -1.000000
3 10 1.000000
3 0 -1.000000
3 0 -1.000000
3 0 -1.000000
3 0 -1.000000
3 0 -1.000000
3 0 -1.000000
3 0 -1.000000
4 10 1.000000
4 0 -1.000000
4 0 -1.000000
4 0 -1.000000
4 0 -1.000000
4 0 -1.000000
4 0 -1.000000
4 0 -1.000000
5 10 1.000000
5 0 -1.000000
5 0 -1.000000
5 0 -1.000000
5 0 -1.000000
5 0 -1.000000
5 0 -1.000000
5 0 -1.000000
6 10 1.000000
6 0 -1.000000
6 0 -1.000000
6 0 -1.000000
6 0 -1.000000
6 0 -1.000000
6 0 -1.000000
6 0 -1.000000
7 10 1.000000
7 0 -1.000000
7 0 -1.000000
7 0 -1.000000
7 0 -1.000000
7 0 -1.000000
7 0 -1.000000
7 0 -1.000000
8 10 1.000000
8 0 -1.000000
8 0 -1.000000
8 0 -1.000000
8 0 -1.000000
8 0 -1.000000
8 0 -1.000000
8 0 -1.000000
9 10 1.000000
9 0 -1.000000
9 0 -1.000000
9 0 -1.000000
9 0 -1.000000
9 0 -1.000000
9 0 -1.000000
9 0 -1.000000
10 10 1.000000
10 0 -1.000000
10 0 -1.000000
10 0 -1.000000
10 0 -1.000000
10 0 -1.000000
10 0 -1.000000
10 0 -1.000000
11 10 1.000000
11 0 -1.000000
11 0 -1.000000
11 0 -1.000000
11 0 -1.000000
11 0 -1.000000
11 0 -1.000000
11 0 -1.000000
12 10 1.000000
12 0 -1.000000
12 0 -1.000000
12 0 -1.000000
12 0 -1.000000
12 0 -1.000000
12 0 -1.000000
12 0 -1.000000
13 10 1.000000
13 0 -1.000000
13 0 -1.000000
13 0 -1.000000
13 0 -1.000000
13 0 -1.000000
13 0 -1.000000
13 0 -1.000000
14 10 1.000000
14 0 -1.000000
14 0 -1.000000
14 0 -1.000000
14 0 -1.000000
14 0 -1.000000
14 0 -1.000000
14 0 -1.000000
15 10 1.000000
15 0 -1.000000
15 0 -1.000000
15 0 -1.000000
15 0 -1.000000
15 0 -1.000000
15 0 -1.000000
15 0 -1.000000
16 10 1.000000
16 0 -1.000000
16 0 -1.000000
16 0 -1.000000
16 0 -1.000000
16 0 -1.000000
16 0 -1.000000
16 0 -1.000000
17 10 1.000000
17 0 -1.000000
17 0 -1.000000
17 0 -1.000000
17 0 -1.000000
17 0 -1.000000
17 0 -1.000000
17 0 -1.000000
18 10 1.000000
18 0 -1.000000
18 0 -1.000000
18 0 -1.000000
18 0 -1.000000
18 0 -1.000000
18 0 -1.000000
18 0 -1.000000
19 10 1.000000
19 0 -1.000000
19 0 -1.000000
19 0 -1.000000
19 0 -1.000000
19 0 -1.000000
19 0 -1.000000
19 0 -1.000000
20 10 1.000000
20 0 -1.000000
20 0 -1.000000
20 0 -1.000000
20 0 -1.000000
20 0 -1.000000
20 0 -1.000000
20 0 -1.000000
21 10 1.000000
21 0 -1.000000
21 0 -1.000000
21 0 -1.000000
21 0 -1.000000
21 0 -1.000000
21 0 -1.000000
21 0 -1.000000
22 10 1.000000
22 0 -1.000000
22 0 -1.000000
22 0 -1.000000
22 0 -1.000000
22 0 -1.000000
22 0 -1.000000
22 0 -1.000000
23 10 1.000000
23 0 -1.000000
23 0 -1.000000
23 0 -1.000000
23 0 -1.000000
23 0 -1.000000
23 0 -1.000000
23 0 -1.000000
24 10 1.000000
24 0 -1.000000
24 0 -1.000000
24 0 -1.000000
24 0 -1.000000
24 0 -1.000000
24 0 -1.000000
24 0 -1.000000
25 10 1.000000
25 0 -1.000000
25 0 -1.000000
25 0 -1.000000
25 0 -1.000000
25 0 -1.000000
25 0 -1.000000
25 0 -1.000000
26 10 1.000000
26 0 -1.000000
26 0 -1.000000
26 0 -1.000000
26 0 -1.000000
26 0 -1.000000
26 0 -1.000000
26 0 -1.000000
27 10 1.000000
27 0 -1.000000
27 0 -1.000000
27 0 -1.000000
27 0 -1.000000
27 0 -1.000000
27 0 -1.000000
27 0 -1.000000
28 10 1.000000
28 0 -1.000000
28 0 -1.000000
28 0 -1.000000
28 0 -1.000000
28 0 -1.000000
28 0 -1.000000
28 0 -1.000000
29 10 1.000000
29 0 -1.000000
29 0 -1.000000
29 0 -1.000000
29 0 -1.000000
29 0 -1.000000
29 0 -1.000000
29 0 -1.000000
30 10 1.000000
30 0 -1.000000
30 0 -1.000000
30 0 -1.000000
30 0 -1.000000
30 0 -1.000000
30 0 -1.000000
30 0 -1.000000
31 10 1.000000
31 0 -1.000000
31 0 -1.000000
31 0 -1.000000
31 0 -1.000000
31 0 -1.000000
31 0 -1.000000
31 0 -1.000000
32 10 1.000000
32 0 -1.000000
32 0 -1.000000
32 0 -1.000000
32 0 -1.000000
32 0 -1.000000
32 0 -1.000000
32 0 -1.000000
33 10 1.000000
33 0 -1.000000
33 0 -1.000000
33 0 -1.000000
33 0 -1.000000
33 0 -1.000000
33 0 -1.000000
33 0 -1.000000
34 10 1.000000
34 0 -1.000000
34 0 -1.000000
34 0 -1.000000
34 0 -1.000000
34 0 -1.000000
34 0 -1.000000
34 0 -1.000000
35 10 1.000000
35 0 -1.000000
35 0 -1.000000
35 0 -1.000000
35 0 -1.000000
35 0 -1.000000
35 0 -1.000000
35 0 -1.000000
36 10 1.000000
36 0 -1.000000
36 0 -1.000000
36 0 -1.000000
36 0 -1.000000
36 0 -1.000000
36 0 -1.000000
36 0 -1.000000
37 10 1.000000
37 0 -1.000000
37 0 -1.000000
37 0 -1.000000
37 0 -1.000000
37 0 -1.000000
37 0 -1.000000
37 0 -1.000000
38 10 1.000000
38 0 -1.000000
38 0 -1.000000
38 0 -1.000000
38 0 -1.000000
38 0 -1.000000
38 0 -1.000000
38 0 -1.000000
39 10 1.000000
39 0 -1.000000
39 0 -1.000000
39 0 -1.000000
39 0 -1.000000
39 0 -1.000000
39 0 -1.000000
39 0 -1.000000
40 10 1.000000
40 0 -1.000000
40 0 -1.000000
40 0 -1.000000
40 0 -1.000000
40 0 -1.000000
40 0 -1.000000
40 0 -1.000000
41 10 1.000000
41 0 -1.000000
41 0 -1.000000
41 0 -1.000000
41 0 -1.000000
41 0 -1.000000
41 0 -1.000000
41 0 -1.000000
42 10 1.000000
42 0 -1.000000
42 0 -1.000000
42 0 -1.000000
42 0 -1.000000
42 0 -1.000000
42 0 -1.000000
42 0 -1.000000
43 10 1.000000
43 0 -1.000000
43 0 -1.000000
43 0 -1.000000
43 0 -1.000000
43 0 -1.000000
43 0 -1.000000
43 0 -1.000000
44 10 1.000000
44 0 -1.000000
44 0 -1.000000
44 0 -1.000000
44 0 -1.000000
44 0 -1.000000
44 0 -1.000000
44 0 -1.000000
45 10 1.000000
45 0 -1.000000
45 0 -1.000000
45 0 -1.000000
45 0 -1.000000
45 0 -1.000000
45 0 -1.000000
45 0 -1.000000
46 10 1.000000
46 0 -1.000000
46 0 -1.000000
46 0 -1.000000
46 0 -1.000000
46 0 -1.000000
46 0 -1.000000
46 0 -1.000000
47 10 1.000000
47 0 -1.000000
47 0 -1.000000
47 0 -1.000000
47 0 -1.000000
47 0 -1.000000
47 0 -1.000000
47 0 -1.000000
48 10 1.000000
48 0 -1.000000
48 0 -1.000000
48 0 -1.000000
48 0 -1.000000
48 0 -1.000000
48 0 -1.000000
48 0 -1.000000
49 10 1.000000
49 0 -1.000000
49 0 -1.000000
49 0 -1.000000
49 0 -1.000000
49 0 -1.000000
49 0 -1.000000
49 0 -1.000000
50 10 1.000000
50 0 -1.000000
50 0 -1.000000
50 0 -1.000000
50 0 -1.000000
50 0 -1.000000
50 0 -1.000000
50 0 -1.000000
51 10 1.000000
51 0 -1.000000
51 0 -1.000000
51 0 -1.000000
51 0 -1.000000
51 0 -1.000000
51 0 -1.000000
51 0 -1.000000
52 10 1.000000
52 0 -1.000000
52 0 -1.000000
52 0 -1.000000
52 0 -1.000000
52 0 -1.000000
52 0 -1.000000
52 0 -1.000000
53 10 1.000000
53 0 -1.000000
53 0 -1.000000
53 0 -1.000000
53 0 -1.000000
53 0 -1.000000
53 0 -1.000000
53 0 -1.000000
54 10 1.000000
54 0 -1.000000
54 0 -1.000000
54 0 -1.000000
54 0 -1.000000
54 0 -1.000000
54 0 -1.000000
54 0 -1.000000
55 10 1.000000
55 0 -1.000000
55 0 -1.000000
55 0 -1.000000
55 0 -1.000000
55 0 -1.000000
55 0 -1.000000
55 0 -1.000000
56 10 1.000000
56 0 -1.000000
56 0 -1.000000
56 0 -1.000000
56 0 -1.000000
56 0 -1.000000
56 0 -1.000000
56 0 -1.000000
57 10 1.000000
57 0 -1.000000
57 0 -1.000000
57 0 -1.000000
57 0 -1.000000
57 0 -1.000000
57 0 -1.000000
57 0 -1.000000
58 10 1.000000
58 0 -1.000000
58 0 -1.000000
58 0 -1.000000
58 0 -1.000000
58 0 -1.000000
58 0 -1.000000
58 0 -1.000000
59 10 1.000000
59 0 -1.000000
59 0 -1.000000
59 0 -1.000000
59 0 -1.000000
59 0 -1.000000
59 0 -1.000000
59 0 -1.000000
60 10 1.000000
60 0 -1.000000
60 0 -1.000000
60 0 -1.000000
60 0 -1.000000
60 0 -1.000000
60 0 -1.000000
60 0 -1.000000
61 10 1.000000
61 0 -1.000000
61 0 -1.000000
61 0 -1.000000
61 0 -1.000000
61 0 -1.000000
61 0 -1.000000
61 0 -1.000000
62 10 1.000000
62 0 -1.000000
62 0 -1.000000
62 0 -1.000000
62 0 -1.000000
62 0 -1.000000
62 0 -1.000000
62 0 -1.000000
63 10 1.000000
63 0 -1.000000
63 0 -1.000000
63 0 -1.000000
63 0 -1.000000
63 0 -1.000000
63 0 -1.000000
63 0 -1.000000
64 10 1.000000
64 0 -1.000000
64 0 -1.000000
64 0 -1.000000
64 0 -1.000000
64 0 -1.000000
64 0 -1.000000
64 0 -1.000000
65 10 1.000000
65 0 -1.000000
65 0 -1.000000
65 0 -1.000000
65 0 -1.000000
65 0 -1.000000
65 0 -1.000000
65 0 -1.000000
66 10 1.000000
66 0 -1.000000
66 0 -1.000000
66 0 -1.000000
66 0 -1.000000
66 0 -1.000000
66 0 -1.000000
66 0 -1.000000
67 10 1.000000
67 0 -1.000000
67 0 -1.000000
67 0 -1.000000
67 0 -1.000000
67 0 -1.000000
67 0 -1.000000
67 0 -1.000000
68 10 1.000000
68 0 -1.000000
68 0 -1.000000
68 0 -1.000000
68 0 -1.000000
68 0 -1.000000
68 0 -1.000000
68 0 -1.000000
69 10 1.000000
69 0 -1.000000
69 0 -1.000000
69 0 -1.000000
69 0 -1.000000
69 0 -1.000000
69 0 -1.000000
69 0 -1.000000
70 10 1.000000
70 0 -1.000000
70 0 -1.000000
70 0 -1.000000
70 0 -1.000000
70 0 -1.000000
70 0 -1.000000
70 0 -1.000000
71 10 1.000000
71 0 -1.000000
71 0 -1.000000
71 0 -1.000000
71 0 -1.000000
71 0 -1.000000
71 0 -1.000000
71 0 -1.000000
72 10 1.000000
72 0 -1.000000
72 0 -1.000000
72 0 -1.000000
72 0 -1.000000
72 0 -1.000000
72 0 -1.000000
72 0 -1.000000
73 10 1.000000
73 0 -1.000000
73 0 -1.000000
73 0 -1.000000
73 0 -1.000000
73 0 -1.000000
73 0 -1.000000
73 0 -1.000000
74 10 1.000000
74 0 -1.000000
74 0 -1.000000
74 0 -1.000000
74 0 -1.000000
74 0 -1.000000
74 0 -1.000000
74 0 -1.000000
75 10 1.000000
75 0 -1.000000
75 0 -1.000000
75 0 -1.000000
75 0 -1.000000
75 0 -1.000000
75 0 -1.000000
75 0 -1.000000
76 10 1.000000
76 0 -1.000000
76 0 -1.000000
76 0 -1.000000
76 0 -1.000000
76 0 -1.000000
76 0 -1.000000
76 0 -1.000000
77 10 1.000000
77 0 -1.000000
77 0 -1.000000
77 0 -1.000000
77 0 -1.000000
77 0 -1.000000
77 0 -1.000000
77 0 -1.000000
78 10 1.000000
78 0 -1.000000
78 0 -1.000000
78 0 -1.000000
78 0 -1.000000
78 0 -1.000000
78 0 -1.000000
78 0 -1.000000
79 10 1.000000
79 0 -1.000000
79 0 -1.000000
79 0 -1.000000
79 0 -1.000000
79 0 -1.000000
79 0 -1.000000
79 0 -1.000000
80 10 1.000000
80 0 -1.000000
80 0 -1.000000
80 0 -1.000000
80 0 -1.000000
80 0 -1.000000
80 0 -1.000000
80 0 -1.000000
81 10 1.000000
81 0 -1.000000
81 0 -1.000000
81 0 -1.000000
81 0 -1.000000
81 0 -1.000000
81 0 -1.000000
81 0 -1.000000
82 10 1.000000
82 0 -1.000000
82 0 -1.000000
82 0 -1.000000
82 0 -1.000000
82 0 -1.000000
82 0 -1.000000
82 0 -1.000000
83 10 1.000000
83 0 -1.000000
83 0 -1.000000
83 0 -1.000000
83 0 -1.000000
83 0 -1.000000
83 0 -1.000000
83 0 -1.000000
84 10 1.000000
84 0 -1.000000
84 0 -1.000000
84 0 -1.000000
84 0 -1.000000
84 0 -1.000000
84 0 -1.000000
84 0 -1.000000
85 10 1.000000
85 0 -1.000000
85 0 -1.000000
85 0 -1.000000
85 0 -1.000000
85 0 -1.000000
85 0 -1.000000
85 0 -1.000000
86 10 1.000000
86 0 -1.000000
86 0 -1.000000
86 0 -1.000000
86 0 -1.000000
86 0 -1.000000
86 0 -1.000000
86 0 -1.000000
87 10 1.000000
87 0 -1.000000
87 0 -1.000000
87 0 -1.000000
87 0 -1.000000
87 0 -1.000000
87 0 -1.000000
87 0 -1.000000
88 10 1.000000
88 0 -1.000000
88 0 -1.000000
88 0 -1.000000
88 0 -1.000000
88 0 -1.000000
88 0 -1.000000
88 0 -1.000000
89 10 1.000000
89 0 -1.000000
89 0 -1.000000
89 0 -1.000000
89 0 -1.000000
89 0 -1.000000
89 0 -1.000000
89 0 -1.000000
90 10 1.000000
90 0 -1.000000
90 0 -1.000000
90 0 -1.000000
90 0 -1.000000
90 0 -1.000000
90 0 -1.000000
90 0 -1.000000
91 10 1.000000
91 0 -1.000000
91 0 -1.000000
91 0 -1.000000
91 0 -1.000000
91 0 -1.000000
91 0 -1.000000
91 0 -1.000000
92 10 1.000000
92 0 -1.000000
92 0 -1.000000
92 0 -1.000000
92 0 -1.000000
92 0 -1.000000
92 0 -1.000000
92 0 -1.000000
93 10 1.000000
93 0 -1.000000
93 0 -1.000000
93 0 -1.000000
93 0 -1.000000
93 0 -1.000000
93 0 -1.000000
93 0 -1.000000
94 10 1.000000
94 0 -1.000000
94 0 -1.000000
94 0 -1.000000
94 0 -1.000000
94 0 -1.000000
94 0 -1.000000
94 0 -1.000000
95 10 1.000000
95 0 -1.000000
95 0 -1.000000
95 0 -1.000000
95 0 -1.000000
95 0 -1.000000
95 0 -1.000000
95 0 -1.000000
96 10 1.000000
96 0 -1.000000
96 0 -1.000000
96 0 -1.000000
96 0 -1.000000
96 0 -1.000000
96 0 -1.000000
96 0 -1.000000
97 10 1.000000
97 0 -1.000000
97 0 -1.000000
97 0 -1.000000
97 0 -1.000000
97 0 -1.000000
97 0 -1.000000
97 0 -1.000000
98 10 1.000000
98 0 -1.000000
98 0 -1.000000
98 0 -1.000000
98 0 -1.000000
98 0 -1.000000
98 0 -1.000000
98 0 -1.000000
99 10 1.000000
99 0 -1.000000
99 0 -1.000000
99 0 -1.000000
99 0 -1.000000
99 0 -1.000000
99 0 -1.000000
99 0 -1.000000
100 10 1.000000
100 0 -1.000000
100 0 -1.000000
100 0 -1.000000
100 0 -1.000000
100 0 -1.000000
100 0 -1.000000
100 0 -1.000000
101 10 1.000000
101 0 -1.000000
101 0 -1.000000
101 0 -1.000000
101 0 -1.000000
101 0 -1.000000
101 0 -1.000000
101 0 -1.000000
102 10 1.000000
102 0 -1.000000
102 0 -1.000000
102 0 -1.000000
102 0 -1.000000
102 0 -1.000000
102 0 -1.000000
102 0 -1.000000
103 10 1.000000
103 0 -1.000000
103 0 -1.000000
103 0 -1.000000
103 0 -1.000000
103 0 -1.000000
103 0 -1.000000
103 0 -1.000000
104 10 1.000000
104 0 -1.000000
104 0 -1.000000
104 0 -1.000000
104 0 -1.000000
104 0 -1.000000
104 0 -1.000000
104 0 -1.000000
105 10 1.000000
105 0 -1.000000
105 0 -1.000000
105 0 -1.000000
105 0 -1.000000
105 0 -1.000000
105 0 -1.000000
105 0 -1.000000
106 10 1.000000
106 0 -1.000000
106 0 -1.000000
106 0 -1.000000
106 0 -1.000000
106 0 -1.000000
106 0 -1.000000
106 0 -1.000000
107 10 1.000000
107 0 -1.000000
107 0 -1.000000
107 0 -1.000000
107 0 -1.000000
107 0 -1.000000
107 0 -1.000000
107 0 -1.000000
108 10 1.000000
108 0 -1.000000
108 0 -1.000000
108 0 -1.000000
108 0 -1.000000
108 0 -1.000000
108 0 -1.000000
108 0 -1.000000
109 10 1.000000
109 0 -1.000000
109 0 -1.000000
109 0 -1.000000
109 0 -1.000000
109 0 -1.000000
109 0 -1.000000
109 0 -1.000000
110 10 1.000000
110 0 -1.000000
110 0 -1.000000
110 0 -1.000000
110 0 -1.000000
110 0 -1.000000
110 0 -1.000000
110 0 -1.000000
111 10 1.000000
111 0 -1.000000
111 0 -1.000000
111 0 -1.000000
111 0 -1.000000
111 0 -1.000000
111 0 -1.000000
111 0 -1.000000
112 10 1.000000
112 0 -1.000000
112 0 -1.000000
112 0 -1.000000
112 0 -1.000000
112 0 -1.000000
112 0 -1.000000
112 0 -1.000000
113 10 1.000000
113 0 -1.000000
113 0 -1.000000
113 0 -1.000000
113 0 -1.000000
113 0 -1.000000
113 0 -1.000000
113 0 -1.000000
114 10 1.000000
114 0 -1.000000
114 0 -1.000000
114 0 -1.000000
114 0 -1.000000
114 0 -1.000000
114 0 -1.000000
114 0 -1.000000
115 10 1.000000
115 0 -1.000000
115 0 -1.000000
115 0 -1.000000
115 0 -1.000000
115 0 -1.000000
115 0 -1.000000
115 0 -1.000000
116 10 1.000000
116 0 -1.000000
116 0 -1.000000
116 0 -1.000000
116 0 -1.000000
116 0 -1.000000
116 0 -1.000000
116 0 -1.000000
117 10 1.000000
117 0 -1.000000
117 0 -1.000000
117 0 -1.000000
117 0 -1.000000
117 0 -1.000000
117 0 -1.000000
117 0 -1.000000
118 10 1.000000
118 0 -1.000000
118 0 -1.000000
118 0 -1.000000
118 0 -1.000000
118 0 -1.000000
118 0 -1.000000
118 0 -1.000000
119 10 1.000000
119 0 -1.000000
119 0 -1.000000
119 0 -1.000000
119 0 -1.000000
119 0 -1.000000
119 0 -1.000000
119 0 -1.000000
120 10 1.000000
120 0 -1.000000
120 0 -1.000000
120 0 -1.000000
120 0 -1.000000
120 0 -1.000000
120 0 -1.000000
120 0 -1.000000
121 10 1.000000
121 0 -1.000000
121 0 -1.000000
121 0 -1.000000
121 0 -1.000000
121 0 -1.000000
121 0 -1.000000
121 0 -1.000000
122 10 1.000000
122 0 -1.000000
122 0 -1.000000
122 0 -1.000000
122 0 -1.000000
122 0 -1.000000
122 0 -1.000000
122 0 -1.000000
123 10 1.000000
123 0 -1.000000
123 0 -1.000000
123 0 -1.000000
123 0 -1.000000
123 0 -1.000000
123 0 -1.000000
123 0 -1.000000
124 10 1.000000
124 0 -1.000000
124 0 -1.000000
124 0 -1.000000
124 0 -1.000000
124 0 -1.000000
124 0 -1.000000
124 0 -1.000000
125 10 1.000000
125 0 -1.000000
125 0 -1.000000
125 0 -1.000000
125 0 -1.000000
125 0 -1.000000
125 0 -1.000000
125 0 -1.000000
126 10 1.000000
126 0 -1.000000
126 0 -1.000000
126 0 -1.000000
126 0 -1.000000
126 0 -1.000000
126 0 -1.000000
126 0 -1.000000
127 10 1.000000
127 0 -1.000000
127 0 -1.000000
127 0 -1.000000
127 0 -1.000000
127 0 -1.000000
127 0 -1.000000
127 0 -1.000000
128 10 1.000000
128 0 -1.000000
128 0 -1.000000
128 0 -1.000000
128 0 -1.000000
128 0 -1.000000
128 0 -1.000000
128 0 -1.000000
129 10 1.000000
129 0 -1.000000
129 0 -1.000000
129 0 -1.000000
129 0 -1.000000
129 0 -1.000000
129 0 -1.000000
129 0 -1.000000
130 10 1.000000
130 0 -1.000000
130 0 -1.000000
130 0 -1.000000
130 0 -1.000000
130 0 -1.000000
130 0 -1.000000
130 0 -1.000000
131 10 1.000000
131 0 -1.000000
131 0 -1.000000
131 0 -1.000000
131 0 -1.000000
131 0 -1.000000
131 0 -1.000000
131 0 -1.000000
132 10 1.000000
132 0 -1.000000
132 0 -1.000000
132 0 -1.000000
132 0 -1.000000
132 0 -1.000000
132 0 -1.000000
132 0 -1.000000
133 10 1.000000
133 0 -1.000000
133 0 -1.000000
133 0 -1.000000
133 0 -1.000000
133 0 -1.000000
133 0 -1.000000
133 0 -1.000000
134 10 1.000000
134 0 -1.000000
134 0 -1.000000
134 0 -1.000000
134 0 -1.000000
134 0 -1.000000
134 0 -1.000000
134 0 -1.000000
135 10 1.000000
135 0 -1.000000
135 0 -1.000000
135 0 -1.000000
135 0 -1.000000
135 0 -1.000000
135 0 -1.000000
135 0 -1.000000
136 10 1.000000
136 0 -1.000000
136 0 -1.000000
136 0 -1.000000
136 0 -1.000000
136 0 -1.000000
136 0 -1.000000
136 0 -1.000000
137 10 1.000000
137 0 -1.000000
137 0 -1.000000
137 0 -1.000000
137 0 -1.000000
137 0 -1.000000
137 0 -1.000000
137 0 -1.000000
138 10 1.000000
138 0 -1.000000
138 0 -1.000000
138 0 -1.000000
138 0 -1.000000
138 0 -1.000000
138 0 -1.000000
138 0 -1.000000
139 10 1.000000
139 0 -1.000000
139 0 -1.000000
139 0 -1.000000
139 0 -1.000000
139 0 -1.000000
139 0 -1.000000
139 0 -1.000000
140 10 1.000000
140 0 -1.000000
140 0 -1.000000
140 0 -1.000000
140 0 -1.000000
140 0 -1.000000
140 0 -1.000000
140 0 -1.000000
141 10 1.000000
141 0 -1.000000
141 0 -1.000000
141 0 -1.000000
141 0 -1.000000
141 0 -1.000000
141 0 -1.000000
141 0 -1.000000
142 10 1.000000
142 0 -1.000000
142 0 -1.000000
142 0 -1.000000
142 0 -1.000000
142 0 -1.000000
142 0 -1.000000
142 0 -1.000000
143 10 1.000000
143 0 -1.000000
143 0 -1.000000
143 0 -1.000000
143 0 -1.000000
143 0 -1.000000
143 0 -1.000000
143 0 -1.000000
144 10 1.000000
144 0 -1.000000
144 0 -1.000000
144 0 -1.000000
144 0 -1.000000
144 0 -1.000000
144 0 -1.000000
144 0 -1.000000
145 10 1.000000
145 0 -1.000000
145 0 -1.000000
145 0 -1.000000
145 0 -1.000000
145 0 -1.000000
145 0 -1.000000
145 0 -1.000000
146 10 1.000000
146 0 -1.000000
146 0 -1.000000
146 0 -1.000000
146 0 -1.000000
146 0 -1.000000
146 0 -1.000000
146 0 -1.000000
147 10 1.000000
147 0 -1.000000
147 0 -1.000000
147 0 -1.000000
147 0 -1.000000
147 0 -1.000000
147 0 -1.000000
147 0 -1.000000
148 10 1.000000
148 0 -1.000000
148 0 -1.000000
148 0 -1.000000
148 0 -1.000000
148 0 -1.000000
148 0 -1.000000
148 0 -1.000000
149 10 1.000000
149 0 -1.000000
149 0 -1.000000
149 0 -1.000000
149 0 -1.000000
149 0 -1.000000
149 0 -1.000000
149 0 -1.000000
150 10 1.000000
150 0 -1.000000
150 0 -1.000000
150 0 -1.000000
150 0 -1.000000
150 0 -1.000000
150 0 -1.000000
150 0 -1.000000
151 10 1.000000
151 0 -1.000000
151 0 -1.000000
151 0 -1.000000
151 0 -1.000000
151 0 -1.000000
151 0 -1.000000
151 0 -1.000000
152 10 1.000000
152 0 -1.000000
152 0 -1.000000
152 0 -1.000000
152 0 -1.000000
152 0 -1.000000
152 0 -1.000000
152 0 -1.000000
153 10 1.000000
153 0 -1.000000
153 0 -1.000000
153 0 -1.000000
153 0 -1.000000
153 0 -1.000000
153 0 -1.000000
153 0 -1.000000
154 10 1.000000
154 0 -1.000000
154 0 -1.000000
154 0 -1.000000
154 0 -1.000000
154 0 -1.000000
154 0 -1.000000
154 0 -1.000000
155 10 1.000000
155 0 -1.000000
155 0 -1.000000
155 0 -1.000000
155 0 -1.000000
155 0 -1.000000
155 0 -1.000000
155 0 -1.000000
156 10 1.000000
156 0 -1.000000
156 0 -1.000000
156 0 -1.000000
156 0 -1.000000
156 0 -1.000000
156 0 -1.000000
156 0 -1.000000
157 10 1.000000
157 0 -1.000000
157 0 -1.000000
157 0 -1.000000
157 0 -1.000000
157 0 -1.000000
157 0 -1.000000
157 0 -1.000000
158 10 1.000000
158 0 -1.000000
158 0 -1.000000
158 0 -1.000000
158 0 -1.000000
158 0 -1.000000
158 0 -1.000000
158 0 -1.000000
159 10 1.000000
159 0 -1.000000
159 0 -1.000000
159 0 -1.000000
159 0 -1.000000
159 0 -1.000000
159 0 -1.000000
159 0 -1.000000
160 10 1.000000
160 0 -1.000000
160 0 -1.000000
160 0 -1.000000
160 0 -1.000000
160 0 -1.000000
160 0 -1.000000
160 0 -1.000000
161 10 1.000000
161 0 -1.000000
161 0 -1.000000
161 0 -1.000000
161 0 -1.000000
161 0 -1.000000
161 0 -1.000000
161 0 -1.000000
162 10 1.000000
162 0 -1.000000
162 0 -1.000000
162 0 -1.000000
162 0 -1.000000
162 0 -1.000000
162 0 -1.000000
162 0 -1.000000
163 10 1.000000
163 0 -1.000000
163 0 -1.000000
163 0 -1.000000
163 0 -1.000000
163 0 -1.000000
163 0 -1.000000
163 0 -1.000000
164 10 1.000000
164 0 -1.000000
164 0 -1.000000
164 0 -1.000000
164 0 -1.000000
164 0 -1.000000
164 0 -1.000000
164 0 -1.000000
165 10 1.000000
165 0 -1.000000
165 0 -1.000000
165 0 -1.000000
165 0 -1.000000
165 0 -1.000000
165 0 -1.000000
165 0 -1.000000
166 10 1.000000
166 0 -1.000000
166 0 -1.000000
166 0 -1.000000
166 0 -1.000000
166 0 -1.000000
166 0 -1.000000
166 0 -1.000000
167 10 1.000000
167 0 -1.000000
167 0 -1.000000
167 0 -1.000000
167 0 -1.000000
167 0 -1.000000
167 0 -1.000000
167 0 -1.000000
168 10 1.000000
168 0 -1.000000
168 0 -1.000000
168 0 -1.000000
168 0 -1.000000
168 0 -1.000000
168 0 -1.000000
168 0 -1.000000
169 10 1.000000
169 0 -1.000000
169 0 -1.000000
169 0 -1.000000
169 0 -1.000000
169 0 -1.000000
169 0 -1.000000
169 0 -1.000000
170 10 1.000000
170 0 -1.000000
170 0 -1.000000
170 0 -1.000000
170 0 -1.000000
170 0 -1.000000
170 0 -1.000000
170 0 -1.000000
171 10 1.000000
171 0 -1.000000
171 0 -1.000000
171 0 -1.000000
171 0 -1.000000
171 0 -1.000000
171 0 -1.000000
171 0 -1.000000
172 10 1.000000
172 0 -1.000000
172 0 -1.000000
172 0 -1.000000
172 0 -1.000000
172 0 -1.000000
172 0 -1.000000
172 0 -1.000000
173 10 1.000000
173 0 -1.000000
173 0 -1.000000
173 0 -1.000000
173 0 -1.000000
173 0 -1.000000
173 0 -1.000000
173 0 -1.000000
174 10 1.000000
174 0 -1.000000
174 0 -1.000000
174 0 -1.000000
174 0 -1.000000
174 0 -1.000000
174 0 -1.000000
174 0 -1.000000
175 10 1.000000
175 0 -1.000000
175 0 -1.000000
175 0 -1.000000
175 0 -1.000000
175 0 -1.000000
175 0 -1.000000
175 0 -1.000000
176 10 1.000000
176 0 -1.000000
176 0 -1.000000
176 0 -1.000000
176 0 -1.000000
176 0 -1.000000
176 0 -1.000000
176 0 -1.000000
177 10 1.000000
177 0 -1.000000
177 0 -1.000000
177 0 -1.000000
177 0 -1.000000
177 0 -1.000000
177 0 -1.000000
177 0 -1.000000
178 10 1.000000
178 0 -1.000000
178 0 -1.000000
178 0 -1.000000
178 0 -1.000000
178 0 -1.000000
178 0 -1.000000
178 0 -1.000000
179 10 1.000000
179 0 -1.000000
179 0 -1.000000
179 0 -1.000000
179 0 -1.000000
179 0 -1.000000
179 0 -1.000000
179 0 -1.000000
180 10 1.000000
180 0 -1.000000
180 0 -1.000000
180 0 -1.000000
180 0 -1.000000
180 0 -1.000000
180 0 -1.000000
180 0 -1.000000
181 10 1.000000
181 0 -1.000000
181 0 -1.000000
181 0 -1.000000
181 0 -1.000000
181 0 -1.000000
181 0 -1.000000
181 0 -1.000000
182 10 1.000000
182 0 -1.000000
182 0 -1.000000
182 0 -1.000000
182 0 -1.000000
182 0 -1.000000
182 0 -1.000000
182 0 -1.000000
183 10 1.000000
183 0 -1.000000
183 0 -1.000000
183 0 -1.000000
183 0 -1.000000
183 0 -1.000000
183 0 -1.000000
183 0 -1.000000
184 10 1.000000
184 0 -1.000000
184 0 -1.000000
184 0 -1.000000
184 0 -1.000000
184 0 -1.000000
184 0 -1.000000
184 0 -1.000000
185 10 1.000000
185 0 -1.000000
185 0 -1.000000
185 0 -1.000000
185 0 -1.000000
185 0 -1.000000
185 0 -1.000000
185 0 -1.000000
186 10 1.000000
186 0 -1.000000
186 0 -1.000000
186 0 -1.000000
186 0 -1.000000
186 0 -1.000000
186 0 -1.000000
186 0 -1.000000
187 10 1.000000
187 0 -1.000000
187 0 -1.000000
187 0 -1.000000
187 0 -1.000000
187 0 -1.000000
187 0 -1.000000
187 0 -1.000000
188 10 1.000000
188 0 -1.000000
188 0 -1.000000
188 0 -1.000000
188 0 -1.000000
188 0 -1.000000
188 0 -1.000000
188 0 -1.000000
189 10 1.000000
189 0 -1.000000
189 0 -1.000000
189 0 -1.000000
189 0 -1.000000
189 0 -1.000000
189 0 -1.000000
189 0 -1.000000
190 10 1.000000
190 0 -1.000000
190 0 -1.000000
190 0 -1.000000
190 0 -1.000000
190 0 -1.000000
190 0 -1.000000
190 0 -1.000000
191 10 1.000000
191 0 -1.000000
191 0 -1.000000
191 0 -1.000000
191 0 -1.000000
191 0 -1.000000
191 0 -1.000000
191 0 -1.000000
192 10 1.000000
192 0 -1.000000
192 0 -1.000000
192 0 -1.000000
192 0 -1.000000
192 0 -1.000000
192 0 -1.000000
192 0 -1.000000
193 10 1.000000
193 0 -1.000000
193 0 -1.000000
193 0 -1.000000
193 0 -1.000000
193 0 -1.000000
193 0 -1.000000
193 0 -1.000000
194 10 1.000000
194 0 -1.000000
194 0 -1.000000
194 0 -1.000000
194 0 -1.000000
194 0 -1.000000
194 0 -1.000000
194 0 -1.000000
195 10 1.000000
195 0 -1.000000
195 0 -1.000000
195 0 -1.000000
195 0 -1.000000
195 0 -1.000000
195 0 -1.000000
195 0 -1.000000
196 10 1.000000
196 0 -1.000000
196 0 -1.000000
196 0 -1.000000
196 0 -1.000000
196 0 -1.000000
196 0 -1.000000
196 0 -1.000000
197 10 1.000000
197 0 -1.000000
197 0 -1.000000
197 0 -1.000000
197 0 -1.000000
197 0 -1.000000
197 0 -1.000000
197 0 -1.000000
198 10 1.000000
198 0 -1.000000
198 0 -1.000000
198 0 -1.000000
198 0 -1.000000
198 0 -1.000000
198 0 -1.000000
198 0 -1.000000
199 10 1.000000
199 0 -1.000000
199 0 -1.000000
199 0 -1.000000
199 0 -1.000000
199 0 -1.000000
199 0 -1.000000
199 0 -1.000000
200 10 1.000000
200 0 -1.000000
200 0 -1.000000
200 0 -1.000000
200 0 -1.000000
200 0 -1.000000
200 0 -1.000000
200 0 -1.000000
201 10 1.000000
201 0 -1.000000
201 0 -1.000000
201 0 -1.000000
201 0 -1.000000
201 0 -1.000000
201 0 -1.000000
201 0 -1.000000
202 10 1.000000
202 0 -1.000000
202 0 -1.000000
202 0 -1.000000
202 0 -1.000000
202 0 -1.000000
202 0 -1.000000
202 0 -1.000000
203 10 1.000000
203 0 -1.000000
203 0 -1.000000
203 0 -1.000000
203 0 -1.000000
203 0 -1.000000
203 0 -1.000000
203 0 -1.000000
204 10 1.000000
204 0 -1.000000
204 0 -1.000000
204 0 -1.000000
204 0 -1.000000
204 0 -1.000000
204 0 -1.000000
204 0 -1.000000
205 10 1.000000
205 0 -1.000000
205 0 -1.000000
205 0 -1.000000
205 0 -1.000000
205 0 -1.000000
205 0 -1.000000
205 0 -1.000000
206 10 1.000000
206 0 -1.000000
206 0 -1.000000
206 0 -1.000000
206 0 -1.000000
206 0 -1.000000
206 0 -1.000000
206 0 -1.000000
207 10 1.000000
207 0 -1.000000
207 0 -1.000000
207 0 -1.000000
207 0 -1.000000
207 0 -1.000000
207 0 -1.000000
207 0 -1.000000
208 10 1.000000
208 0 -1.000000
208 0 -1.000000
208 0 -1.000000
208 0 -1.000000
208 0 -1.000000
208 0 -1.000000
208 0 -1.000000
209 10 1.000000
209 0 -1.000000
209 0 -1.000000
209 0 -1.000000
209 0 -1.000000
209 0 -1.000000
209 0 -1.000000
209 0 -1.000000
210 10 1.000000
210 0 -1.000000
210 0 -1.000000
210 0 -1.000000
210 0 -1.000000
210 0 -1.000000
210 0 -1.000000
210 0 -1.000000
211 10 1.000000
211 0 -1.000000
211 0 -1.000000
211 0 -1.000000
211 0 -1.000000
211 0 -1.000000
211 0 -1.000000
211 0 -1.000000
212 10 1.000000
212 0 -1.000000
212 0 -1.000000
212 0 -1.000000
212 0 -1.000000
212 0 -1.000000
212 0 -1.000000
212 0 -1.000000
213 10 1.000000
213 0 -1.000000
213 0 -1.000000
213 0 -1.000000
213 0 -1.000000
213 0 -1.000000
213 0 -1.000000
213 0 -1.000000
214 10 1.000000
214 0 -1.000000
214 0 -1.000000
214 0 -1.000000
214 0 -1.000000
214 0 -1.000000
214 0 -1.000000
214 0 -1.000000
215 10 1.000000
215 0 -1.000000
215 0 -1.000000
215 0 -1.000000
215 0 -1.000000
215 0 -1.000000
215 0 -1.000000
215 0 -1.000000
216 10 1.000000
216 0 -1.000000
216 0 -1.000000
216 0 -1.000000
216 0 -1.000000
216 0 -1.000000
216 0 -1.000000
216 0 -1.000000
217 10 1.000000
217 0 -1.000000
217 0 -1.000000
217 0 -1.000000
217 0 -1.000000
217 0 -1.000000
217 0 -1.000000
217 0 -1.000000
218 10 1.000000
218 0 -1.000000
218 0 -1.000000
218 0 -1.000000
218 0 -1.000000
218 0 -1.000000
218 0 -1.000000
218 0 -1.000000
219 10 1.000000
219 0 -1.000000
219 0 -1.000000
219 0 -1.000000
219 0 -1.000000
219 0 -1.000000
219 0 -1.000000
219 0 -1.000000
220 10 1.000000
220 0 -1.000000
220 0 -1.000000
220 0 -1.000000
220 0 -1.000000
220 0 -1.000000
220 0 -1.000000
220 0 -1.000000
221 10 1.000000
221 0 -1.000000
221 0 -1.000000
221 0 -1.000000
221 0 -1.000000
221 0 -1.000000
221 0 -1.000000
221 0 -1.000000
222 10 1.000000
222 0 -1.000000
222 0 -1.000000
222 0 -1.000000
222 0 -1.000000
222 0 -1.000000
222 0 -1.000000
222 0 -1.000000
223 10 1.000000
223 0 -1.000000
223 0 -1.000000
223 0 -1.000000
223 0 -1.000000
223 0 -1.000000
223 0 -1.000000
223 0 -1.000000
224 10 1.000000
224 0 -1.000000
224 0 -1.000000
224 0 -1.000000
224 0 -1.000000
224 0 -1.000000
224 0 -1.000000
224 0 -1.000000
225 10 1.000000
225 0 -1.000000
225 0 -1.000000
225 0 -1.000000
225 0 -1.000000
225 0 -1.000000
225 0 -1.000000
225 0 -1.000000
226 10 1.000000
226 0 -1.000000
226 0 -1.000000
226 0 -1.000000
226 0 -1.000000
226 0 -1.000000
226 0 -1.000000
226 0 -1.000000
227 10 1.000000
227 0 -1.000000
227 0 -1.000000
227 0 -1.000000
227 0 -1.000000
227 0 -1.000000
227 0 -1.000000
227 0 -1.000000
228 10 1.000000
228 0 -1.000000
228 0 -1.000000
228 0 -1.000000
228 0 -1.000000
228 0 -1.000000
228 0 -1.000000
228 0 -1.000000
229 10 1.000000
229 0 -1.000000
229 0 -1.000000
229 0 -1.000000
229 0 -1.000000
229 0 -1.000000
229 0 -1.000000
229 0 -1.000000
230 10 1.000000
230 0 -1.000000
230 0 -1.000000
230 0 -1.000000
230 0 -1.000000
230 0 -1.000000
230 0 -1.000000
230 0 -1.000000
231 10 1.000000
231 0 -1.000000
231 0 -1.000000
231 0 -1.000000
231 0 -1.000000
231 0 -1.000000
231 0 -1.000000
231 0 -1.000000
232 10 1.000000
232 0 -1.000000
232 0 -1.000000
232 0 -1.000000
232 0 -1.000000
232 0 -1.000000
232 0 -1.000000
232 0 -1.000000
233 10 1.000000
233 0 -1.000000
233 0 -1.000000
233 0 -1.000000
233 0 -1.000000
233 0 -1.000000
233 0 -1.000000
233 0 -1.000000
234 10 1.000000
234 0 -1.000000
234 0 -1.000000
234 0 -1.000000
234 0 -1.000000
234 0 -1.000000
234 0 -1.000000
234 0 -1.000000
235 10 1.000000
235 0 -1.000000
235 0 -1.000000
235 0 -1.000000
235 0 -1.000000
235 0 -1.000000
235 0 -1.000000
235 0 -1.000000
236 10 1.000000
236 0 -1.000000
236 0 -1.000000
236 0 -1.000000
236 0 -1.000000
236 0 -1.000000
236 0 -1.000000
236 0 -1.000000
237 10 1.000000
237 0 -1.000000
237 0 -1.000000
237 0 -1.000000
237 0 -1.000000
237 0 -1.000000
237 0 -1.000000
237 0 -1.000000
238 10 1.000000
238 0 -1.000000
238 0 -1.000000
238 0 -1.000000
238 0 -1.000000
238 0 -1.000000
238 0 -1.000000
238 0 -1.000000
239 10 1.000000
239 0 -1.000000
239 0 -1.000000
239 0 -1.000000
239 0 -1.000000
239 0 -1.000000
239 0 -1.000000
239 0 -1.000000
240 10 1.000000
240 0 -1.000000
240 0 -1.000000
240 0 -1.000000
240 0 -1.000000
240 0 -1.000000
240 0 -1.000000
240 0 -1.000000
241 10 1.000000
241 0 -1.000000
241 0 -1.000000
241 0 -1.000000
241 0 -1.000000
241 0 -1.000000
241 0 -1.000000
241 0 -1.000000
242 10 1.000000
242 0 -1.000000
242 0 -1.000000
242 0 -1.000000
242 0 -1.000000
242 0 -1.000000
242 0 -1.000000
242 0 -1.000000
243 10 1.000000
243 0 -1.000000
243 0 -1.000000
243 0 -1.000000
243 0 -1.000000
243 0 -1.000000
243 0 -1.000000
243 0 -1.000000
244 10 1.000000
244 0 -1.000000
244 0 -1.000000
244 0 -1.000000
244 0 -1.000000
244 0 -1.000000
244 0 -1.000000
244 0 -1.000000
245 10 1.000000
245 0 -1.000000
245 0 -1.000000
245 0 -1.000000
245 0 -1.000000
245 0 -1.000000
245 0 -1.000000
245 0 -1.000000
246 10 1.000000
246 0 -1.000000
246 0 -1.000000
246 0 -1.000000
246 0 -1.000000
246 0 -1.000000
246 0 -1.000000
246 0 -1.000000
247 10 1.000000
247 0 -1.000000
247 0 -1.000000
247 0 -1.000000
247 0 -1.000000
247 0 -1.000000
247 0 -1.000000
247 0 -1.000000
248 10 1.000000
248 0 -1.000000
248 0 -1.000000
248 0 -1.000000
248 0 -1.000000
248 0 -1.000000
248 0 -1.000000
248 0 -1.000000
249 10 1.000000
249 0 -1.000000
249 0 -1.000000
249 0 -1.000000
249 0 -1.000000
249 0 -1.000000
249 0 -1.000000
249 0 -1.000000
250 10 1.000000
250 0 -1.000000
250 0 -1.000000
250 0 -1.000000
250 0 -1.000000
250 0 -1.000000
250 0 -1.000000
250 0 -1.000000
251 10 1.000000
251 0 -1.000000
251 0 -1.000000
251 0 -1.000000
251 0 -1.000000
251 0 -1.000000
251 0 -1.000000
251 0 -1.000000
252 10 1.000000
252 0 -1.000000
252 0 -1.000000
252 0 -1.000000
252 0 -1.000000
252 0 -1.000000
252 0 -1.000000
252 0 -1.000000
253 10 1.000000
253 0 -1.000000
253 0 -1.000000
253 0 -1.000000
253 0 -1.000000
253 0 -1.000000
253 0 -1.000000
253 0 -1.000000
254 10 1.000000
254 0 -1.000000
254 0 -1.000000
254 0 -1.000000
254 0 -1.000000
254 0 -1.000000
254 0 -1.000000
254 0 -1.000000
255 10 1.000000
255 0 -1.000000
255 0 -1.000000
255 0 -1.000000
255 0 -1.000000
255 0 -1.000000
255 0 -1.000000
255 0 -1.000000
256 10 1.000000
256 0 -1.000000
256 0 -1.000000
256 0 -1.000000
256 0 -1.000000
256 0 -1.000000
256 0 -1.000000
256 0 -1.000000
257 10 1.000000
257 0 -1.000000
257 0 -1.000000
257 0 -1.000000
257 0 -1.000000
257 0 -1.000000
257 0 -1.000000
257 0 -1.000000
258 10 1.000000
258 0 -1.000000
258 0 -1.000000
258 0 -1.000000
258 0 -1.000000
258 0 -1.000000
258 0 -1.000000
258 0 -1.000000
259 10 1.000000
259 0 -1.000000
259 0 -1.000000
259 0 -1.000000
259 0 -1.000000
259 0 -1.000000
259 0 -1.000000
259 0 -1.000000
260 10 1.000000
260 0 -1.000000
260 0 -1.000000
260 0 -1.000000
260 0 -1.000000
260 0 -1.000000
260 0 -1.000000
260 0 -1.000000
261 10 1.000000
261 0 -1.000000
261 0 -1.000000
261 0 -1.000000
261 0 -1.000000
261 0 -1.000000
261 0 -1.000000
261 0 -1.000000
262 10 1.000000
262 0 -1.000000
262 0 -1.000000
262 0 -1.000000
262 0 -1.000000
262 0 -1.000000
262 0 -1.000000
262 0 -1.000000
263 10 1.000000
263 0 -1.000000
263 0 -1.000000
263 0 -1.000000
263 0 -1.000000
263 0 -1.000000
263 0 -1.000000
263 0 -1.000000
264 10 1.000000
264 0 -1.000000
264 0 -1.000000
264 0 -1.000000
264 0 -1.000000
264 0 -1.000000
264 0 -1.000000
264 0 -1.000000
265 10 1.000000
265 0 -1.000000
265 0 -1.000000
265 0 -1.000000
265 0 -1.000000
265 0 -1.000000
265 0 -1.000000
265 0 -1.000000
266 10 1.000000
266 0 -1.000000
266 0 -1.000000
266 0 -1.000000
266 0 -1.000000
266 0 -1.000000
266 0 -1.000000
266 0 -1.000000
267 10 1.000000
267 0 -1.000000
267 0 -1.000000
267 0 -1.000000
267 0 -1.000000
267 0 -1.000000
267 0 -1.000000
267 0 -1.000000
268 10 1.000000
268 0 -1.000000
268 0 -1.000000
268 0 -1.000000
268 0 -1.000000
268 0 -1.000000
268 0 -1.000000
268 0 -1.000000
269 10 1.000000
269 0 -1.000000
269 0 -1.000000
269 0 -1.000000
269 0 -1.000000
269 0 -1.000000
269 0 -1.000000
269 0 -1.000000
270 10 1.000000
270 0 -1.000000
270 0 -1.000000
270 0 -1.000000
270 0 -1.000000
270 0 -1.000000
270 0 -1.000000
270 0 -1.000000
271 10 1.000000
271 0 -1.000000
271 0 -1.000000
271 0 -1.000000
271 0 -1.000000
271 0 -1.000000
271 0 -1.000000
271 0 -1.000000
272 10 1.000000
272 0 -1.000000
272 0 -1.000000
272 0 -1.000000
272 0 -1.000000
272 0 -1.000000
272 0 -1.000000
272 0 -1.000000
273 10 1.000000
273 0 -1.000000
273 0 -1.000000
273 0 -1.000000
273 0 -1.000000
273 0 -1.000000
273 0 -1.000000
273 0 -1.000000
274 10 1.000000
274 0 -1.000000
274 0 -1.000000
274 0 -1.000000
274 0 -1.000000
274 0 -1.000000
274 0 -1.000000
274 0 -1.000000
275 10 1.000000
275 0 -1.000000
275 0 -1.000000
275 0 -1.000000
275 0 -1.000000
275 0 -1.000000
275 0 -1.000000
275 0 -1.000000
276 10 1.000000
276 0 -1.000000
276 0 -1.000000
276 0 -1.000000
276 0 -1.000000
276 0 -1.000000
276 0 -1.000000
276 0 -1.000000
277 10 1.000000
277 0 -1.000000
277 0 -1.000000
277 0 -1.000000
277 0 -1.000000
277 0 -1.000000
277 0 -1.000000
277 0 -1.000000
278 10 1.000000
278 0 -1.000000
278 0 -1.000000
278 0 -1.000000
278 0 -1.000000
278 0 -1.000000
278 0 -1.000000
278 0 -1.000000
279 10 1.000000
279 0 -1.000000
279 0 -1.000000
279 0 -1.000000
279 0 -1.000000
279 0 -1.000000
279 0 -1.000000
279 0 -1.000000
280 10 1.000000
280 0 -1.000000
280 0 -1.000000
280 0 -1.000000
280 0 -1.000000
280 0 -1.000000
280 0 -1.000000
280 0 -1.000000
281 10 1.000000
281 0 -1.000000
281 0 -1.000000
281 0 -1.000000
281 0 -1.000000
281 0 -1.000000
281 0 -1.000000
281 0 -1.000000
282 10 1.000000
282 0 -1.000000
282 0 -1.000000
282 0 -1.000000
282 0 -1.000000
282 0 -1.000000
282 0 -1.000000
282 0 -1.000000
283 10 1.000000
283 0 -1.000000
283 0 -1.000000
283 0 -1.000000
283 0 -1.000000
283 0 -1.000000
283 0 -1.000000
283 0 -1.000000
284 10 1.000000
284 0 -1.000000
284 0 -1.000000
284 0 -1.000000
284 0 -1.000000
284 0 -1.000000
284 0 -1.000000
284 0 -1.000000
285 10 1.000000
285 0 -1.000000
285 0 -1.000000
285 0 -1.000000
285 0 -1.000000
285 0 -1.000000
285 0 -1.000000
285 0 -1.000000
286 10 1.000000
286 0 -1.000000
286 0 -1.000000
286 0 -1.000000
286 0 -1.000000
286 0 -1.000000
286 0 -1.000000
286 0 -1.000000
287 10 1.000000
287 0 -1.000000
287 0 -1.000000
287 0 -1.000000
287 0 -1.000000
287 0 -1.000000
287 0 -1.000000
287 0 -1.000000
288 10 1.000000
288 0 -1.000000
288 0 -1.000000
288 0 -1.000000
288 0 -1.000000
288 0 -1.000000
288 0 -1.000000
288 0 -1.000000
289 10 1.000000
289 0 -1.000000
289 0 -1.000000
289 0 -1.000000
289 0 -1.000000
289 0 -1.000000
289 0 -1.000000
289 0 -1.000000
290 10 1.000000
290 0 -1.000000
290 0 -1.000000
290 0 -1.000000
290 0 -1.000000
290 0 -1.000000
290 0 -1.000000
290 0 -1.000000
291 10 1.000000
291 0 -1.000000
291 0 -1.000000
291 0 -1.000000
291 0 -1.000000
291 0 -1.000000
291 0 -1.000000
291 0 -1.000000
292 10 1.000000
292 0 -1.000000
292 0 -1.000000
292 0 -1.000000
292 0 -1.000000
292 0 -1.000000
292 0 -1.000000
292 0 -1.000000
293 10 1.000000
293 0 -1.000000
293 0 -1.000000
293 0 -1.000000
293 0 -1.000000
293 0 -1.000000
293 0 -1.000000
293 0 -1.000000
294 10 1.000000
294 0 -1.000000
294 0 -1.000000
294 0 -1.000000
294 0 -1.000000
294 0 -1.000000
294 0 -1.000000
294 0 -1.000000
295 10 1.000000
295 0 -1.000000
295 0 -1.000000
295 0 -1.000000
295 0 -1.000000
295 0 -1.000000
295 0 -1.000000
295 0 -1.000000
296 10 1.000000
296 0 -1.000000
296 0 -1.000000
296 0 -1.000000
296 0 -1.000000
296 0 -1.000000
296 0 -1.000000
296 0 -1.000000
297 10 1.000000
297 0 -1.000000
297 0 -1.000000
297 0 -1.000000
297 0 -1.000000
297 0 -1.000000
297 0 -1.000000
297 0 -1.000000
298 10 1.000000
298 0 -1.000000
298 0 -1.000000
298 0 -1.000000
298 0 -1.000000
298 0 -1.000000
298 0 -1.000000
298 0 -1.000000
299 10 1.000000
299 0 -1.000000
299 0 -1.000000
299 0 -1.000000
299 0 -1.000000
299 0 -1.000000
299 0 -1.000000
299 0 -1.000000
300 10 1.000000
300 0 -1.000000
300 0 -1.000000
300 0 -1.000000
300 0 -1.000000
300 0 -1.000000
300 0 -1.000000
300 0 -1.000000
301 10 1.000000
301 0 -1.000000
301 0 -1.000000
301 0 -1.000000
301 0 -1.000000
301 0 -1.000000
301 0 -1.000000
301 0 -1.000000
302 10 1.000000
302 0 -1.000000
302 0 -1.000000
302 0 -1.000000
302 0 -1.000000
302 0 -1.000000
302 0 -1.000000
302 0 -1.000000
303 10 1.000000
303 0 -1.000000
303 0 -1.000000
303 0 -1.000000
303 0 -1.000000
303 0 -1.000000
303 0 -1.000000
303 0 -1.000000
304 10 1.000000
304 0 -1.000000
304 0 -1.000000
304 0 -1.000000
304 0 -1.000000
304 0 -1.000000
304 0 -1.000000
304 0 -1.000000
305 10 1.000000
305 0 -1.000000
305 0 -1.000000
305 0 -1.000000
305 0 -1.000000
305 0 -1.000000
305 0 -1.000000
305 0 -1.000000
306 10 1.000000
306 0 -1.000000
306 0 -1.000000
306 0 -1.000000
306 0 -1.000000
306 0 -1.000000
306 0 -1.000000
306 0 -1.000000
307 10 1.000000
307 0 -1.000000
307 0 -1.000000
307 0 -1.000000
307 0 -1.000000
307 0 -1.000000
307 0 -1.000000
307 0 -1.000000
308 10 1.000000
308 0 -1.000000
308 0 -1.000000
308 0 -1.000000
308 0 -1.000000
308 0 -1.000000
308 0 -1.000000
308 0 -1.000000
309 10 1.000000
309 0 -1.000000
309 0 -1.000000
309 0 -1.000000
309 0 -1.000000
309 0 -1.000000
309 0 -1.000000
309 0 -1.000000
310 10 1.000000
310 0 -1.000000
310 0 -1.000000
310 0 -1.000000
310 0 -1.000000
310 0 -1.000000
310 0 -1.000000
310 0 -1.000000
311 10 1.000000
311 0 -1.000000
311 0 -1.000000
311 0 -1.000000
311 0 -1.000000
311 0 -1.000000
311 0 -1.000000
311 0 -1.000000
312 10 1.000000
312 0 -1.000000
312 0 -1.000000
312 0 -1.000000
312 0 -1.000000
312 0 -1.000000
312 0 -1.000000
312 0 -1.000000
313 10 1.000000
313 0 -1.000000
313 0 -1.000000
313 0 -1.000000
313 0 -1.000000
313 0 -1.000000
313 0 -1.000000
313 0 -1.000000
314 10 1.000000
314 0 -1.000000
314 0 -1.000000
314 0 -1.000000
314 0 -1.000000
314 0 -1.000000
314 0 -1.000000
314 0 -1.000000
315 10 1.000000
315 0 -1.000000
315 0 -1.000000
315 0 -1.000000
315 0 -1.000000
315 0 -1.000000
315 0 -1.000000
315 0 -1.000000
316 10 1.000000
316 0 -1.000000
316 0 -1.000000
316 0 -1.000000
316 0 -1.000000
316 0 -1.000000
316 0 -1.000000
316 0 -1.000000
317 10 1.000000
317 0 -1.000000
317 0 -1.000000
317 0 -1.000000
317 0 -1.000000
317 0 -1.000000
317 0 -1.000000
317 0 -1.000000
318 10 1.000000
318 0 -1.000000
318 0 -1.000000
318 0 -1.000000
318 0 -1.000000
318 0 -1.000000
318 0 -1.000000
318 0 -1.000000
319 10 1.000000
319 0 -1.000000
319 0 -1.000000
319 0 -1.000000
319 0 -1.000000
319 0 -1.000000
319 0 -1.000000
319 0 -1.000000
320 10 1.000000
320 0 -1.000000
320 0 -1.000000
320 0 -1.000000
320 0 -1.000000
320 0 -1.000000
320 0 -1.000000
320 0 -1.000000
321 10 1.000000
321 0 -1.000000
321 0 -1.000000
321 0 -1.000000
321 0 -1.000000
321 0 -1.000000
321 0 -1.000000
321 0 -1.000000
322 10 1.000000
322 0 -1.000000
322 0 -1.000000
322 0 -1.000000
322 0 -1.000000
322 0 -1.000000
322 0 -1.000000
322 0 -1.000000
323 10 1.000000
323 0 -1.000000
323 0 -1.000000
323 0 -1.000000
323 0 -1.000000
323 0 -1.000000
323 0 -1.000000
323 0 -1.000000
324 10 1.000000
324 0 -1.000000
324 0 -1.000000
324 0 -1.000000
324 0 -1.000000
324 0 -1.000000
324 0 -1.000000
324 0 -1.000000
325 10 1.000000
325 0 -1.000000
325 0 -1.000000
325 0 -1.000000
325 0 -1.000000
325 0 -1.000000
325 0 -1.000000
325 0 -1.000000
326 10 1.000000
326 0 -1.000000
326 0 -1.000000
326 0 -1.000000
326 0 -1.000000
326 0 -1.000000
326 0 -1.000000
326 0 -1.000000
327 10 1.000000
327 0 -1.000000
327 0 -1.000000
327 0 -1.000000
327 0 -1.000000
327 0 -1.000000
327 0 -1.000000
327 0 -1.000000
328 10 1.000000
328 0 -1.000000
328 0 -1.000000
328 0 -1.000000
328 0 -1.000000
328 0 -1.000000
328 0 -1.000000
328 0 -1.000000
329 10 1.000000
329 0 -1.000000
329 0 -1.000000
329 0 -1.000000
329 0 -1.000000
329 0 -1.000000
329 0 -1.000000
329 0 -1.000000
330 10 1.000000
330 0 -1.000000
330 0 -1.000000
330 0 -1.000000
330 0 -1.000000
330 0 -1.000000
330 0 -1.000000
330 0 -1.000000
331 10 1.000000
331 0 -1.000000
331 0 -1.000000
331 0 -1.000000
331 0 -1.000000
331 0 -1.000000
331 0 -1.000000
331 0 -1.000000
332 10 1.000000
332 0 -1.000000
332 0 -1.000000
332 0 -1.000000
332 0 -1.000000
332 0 -1.000000
332 0 -1.000000
332 0 -1.000000
333 10 1.000000
333 0 -1.000000
333 0 -1.000000
333 0 -1.000000
333 0 -1.000000
333 0 -1.000000
333 0 -1.000000
333 0 -1.000000
334 10 1.000000
334 0 -1.000000
334 0 -1.000000
334 0 -1.000000
334 0 -1.000000
334 0 -1.000000
334 0 -1.000000
334 0 -1.000000
335 10 1.000000
335 0 -1.000000
335 0 -1.000000
335 0 -1.000000
335 0 -1.000000
335 0 -1.000000
335 0 -1.000000
335 0 -1.000000
336 10 1.000000
336 0 -1.000000
336 0 -1.000000
336 0 -1.000000
336 0 -1.000000
336 0 -1.000000
336 0 -1.000000
336 0 -1.000000
337 10 1.000000
337 0 -1.000000
337 0 -1.000000
337 0 -1.000000
337 0 -1.000000
337 0 -1.000000
337 0 -1.000000
337 0 -1.000000
338 10 1.000000
338 0 -1.000000
338 0 -1.000000
338 0 -1.000000
338 0 -1.000000
338 0 -1.000000
338 0 -1.000000
338 0 -1.000000
339 10 1.000000
339 0 -1.000000
339 0 -1.000000
339 0 -1.000000
339 0 -1.000000
339 0 -1.000000
339 0 -1.000000
339 0 -1.000000
340 10 1.000000
340 0 -1.000000
340 0 -1.000000
340 0 -1.000000
340 0 -1.000000
340 0 -1.000000
340 0 -1.000000
340 0 -1.000000
341 10 1.000000
341 0 -1.000000
341 0 -1.000000
341 0 -1.000000
341 0 -1.000000
341 0 -1.000000
341 0 -1.000000
341 0 -1.000000
342 10 1.000000
342 0 -1.000000
342 0 -1.000000
342 0 -1.000000
342 0 -1.000000
342 0 -1.000000
342 0 -1.000000
342 0 -1.000000
343 10 1.000000
343 0 -1.000000
343 0 -1.000000
343 0 -1.000000
343 0 -1.000000
343 0 -1.000000
343 0 -1.000000
343 0 -1.000000
344 10 1.000000
344 0 -1.000000
344 0 -1.000000
344 0 -1.000000
344 0 -1.000000
344 0 -1.000000
344 0 -1.000000
344 0 -1.000000
345 10 1.000000
345 0 -1.000000
345 0 -1.000000
345 0 -1.000000
345 0 -1.000000
345 0 -1.000000
345 0 -1.000000
345 0 -1.000000
346 10 1.000000
346 0 -1.000000
346 0 -1.000000
346 0 -1.000000
346 0 -1.000000
346 0 -1.000000
346 0 -1.000000
346 0 -1.000000
347 10 1.000000
347 0 -1.000000
347 0 -1.000000
347 0 -1.000000
347 0 -1.000000
347 0 -1.000000
347 0 -1.000000
347 0 -1.000000
348 10 1.000000
348 0 -1.000000
348 0 -1.000000
348 0 -1.000000
348 0 -1.000000
348 0 -1.000000
348 0 -1.000000
348 0 -1.000000
349 10 1.000000
349 0 -1.000000
349 0 -1.000000
349 0 -1.000000
349 0 -1.000000
349 0 -1.000000
349 0 -1.000000
349 0 -1.000000
350 10 1.000000
350 0 -1.000000
350 0 -1.000000
350 0 -1.000000
350 0 -1.000000
350 0 -1.000000
350 0 -1.000000
350 0 -1.000000
351 10 1.000000
351 0 -1.000000
351 0 -1.000000
351 0 -1.000000
351 0 -1.000000
351 0 -1.000000
351 0 -1.000000
351 0 -1.000000
352 10 1.000000
352 0 -1.000000
352 0 -1.000000
352 0 -1.000000
352 0 -1.000000
352 0 -1.000000
352 0 -1.000000
352 0 -1.000000
353 10 1.000000
353 0 -1.000000
353 0 -1.000000
353 0 -1.000000
353 0 -1.000000
353 0 -1.000000
353 0 -1.000000
353 0 -1.000000
354 10 1.000000
354 0 -1.000000
354 0 -1.000000
354 0 -1.000000
354 0 -1.000000
354 0 -1.000000
354 0 -1.000000
354 0 -1.000000
355 10 1.000000
355 0 -1.000000
355 0 -1.000000
355 0 -1.000000
355 0 -1.000000
355 0 -1.000000
355 0 -1.000000
355 0 -1.000000
356 10 1.000000
356 0 -1.000000
356 0 -1.000000
356 0 -1.000000
356 0 -1.000000
356 0 -1.000000
356 0 -1.000000
356 0 -1.000000
357 10 1.000000
357 0 -1.000000
357 0 -1.000000
357 0 -1.000000
357 0 -1.000000
357 0 -1.000000
357 0 -1.000000
357 0 -1.000000
358 10 1.000000
358 0 -1.000000
358 0 -1.000000
358 0 -1.000000
358 0 -1.000000
358 0 -1.000000
358 0 -1.000000
358 0 -1.000000
359 10 1.000000
359 0 -1.000000
359 0 -1.000000
359 0 -1.000000
359 0 -1.000000
359 0 -1.000000
359 0 -1.000000
359 0 -1.000000
360 10 1.000000
360 0 -1.000000
360 0 -1.000000
360 0 -1.000000
360 0 -1.000000
360 0 -1.000000
360 0 -1.000000
360 0 -1.000000
361 10 1.000000
361 0 -1.000000
361 0 -1.000000
361 0 -1.000000
361 0 -1.000000
361 0 -1.000000
361 0 -1.000000
361 0 -1.000000
362 10 1.000000
362 0 -1.000000
362 0 -1.000000
362 0 -1.000000
362 0 -1.000000
362 0 -1.000000
362 0 -1.000000
362 0 -1.000000
363 10 1.000000
363 0 -1.000000
363 0 -1.000000
363 0 -1.000000
363 0 -1.000000
363 0 -1.000000
363 0 -1.000000
363 0 -1.000000
364 10 1.000000
364 0 -1.000000
364 0 -1.000000
364 0 -1.000000
364 0 -1.000000
364 0 -1.000000
364 0 -1.000000
364 0 -1.000000
365 10 1.000000
365 0 -1.000000
365 0 -1.000000
365 0 -1.000000
365 0 -1.000000
365 0 -1.000000
365 0 -1.000000
365 0 -1.000000
366 10 1.000000
366 0 -1.000000
366 0 -1.000000
366 0 -1.000000
366 0 -1.000000
366 0 -1.000000
366 0 -1.000000
366 0 -1.000000
367 10 1.000000
367 0 -1.000000
367 0 -1.000000
367 0 -1.000000
367 0 -1.000000
367 0 -1.000000
367 0 -1.000000
367 0 -1.000000
368 10 1.000000
368 0 -1.000000
368 0 -1.000000
368 0 -1.000000
368 0 -1.000000
368 0 -1.000000
368 0 -1.000000
368 0 -1.000000
369 10 1.000000
369 0 -1.000000
369 0 -1.000000
369 0 -1.000000
369 0 -1.000000
369 0 -1.000000
369 0 -1.000000
369 0 -1.000000
370 10 1.000000
370 0 -1.000000
370 0 -1.000000
370 0 -1.000000
370 0 -1.000000
370 0 -1.000000
370 0 -1.000000
370 0 -1.000000
371 10 1.000000
371 0 -1.000000
371 0 -1.000000
371 0 -1.000000
371 0 -1.000000
371 0 -1.000000
371 0 -1.000000
371 0 -1.000000
372 10 1.000000
372 0 -1.000000
372 0 -1.000000
372 0 -1.000000
372 0 -1.000000
372 0 -1.000000
372 0 -1.000000
372 0 -1.000000
373 10 1.000000
373 0 -1.000000
373 0 -1.000000
373 0 -1.000000
373 0 -1.000000
373 0 -1.000000
373 0 -1.000000
373 0 -1.000000
374 10 1.000000
374 0 -1.000000
374 0 -1.000000
374 0 -1.000000
374 0 -1.000000
374 0 -1.000000
374 0 -1.000000
374 0 -1.000000
375 10 1.000000
375 0 -1.000000
375 0 -1.000000
375 0 -1.000000
375 0 -1.000000
375 0 -1.000000
375 0 -1.000000
375 0 -1.000000
376 10 1.000000
376 0 -1.000000
376 0 -1.000000
376 0 -1.000000
376 0 -1.000000
376 0 -1.000000
376 0 -1.000000
376 0 -1.000000
377 10 1.000000
377 0 -1.000000
377 0 -1.000000
377 0 -1.000000
377 0 -1.000000
377 0 -1.000000
377 0 -1.000000
377 0 -1.000000
378 10 1.000000
378 0 -1.000000
378 0 -1.000000
378 0 -1.000000
378 0 -1.000000
378 0 -1.000000
378 0 -1.000000
378 0 -1.000000
379 10 1.000000
379 0 -1.000000
379 0 -1.000000
379 0 -1.000000
379 0 -1.000000
379 0 -1.000000
379 0 -1.000000
379 0 -1.000000
380 10 1.000000
380 0 -1.000000
380 0 -1.000000
380 0 -1.000000
380 0 -1.000000
380 0 -1.000000
380 0 -1.000000
380 0 -1.000000
381 10 1.000000
381 0 -1.000000
381 0 -1.000000
381 0 -1.000000
381 0 -1.000000
381 0 -1.000000
381 0 -1.000000
381 0 -1.000000
382 10 1.000000
382 0 -1.000000
382 0 -1.000000
382 0 -1.000000
382 0 -1.000000
382 0 -1.000000
382 0 -1.000000
382 0 -1.000000
383 10 1.000000
383 0 -1.000000
383 0 -1.000000
383 0 -1.000000
383 0 -1.000000
383 0 -1.000000
383 0 -1.000000
383 0 -1.000000
384 10 1.000000
384 0 -1.000000
384 0 -1.000000
384 0 -1.000000
384 0 -1.000000
384 0 -1.000000
384 0 -1.000000
384 0 -1.000000
385 10 1.000000
385 0 -1.000000
385 0 -1.000000
385 0 -1.000000
385 0 -1.000000
385 0 -1.000000
385 0 -1.000000
385 0 -1.000000
386 10 1.000000
386 0 -1.000000
386 0 -1.000000
386 0 -1.000000
386 0 -1.000000
386 0 -1.000000
386 0 -1.000000
386 0 -1.000000
387 10 1.000000
387 0 -1.000000
387 0 -1.000000
387 0 -1.000000
387 0 -1.000000
387 0 -1.000000
387 0 -1.000000
387 0 -1.000000
388 10 1.000000
388 0 -1.000000
388 0 -1.000000
388 0 -1.000000
388 0 -1.000000
388 0 -1.000000
388 0 -1.000000
388 0 -1.000000
389 10 1.000000
389 0 -1.000000
389 0 -1.000000
389 0 -1.000000
389 0 -1.000000
389 0 -1.000000
389 0 -1.000000
389 0 -1.000000
390 10 1.000000
390 0 -1.000000
390 0 -1.000000
390 0 -1.000000
390 0 -1.000000
390 0 -1.000000
390 0 -1.000000
390 0 -1.000000
391 10 1.000000
391 0 -1.000000
391 0 -1.000000
391 0 -1.000000
391 0 -1.000000
391 0 -1.000000
391 0 -1.000000
391 0 -1.000000
392 10 1.000000
392 0 -1.000000
392 0 -1.000000
392 0 -1.000000
392 0 -1.000000
392 0 -1.000000
392 0 -1.000000
392 0 -1.000000
393 10 1.000000
393 0 -1.000000
393 0 -1.000000
393 0 -1.000000
393 0 -1.000000
393 0 -1.000000
393 0 -1.000000
393 0 -1.000000
394 10 1.000000
394 0 -1.000000
394 0 -1.000000
394 0 -1.000000
394 0 -1.000000
394 0 -1.000000
394 0 -1.000000
394 0 -1.000000
395 10 1.000000
395 0 -1.000000
395 0 -1.000000
395 0 -1.000000
395 0 -1.000000
395 0 -1.000000
395 0 -1.000000
395 0 -1.000000
396 10 1.000000
396 0 -1.000000
396 0 -1.000000
396 0 -1.000000
396 0 -1.000000
396 0 -1.000000
396 0 -1.000000
396 0 -1.000000
397 10 1.000000
397 0 -1.000000
397 0 -1.000000
397 0 -1.000000
397 0 -1.000000
397 0 -1.000000
397 0 -1.000000
397 0 -1.000000
398 10 1.000000
398 0 -1.000000
398 0 -1.000000
398 0 -1.000000
398 0 -1.000000
398 0 -1.000000
398 0 -1.000000
398 0 -1.000000
399 10 1.000000
399 0 -1.000000
399 0 -1.000000
399 0 -1.000000
399 0 -1.000000
399 0 -1.000000
399 0 -1.000000
399 0 -1.000000
400 10 1.000000
400 0 -1.000000
400 0 -1.000000
400 0 -1.000000
400 0 -1.000000
400 0 -1.000000
400 0 -1.000000
400 0 -1.000000
401 10 1.000000
401 0 -1.000000
401 0 -1.000000
401 0 -1.000000
401 0 -1.000000
401 0 -1.000000
401 0 -1.000000
401 0 -1.000000
402 10 1.000000
402 0 -1.000000
402 0 -1.000000
402 0 -1.000000
402 0 -1.000000
402 0 -1.000000
402 0 -1.000000
402 0 -1.000000
403 10 1.000000
403 0 -1.000000
403 0 -1.000000
403 0 -1.000000
403 0 -1.000000
403 0 -1.000000
403 0 -1.000000
403 0 -1.000000
404 10 1.000000
404 0 -1.000000
404 0 -1.000000
404 0 -1.000000
404 0 -1.000000
404 0 -1.000000
404 0 -1.000000
404 0 -1.000000
405 10 1.000000
405 0 -1.000000
405 0 -1.000000
405 0 -1.000000
405 0 -1.000000
405 0 -1.000000
405 0 -1.000000
405 0 -1.000000
406 10 1.000000
406 0 -1.000000
406 0 -1.000000
406 0 -1.000000
406 0 -1.000000
406 0 -1.000000
406 0 -1.000000
406 0 -1.000000
407 10 1.000000
407 0 -1.000000
407 0 -1.000000
407 0 -1.000000
407 0 -1.000000
407 0 -1.000000
407 0 -1.000000
407 0 -1.000000
408 10 1.000000
408 0 -1.000000
408 0 -1.000000
408 0 -1.000000
408 0 -1.000000
408 0 -1.000000
408 0 -1.000000
408 0 -1.000000
409 10 1.000000
409 0 -1.000000
409 0 -1.000000
409 0 -1.000000
409 0 -1.000000
409 0 -1.000000
409 0 -1.000000
409 0 -1.000000
410 10 1.000000
410 0 -1.000000
410 0 -1.000000
410 0 -1.000000
410 0 -1.000000
410 0 -1.000000
410 0 -1.000000
410 0 -1.000000
411 10 1.000000
411 0 -1.000000
411 0 -1.000000
411 0 -1.000000
411 0 -1.000000
411 0 -1.000000
411 0 -1.000000
411 0 -1.000000
412 10 1.000000
412 0 -1.000000
412 0 -1.000000
412 0 -1.000000
412 0 -1.000000
412 0 -1.000000
412 0 -1.000000
412 0 -1.000000
413 10 1.000000
413 0 -1.000000
413 0 -1.000000
413 0 -1.000000
413 0 -1.000000
413 0 -1.000000
413 0 -1.000000
413 0 -1.000000
414 10 1.000000
414 0 -1.000000
414 0 -1.000000
414 0 -1.000000
414 0 -1.000000
414 0 -1.000000
414 0 -1.000000
414 0 -1.000000
415 10 1.000000
415 0 -1.000000
415 0 -1.000000
415 0 -1.000000
415 0 -1.000000
415 0 -1.000000
415 0 -1.000000
415 0 -1.000000
416 10 1.000000
416 0 -1.000000
416 0 -1.000000
416 0 -1.000000
416 0 -1.000000
416 0 -1.000000
416 0 -1.000000
416 0 -1.000000
417 10 1.000000
417 0 -1.000000
417 0 -1.000000
417 0 -1.000000
417 0 -1.000000
417 0 -1.000000
417 0 -1.000000
417 0 -1.000000
418 10 1.000000
418 0 -1.000000
418 0 -1.000000
418 0 -1.000000
418 0 -1.000000
418 0 -1.000000
418 0 -1.000000
418 0 -1.000000
419 10 1.000000
419 0 -1.000000
419 0 -1.000000
419 0 -1.000000
419 0 -1.000000
419 0 -1.000000
419 0 -1.000000
419 0 -1.000000
420 10 1.000000
420 0 -1.000000
420 0 -1.000000
420 0 -1.000000
420 0 -1.000000
420 0 -1.000000
420 0 -1.000000
420 0 -1.000000
421 10 1.000000
421 0 -1.000000
421 0 -1.000000
421 0 -1.000000
421 0 -1.000000
421 0 -1.000000
421 0 -1.000000
421 0 -1.000000
422 10 1.000000
422 0 -1.000000
422 0 -1.000000
422 0 -1.000000
422 0 -1.000000
422 0 -1.000000
422 0 -1.000000
422 0 -1.000000
423 10 1.000000
423 0 -1.000000
423 0 -1.000000
423 0 -1.000000
423 0 -1.000000
423 0 -1.000000
423 0 -1.000000
423 0 -1.000000
424 10 1.000000
424 0 -1.000000
424 0 -1.000000
424 0 -1.000000
424 0 -1.000000
424 0 -1.000000
424 0 -1.000000
424 0 -1.000000
425 10 1.000000
425 0 -1.000000
425 0 -1.000000
425 0 -1.000000
425 0 -1.000000
425 0 -1.000000
425 0 -1.000000
425 0 -1.000000
426 10 1.000000
426 0 -1.000000
426 0 -1.000000
426 0 -1.000000
426 0 -1.000000
426 0 -1.000000
426 0 -1.000000
426 0 -1.000000
427 10 1.000000
427 0 -1.000000
427 0 -1.000000
427 0 -1.000000
427 0 -1.000000
427 0 -1.000000
427 0 -1.000000
427 0 -1.000000
428 10 1.000000
428 0 -1.000000
428 0 -1.000000
428 0 -1.000000
428 0 -1.000000
428 0 -1.000000
428 0 -1.000000
428 0 -1.000000
429 10 1.000000
429 0 -1.000000
429 0 -1.000000
429 0 -1.000000
429 0 -1.000000
429 0 -1.000000
429 0 -1.000000
429 0 -1.000000
430 10 1.000000
430 0 -1.000000
430 0 -1.000000
430 0 -1.000000
430 0 -1.000000
430 0 -1.000000
430 0 -1.000000
430 0 -1.000000
431 10 1.000000
431 0 -1.000000
431 0 -1.000000
431 0 -1.000000
431 0 -1.000000
431 0 -1.000000
431 0 -1.000000
431 0 -1.000000
432 10 1.000000
432 0 -1.000000
432 0 -1.000000
432 0 -1.000000
432 0 -1.000000
432 0 -1.000000
432 0 -1.000000
432 0 -1.000000
433 10 1.000000
433 0 -1.000000
433 0 -1.000000
433 0 -1.000000
433 0 -1.000000
433 0 -1.000000
433 0 -1.000000
433 0 -1.000000
434 10 1.000000
434 0 -1.000000
434 0 -1.000000
434 0 -1.000000
434 0 -1.000000
434 0 -1.000000
434 0 -1.000000
434 0 -1.000000
435 10 1.000000
435 0 -1.000000
435 0 -1.000000
435 0 -1.000000
435 0 -1.000000
435 0 -1.000000
435 0 -1.000000
435 0 -1.000000
436 10 1.000000
436 0 -1.000000
436 0 -1.000000
436 0 -1.000000
436 0 -1.000000
436 0 -1.000000
436 0 -1.000000
436 0 -1.000000
437 10 1.000000
437 0 -1.000000
437 0 -1.000000
437 0 -1.000000
437 0 -1.000000
437 0 -1.000000
437 0 -1.000000
437 0 -1.000000
438 10 1.000000
438 0 -1.000000
438 0 -1.000000
438 0 -1.000000
438 0 -1.000000
438 0 -1.000000
438 0 -1.000000
438 0 -1.000000
439 10 1.000000
439 0 -1.000000
439 0 -1.000000
439 0 -1.000000
439 0 -1.000000
439 0 -1.000000
439 0 -1.000000
439 0 -1.000000
440 10 1.000000
440 0 -1.000000
440 0 -1.000000
440 0 -1.000000
440 0 -1.000000
440 0 -1.000000
440 0 -1.000000
440 0 -1.000000
441 10 1.000000
441 0 -1.000000
441 0 -1.000000
441 0 -1.000000
441 0 -1.000000
441 0 -1.000000
441 0 -1.000000
441 0 -1.000000
442 10 1.000000
442 0 -1.000000
442 0 -1.000000
442 0 -1.000000
442 0 -1.000000
442 0 -1.000000
442 0 -1.000000
442 0 -1.000000
443 10 1.000000
443 0 -1.000000
443 0 -1.000000
443 0 -1.000000
443 0 -1.000000
443 0 -1.000000
443 0 -1.000000
443 0 -1.000000
444 10 1.000000
444 0 -1.000000
444 0 -1.000000
444 0 -1.000000
444 0 -1.000000
444 0 -1.000000
444 0 -1.000000
444 0 -1.000000
445 10 1.000000
445 0 -1.000000
445 0 -1.000000
445 0 -1.000000
445 0 -1.000000
445 0 -1.000000
445 0 -1.000000
445 0 -1.000000
446 10 1.000000
446 0 -1.000000
446 0 -1.000000
446 0 -1.000000
446 0 -1.000000
446 0 -1.000000
446 0 -1.000000
446 0 -1.000000
447 10 1.000000
447 0 -1.000000
447 0 -1.000000
447 0 -1.000000
447 0 -1.000000
447 0 -1.000000
447 0 -1.000000
447 0 -1.000000
448 10 1.000000
448 0 -1.000000
448 0 -1.000000
448 0 -1.000000
448 0 -1.000000
448 0 -1.000000
448 0 -1.000000
448 0 -1.000000
449 10 1.000000
449 0 -1.000000
449 0 -1.000000
449 0 -1.000000
449 0 -1.000000
449 0 -1.000000
449 0 -1.000000
449 0 -1.000000
450 10 1.000000
450 0 -1.000000
450 0 -1.000000
450 0 -1.000000
450 0 -1.000000
450 0 -1.000000
450 0 -1.000000
450 0 -1.000000
451 10 1.000000
451 0 -1.000000
451 0 -1.000000
451 0 -1.000000
451 0 -1.000000
451 0 -1.000000
451 0 -1.000000
451 0 -1.000000
452 10 1.000000
452 0 -1.000000
452 0 -1.000000
452 0 -1.000000
452 0 -1.000000
452 0 -1.000000
452 0 -1.000000
452 0 -1.000000
453 10 1.000000
453 0 -1.000000
453 0 -1.000000
453 0 -1.000000
453 0 -1.000000
453 0 -1.000000
453 0 -1.000000
453 0 -1.000000
454 10 1.000000
454 0 -1.000000
454 0 -1.000000
454 0 -1.000000
454 0 -1.000000
454 0 -1.000000
454 0 -1.000000
454 0 -1.000000
455 10 1.000000
455 0 -1.000000
455 0 -1.000000
455 0 -1.000000
455 0 -1.000000
455 0 -1.000000
455 0 -1.000000
455 0 -1.000000
456 10 1.000000
456 0 -1.000000
456 0 -1.000000
456 0 -1.000000
456 0 -1.000000
456 0 -1.000000
456 0 -1.000000
456 0 -1.000000
457 10 1.000000
457 0 -1.000000
457 0 -1.000000
457 0 -1.000000
457 0 -1.000000
457 0 -1.000000
457 0 -1.000000
457 0 -1.000000
458 10 1.000000
458 0 -1.000000
458 0 -1.000000
458 0 -1.000000
458 0 -1.000000
458 0 -1.000000
458 0 -1.000000
458 0 -1.000000
459 10 1.000000
459 0 -1.000000
459 0 -1.000000
459 0 -1.000000
459 0 -1.000000
459 0 -1.000000
459 0 -1.000000
459 0 -1.000000
460 10 1.000000
460 0 -1.000000
460 0 -1.000000
460 0 -1.000000
460 0 -1.000000
460 0 -1.000000
460 0 -1.000000
460 0 -1.000000
461 10 1.000000
461 0 -1.000000
461 0 -1.000000
461 0 -1.000000
461 0 -1.000000
461 0 -1.000000
461 0 -1.000000
461 0 -1.000000
462 10 1.000000
462 0 -1.000000
462 0 -1.000000
462 0 -1.000000
462 0 -1.000000
462 0 -1.000000
462 0 -1.000000
462 0 -1.000000
463 10 1.000000
463 0 -1.000000
463 0 -1.000000
463 0 -1.000000
463 0 -1.000000
463 0 -1.000000
463 0 -1.000000
463 0 -1.000000
464 10 1.000000
464 0 -1.000000
464 0 -1.000000
464 0 -1.000000
464 0 -1.000000
464 0 -1.000000
464 0 -1.000000
464 0 -1.000000
465 10 1.000000
465 0 -1.000000
465 0 -1.000000
465 0 -1.000000
465 0 -1.000000
465 0 -1.000000
465 0 -1.000000
465 0 -1.000000
466 10 1.000000
466 0 -1.000000
466 0 -1.000000
466 0 -1.000000
466 0 -1.000000
466 0 -1.000000
466 0 -1.000000
466 0 -1.000000
467 10 1.000000
467 0 -1.000000
467 0 -1.000000
467 0 -1.000000
467 0 -1.000000
467 0 -1.000000
467 0 -1.000000
467 0 -1.000000
468 10 1.000000
468 0 -1.000000
468 0 -1.000000
468 0 -1.000000
468 0 -1.000000
468 0 -1.000000
468 0 -1.000000
468 0 -1.000000
469 10 1.000000
469 0 -1.000000
469 0 -1.000000
469 0 -1.000000
469 0 -1.000000
469 0 -1.000000
469 0 -1.000000
469 0 -1.000000
470 10 1.000000
470 0 -1.000000
470 0 -1.000000
470 0 -1.000000
470 0 -1.000000
470 0 -1.000000
470 0 -1.000000
470 0 -1.000000
471 10 1.000000
471 0 -1.000000
471 0 -1.000000
471 0 -1.000000
471 0 -1.000000
471 0 -1.000000
471 0 -1.000000
471 0 -1.000000
472 10 1.000000
472 0 -1.000000
472 0 -1.000000
472 0 -1.000000
472 0 -1.000000
472 0 -1.000000
472 0 -1.000000
472 0 -1.000000
473 10 1.000000
473 0 -1.000000
473 0 -1.000000
473 0 -1.000000
473 0 -1.000000
473 0 -1.000000
473 0 -1.000000
473 0 -1.000000
474 10 1.000000
474 0 -1.000000
474 0 -1.000000
474 0 -1.000000
474 0 -1.000000
474 0 -1.000000
474 0 -1.000000
474 0 -1.000000
475 10 1.000000
475 0 -1.000000
475 0 -1.000000
475 0 -1.000000
475 0 -1.000000
475 0 -1.000000
475 0 -1.000000
475 0 -1.000000
476 10 1.000000
476 0 -1.000000
476 0 -1.000000
476 0 -1.000000
476 0 -1.000000
476 0 -1.000000
476 0 -1.000000
476 0 -1.000000
477 10 1.000000
477 0 -1.000000
477 0 -1.000000
477 0 -1.000000
477 0 -1.000000
477 0 -1.000000
477 0 -1.000000
477 0 -1.000000
478 10 1.000000
478 0 -1.000000
478 0 -1.000000
478 0 -1.000000
478 0 -1.000000
478 0 -1.000000
478 0 -1.000000
478 0 -1.000000
479 10 1.000000
479 0 -1.000000
479 0 -1.000000
479 0 -1.000000
479 0 -1.000000
479 0 -1.000000
479 0 -1.000000
479 0 -1.000000
480 10 1.000000
480 0 -1.000000
480 0 -1.000000
480 0 -1.000000
480 0 -1.000000
480 0 -1.000000
480 0 -1.000000
480 0 -1.000000
481 10 1.000000
481 0 -1.000000
481 0 -1.000000
481 0 -1.000000
481 0 -1.000000
481 0 -1.000000
481 0 -1.000000
481 0 -1.000000
482 10 1.000000
482 0 -1.000000
482 0 -1.000000
482 0 -1.000000
482 0 -1.000000
482 0 -1.000000
482 0 -1.000000
482 0 -1.000000
483 10 1.000000
483 0 -1.000000
483 0 -1.000000
483 0 -1.000000
483 0 -1.000000
483 0 -1.000000
483 0 -1.000000
483 0 -1.000000
484 10 1.000000
484 0 -1.000000
484 0 -1.000000
484 0 -1.000000
484 0 -1.000000
484 0 -1.000000
484 0 -1.000000
484 0 -1.000000
485 10 1.000000
485 0 -1.000000
485 0 -1.000000
485 0 -1.000000
485 0 -1.000000
485 0 -1.000000
485 0 -1.000000
485 0 -1.000000
486 10 1.000000
486 0 -1.000000
486 0 -1.000000
486 0 -1.000000
486 0 -1.000000
486 0 -1.000000
486 0 -1.000000
486 0 -1.000000
487 10 1.000000
487 0 -1.000000
487 0 -1.000000
487 0 -1.000000
487 0 -1.000000
487 0 -1.000000
487 0 -1.000000
487 0 -1.000000
488 10 1.000000
488 0 -1.000000
488 0 -1.000000
488 0 -1.000000
488 0 -1.000000
488 0 -1.000000
488 0 -1.000000
488 0 -1.000000
489 10 1.000000
489 0 -1.000000
489 0 -1.000000
489 0 -1.000000
489 0 -1.000000
489 0 -1.000000
489 0 -1.000000
489 0 -1.000000
490 10 1.000000
490 0 -1.000000
490 0 -1.000000
490 0 -1.000000
490 0 -1.000000
490 0 -1.000000
490 0 -1.000000
490 0 -1.000000
491 10 1.000000
491 0 -1.000000
491 0 -1.000000
491 0 -1.000000
491 0 -1.000000
491 0 -1.000000
491 0 -1.000000
491 0 -1.000000
492 10 1.000000
492 0 -1.000000
492 0 -1.000000
492 0 -1.000000
492 0 -1.000000
492 0 -1.000000
492 0 -1.000000
492 0 -1.000000
493 10 1.000000
493 0 -1.000000
493 0 -1.000000
493 0 -1.000000
493 0 -1.000000
493 0 -1.000000
493 0 -1.000000
493 0 -1.000000
494 10 1.000000
494 0 -1.000000
494 0 -1.000000
494 0 -1.000000
494 0 -1.000000
494 0 -1.000000
494 0 -1.000000
494 0 -1.000000
495 10 1.000000
495 0 -1.000000
495 0 -1.000000
495 0 -1.000000
495 0 -1.000000
495 0 -1.000000
495 0 -1.000000
495 0 -1.000000
496 10 1.000000
496 0 -1.000000
496 0 -1.000000
496 0 -1.000000
496 0 -1.000000
496 0 -1.000000
496 0 -1.000000
496 0 -1.000000
497 10 1.000000
497 0 -1.000000
497 0 -1.000000
497 0 -1.000000
497 0 -1.000000
497 0 -1.000000
497 0 -1.000000
497 0 -1.000000
498 10 1.000000
498 0 -1.000000
498 0 -1.000000
498 0 -1.000000
498 0 -1.000000
498 0 -1.000000
498 0 -1.000000
498 0 -1.000000
499 10 1.000000
499 0 -1.000000
499 0 -1.000000
499 0 -1.000000
499 0 -1.000000
499 0 -1.000000
499 0 -1.000000
499 0 -1.000000
500 10 1.000000
500 0 -1.000000
500 0 -1.000000
500 0 -1.000000
500 0 -1.000000
500 0 -1.000000
500 0 -1.000000
500 0 -1.000000
501 10 1.000000
501 0 -1.000000
501 0 -1.000000
501 0 -1.000000
501 0 -1.000000
501 0 -1.000000
501 0 -1.000000
501 0 -1.000000
502 10 1.000000
502 0 -1.000000
502 0 -1.000000
502 0 -1.000000
502 0 -1.000000
502 0 -1.000000
502 0 -1.000000
502 0 -1.000000
503 10 1.000000
503 0 -1.000000
503 0 -1.000000
503 0 -1.000000
503 0 -1.000000
503 0 -1.000000
503 0 -1.000000
503 0 -1.000000
504 10 1.000000
504 0 -1.000000
504 0 -1.000000
504 0 -1.000000
504 0 -1.000000
504 0 -1.000000
504 0 -1.000000
504 0 -1.000000
505 10 1.000000
505 0 -1.000000
505 0 -1.000000
505 0 -1.000000
505 0 -1.000000
505 0 -1.000000
505 0 -1.000000
505 0 -1.000000
506 10 1.000000
506 0 -1.000000
506 0 -1.000000
506 0 -1.000000
506 0 -1.000000
506 0 -1.000000
506 0 -1.000000
506 0 -1.000000
507 10 1.000000
507 0 -1.000000
507 0 -1.000000
507 0 -1.000000
507 0 -1.000000
507 0 -1.000000
507 0 -1.000000
507 0 -1.000000
508 10 1.000000
508 0 -1.000000
508 0 -1.000000
508 0 -1.000000
508 0 -1.000000
508 0 -1.000000
508 0 -1.000000
508 0 -1.000000
509 10 1.000000
509 0 -1.000000
509 0 -1.000000
509 0 -1.000000
509 0 -1.000000
509 0 -1.000000
509 0 -1.000000
509 0 -1.000000
510 10 1.000000
510 0 -1.000000
510 0 -1.000000
510 0 -1.000000
510 0 -1.000000
510 0 -1.000000
510 0 -1.000000
510 0 -1.000000
511 10 1.000000
511 0 -1.000000
511 0 -1.000000
511 0 -1.000000
511 0 -1.000000
511 0 -1.000000
511 0 -1.000000
511 0 -1.000000
512 10 1.000000
512 0 -1.000000
512 0 -1.000000
512 0 -1.000000
512 0 -1.000000
512 0 -1.000000
512 0 -1.000000
512 0 -1.000000
513 10 1.000000
513 0 -1.000000
513 0 -1.000000
513 0 -1.000000
513 0 -1.000000
513 0 -1.000000
513 0 -1.000000
513 0 -1.000000
514 10 1.000000
514 0 -1.000000
514 0 -1.000000
514 0 -1.000000
514 0 -1.000000
514 0 -1.000000
514 0 -1.000000
514 0 -1.000000
515 10 1.000000
515 0 -1.000000
515 0 -1.000000
515 0 -1.000000
515 0 -1.000000
515 0 -1.000000
515 0 -1.000000
515 0 -1.000000
516 10 1.000000
516 0 -1.000000
516 0 -1.000000
516 0 -1.000000
516 0 -1.000000
516 0 -1.000000
516 0 -1.000000
516 0 -1.000000
517 10 1.000000
517 0 -1.000000
517 0 -1.000000
517 0 -1.000000
517 0 -1.000000
517 0 -1.000000
517 0 -1.000000
517 0 -1.000000
518 10 1.000000
518 0 -1.000000
518 0 -1.000000
518 0 -1.000000
518 0 -1.000000
518 0 -1.000000
518 0 -1.000000
518 0 -1.000000
519 10 1.000000
519 0 -1.000000
519 0 -1.000000
519 0 -1.000000
519 0 -1.000000
519 0 -1.000000
519 0 -1.000000
519 0 -1.000000
520 10 1.000000
520 0 -1.000000
520 0 -1.000000
520 0 -1.000000
520 0 -1.000000
520 0 -1.000000
520 0 -1.000000
520 0 -1.000000
521 10 1.000000
521 0 -1.000000
521 0 -1.000000
521 0 -1.000000
521 0 -1.000000
521 0 -1.000000
521 0 -1.000000
521 0 -1.000000
522 10 1.000000
522 0 -1.000000
522 0 -1.000000
522 0 -1.000000
522 0 -1.000000
522 0 -1.000000
522 0 -1.000000
522 0 -1.000000
523 10 1.000000
523 0 -1.000000
523 0 -1.000000
523 0 -1.000000
523 0 -1.000000
523 0 -1.000000
523 0 -1.000000
523 0 -1.000000
524 10 1.000000
524 0 -1.000000
524 0 -1.000000
524 0 -1.000000
524 0 -1.000000
524 0 -1.000000
524 0 -1.000000
524 0 -1.000000
525 10 1.000000
525 0 -1.000000
525 0 -1.000000
525 0 -1.000000
525 0 -1.000000
525 0 -1.000000
525 0 -1.000000
525 0 -1.000000
526 10 1.000000
526 0 -1.000000
526 0 -1.000000
526 0 -1.000000
526 0 -1.000000
526 0 -1.000000
526 0 -1.000000
526 0 -1.000000
527 10 1.000000
527 0 -1.000000
527 0 -1.000000
527 0 -1.000000
527 0 -1.000000
527 0 -1.000000
527 0 -1.000000
527 0 -1.000000
528 10 1.000000
528 0 -1.000000
528 0 -1.000000
528 0 -1.000000
528 0 -1.000000
528 0 -1.000000
528 0 -1.000000
528 0 -1.000000
529 10 1.000000
529 0 -1.000000
529 0 -1.000000
529 0 -1.000000
529 0 -1.000000
529 0 -1.000000
529 0 -1.000000
529 0 -1.000000
530 10 1.000000
530 0 -1.000000
530 0 -1.000000
530 0 -1.000000
530 0 -1.000000
530 0 -1.000000
530 0 -1.000000
530 0 -1.000000
531 10 1.000000
531 0 -1.000000
531 0 -1.000000
531 0 -1.000000
531 0 -1.000000
531 0 -1.000000
531 0 -1.000000
531 0 -1.000000
532 10 1.000000
532 0 -1.000000
532 0 -1.000000
532 0 -1.000000
532 0 -1.000000
532 0 -1.000000
532 0 -1.000000
532 0 -1.000000
533 10 1.000000
533 0 -1.000000
533 0 -1.000000
533 0 -1.000000
533 0 -1.000000
533 0 -1.000000
533 0 -1.000000
533 0 -1.000000
534 10 1.000000
534 0 -1.000000
534 0 -1.000000
534 0 -1.000000
534 0 -1.000000
534 0 -1.000000
534 0 -1.000000
534 0 -1.000000
535 10 1.000000
535 0 -1.000000
535 0 -1.000000
535 0 -1.000000
535 0 -1.000000
535 0 -1.000000
535 0 -1.000000
535 0 -1.000000
536 10 1.000000
536 0 -1.000000
536 0 -1.000000
536 0 -1.000000
536 0 -1.000000
536 0 -1.000000
536 0 -1.000000
536 0 -1.000000
537 10 1.000000
537 0 -1.000000
537 0 -1.000000
537 0 -1.000000
537 0 -1.000000
537 0 -1.000000
537 0 -1.000000
537 0 -1.000000
538 10 1.000000
538 0 -1.000000
538 0 -1.000000
538 0 -1.000000
538 0 -1.000000
538 0 -1.000000
538 0 -1.000000
538 0 -1.000000
539 10 1.000000
539 0 -1.000000
539 0 -1.000000
539 0 -1.000000
539 0 -1.000000
539 0 -1.000000
539 0 -1.000000
539 0 -1.000000
540 10 1.000000
540 0 -1.000000
540 0 -1.000000
540 0 -1.000000
540 0 -1.000000
540 0 -1.000000
540 0 -1.000000
540 0 -1.000000
541 10 1.000000
541 0 -1.000000
541 0 -1.000000
541 0 -1.000000
541 0 -1.000000
541 0 -1.000000
541 0 -1.000000
541 0 -1.000000
542 10 1.000000
542 0 -1.000000
542 0 -1.000000
542 0 -1.000000
542 0 -1.000000
542 0 -1.000000
542 0 -1.000000
542 0 -1.000000
543 10 1.000000
543 0 -1.000000
543 0 -1.000000
543 0 -1.000000
543 0 -1.000000
543 0 -1.000000
543 0 -1.000000
543 0 -1.000000
544 10 1.000000
544 0 -1.000000
544 0 -1.000000
544 0 -1.000000
544 0 -1.000000
544 0 -1.000000
544 0 -1.000000
544 0 -1.000000
545 10 1.000000
545 0 -1.000000
545 0 -1.000000
545 0 -1.000000
545 0 -1.000000
545 0 -1.000000
545 0 -1.000000
545 0 -1.000000
546 10 1.000000
546 0 -1.000000
546 0 -1.000000
546 0 -1.000000
546 0 -1.000000
546 0 -1.000000
546 0 -1.000000
546 0 -1.000000
547 10 1.000000
547 0 -1.000000
547 0 -1.000000
547 0 -1.000000
547 0 -1.000000
547 0 -1.000000
547 0 -1.000000
547 0 -1.000000
548 10 1.000000
548 0 -1.000000
548 0 -1.000000
548 0 -1.000000
548 0 -1.000000
548 0 -1.000000
548 0 -1.000000
548 0 -1.000000
549 10 1.000000
549 0 -1.000000
549 0 -1.000000
549 0 -1.000000
549 0 -1.000000
549 0 -1.000000
549 0 -1.000000
549 0 -1.000000
550 10 1.000000
550 0 -1.000000
550 0 -1.000000
550 0 -1.000000
550 0 -1.000000
550 0 -1.000000
550 0 -1.000000
550 0 -1.000000
551 10 1.000000
551 0 -1.000000
551 0 -1.000000
551 0 -1.000000
551 0 -1.000000
551 0 -1.000000
551 0 -1.000000
551 0 -1.000000
552 10 1.000000
552 0 -1.000000
552 0 -1.000000
552 0 -1.000000
552 0 -1.000000
552 0 -1.000000
552 0 -1.000000
552 0 -1.000000
553 10 1.000000
553 0 -1.000000
553 0 -1.000000
553 0 -1.000000
553 0 -1.000000
553 0 -1.000000
553 0 -1.000000
553 0 -1.000000
554 10 1.000000
554 0 -1.000000
554 0 -1.000000
554 0 -1.000000
554 0 -1.000000
554 0 -1.000000
554 0 -1.000000
554 0 -1.000000
555 10 1.000000
555 0 -1.000000
555 0 -1.000000
555 0 -1.000000
555 0 -1.000000
555 0 -1.000000
555 0 -1.000000
555 0 -1.000000
556 10 1.000000
556 0 -1.000000
556 0 -1.000000
556 0 -1.000000
556 0 -1.000000
556 0 -1.000000
556 0 -1.000000
556 0 -1.000000
557 10 1.000000
557 0 -1.000000
557 0 -1.000000
557 0 -1.000000
557 0 -1.000000
557 0 -1.000000
557 0 -1.000000
557 0 -1.000000
558 10 1.000000
558 0 -1.000000
558 0 -1.000000
558 0 -1.000000
558 0 -1.000000
558 0 -1.000000
558 0 -1.000000
558 0 -1.000000
559 10 1.000000
559 0 -1.000000
559 0 -1.000000
559 0 -1.000000
559 0 -1.000000
559 0 -1.000000
559 0 -1.000000
559 0 -1.000000
560 10 1.000000
560 0 -1.000000
560 0 -1.000000
560 0 -1.000000
560 0 -1.000000
560 0 -1.000000
560 0 -1.000000
560 0 -1.000000
561 10 1.000000
561 0 -1.000000
561 0 -1.000000
561 0 -1.000000
561 0 -1.000000
561 0 -1.000000
561 0 -1.000000
561 0 -1.000000
562 10 1.000000
562 0 -1.000000
562 0 -1.000000
562 0 -1.000000
562 0 -1.000000
562 0 -1.000000
562 0 -1.000000
562 0 -1.000000
563 10 1.000000
563 0 -1.000000
563 0 -1.000000
563 0 -1.000000
563 0 -1.000000
563 0 -1.000000
563 0 -1.000000
563 0 -1.000000
564 10 1.000000
564 0 -1.000000
564 0 -1.000000
564 0 -1.000000
564 0 -1.000000
564 0 -1.000000
564 0 -1.000000
564 0 -1.000000
565 10 1.000000
565 0 -1.000000
565 0 -1.000000
565 0 -1.000000
565 0 -1.000000
565 0 -1.000000
565 0 -1.000000
565 0 -1.000000
566 10 1.000000
566 0 -1.000000
566 0 -1.000000
566 0 -1.000000
566 0 -1.000000
566 0 -1.000000
566 0 -1.000000
566 0 -1.000000
567 10 1.000000
567 0 -1.000000
567 0 -1.000000
567 0 -1.000000
567 0 -1.000000
567 0 -1.000000
567 0 -1.000000
567 0 -1.000000
568 10 1.000000
568 0 -1.000000
568 0 -1.000000
568 0 -1.000000
568 0 -1.000000
568 0 -1.000000
568 0 -1.000000
568 0 -1.000000
569 10 1.000000
569 0 -1.000000
569 0 -1.000000
569 0 -1.000000
569 0 -1.000000
569 0 -1.000000
569 0 -1.000000
569 0 -1.000000
570 10 1.000000
570 0 -1.000000
570 0 -1.000000
570 0 -1.000000
570 0 -1.000000
570 0 -1.000000
570 0 -1.000000
570 0 -1.000000
571 10 1.000000
571 0 -1.000000
571 0 -1.000000
571 0 -1.000000
571 0 -1.000000
571 0 -1.000000
571 0 -1.000000
571 0 -1.000000
572 10 1.000000
572 0 -1.000000
572 0 -1.000000
572 0 -1.000000
572 0 -1.000000
572 0 -1.000000
572 0 -1.000000
572 0 -1.000000
573 10 1.000000
573 0 -1.000000
573 0 -1.000000
573 0 -1.000000
573 0 -1.000000
573 0 -1.000000
573 0 -1.000000
573 0 -1.000000
574 10 1.000000
574 0 -1.000000
574 0 -1.000000
574 0 -1.000000
574 0 -1.000000
574 0 -1.000000
574 0 -1.000000
574 0 -1.000000
575 10 1.000000
575 0 -1.000000
575 0 -1.000000
575 0 -1.000000
575 0 -1.000000
575 0 -1.000000
575 0 -1.000000
575 0 -1.000000
576 10 1.000000
576 0 -1.000000
576 0 -1.000000
576 0 -1.000000
576 0 -1.000000
576 0 -1.000000
576 0 -1.000000
576 0 -1.000000
577 10 1.000000
577 0 -1.000000
577 0 -1.000000
577 0 -1.000000
577 0 -1.000000
577 0 -1.000000
577 0 -1.000000
577 0 -1.000000
578 10 1.000000
578 0 -1.000000
578 0 -1.000000
578 0 -1.000000
578 0 -1.000000
578 0 -1.000000
578 0 -1.000000
578 0 -1.000000
579 10 1.000000
579 0 -1.000000
579 0 -1.000000
579 0 -1.000000
579 0 -1.000000
579 0 -1.000000
579 0 -1.000000
579 0 -1.000000
580 10 1.000000
580 0 -1.000000
580 0 -1.000000
580 0 -1.000000
580 0 -1.000000
580 0 -1.000000
580 0 -1.000000
580 0 -1.000000
581 10 1.000000
581 0 -1.000000
581 0 -1.000000
581 0 -1.000000
581 0 -1.000000
581 0 -1.000000
581 0 -1.000000
581 0 -1.000000
582 10 1.000000
582 0 -1.000000
582 0 -1.000000
582 0 -1.000000
582 0 -1.000000
582 0 -1.000000
582 0 -1.000000
582 0 -1.000000
583 10 1.000000
583 0 -1.000000
583 0 -1.000000
583 0 -1.000000
583 0 -1.000000
583 0 -1.000000
583 0 -1.000000
583 0 -1.000000
584 10 1.000000
584 0 -1.000000
584 0 -1.000000
584 0 -1.000000
584 0 -1.000000
584 0 -1.000000
584 0 -1.000000
584 0 -1.000000
585 10 1.000000
585 0 -1.000000
585 0 -1.000000
585 0 -1.000000
585 0 -1.000000
585 0 -1.000000
585 0 -1.000000
585 0 -1.000000
586 10 1.000000
586 0 -1.000000
586 0 -1.000000
586 0 -1.000000
586 0 -1.000000
586 0 -1.000000
586 0 -1.000000
586 0 -1.000000
587 10 1.000000
587 0 -1.000000
587 0 -1.000000
587 0 -1.000000
587 0 -1.000000
587 0 -1.000000
587 0 -1.000000
587 0 -1.000000
588 10 1.000000
588 0 -1.000000
588 0 -1.000000
588 0 -1.000000
588 0 -1.000000
588 0 -1.000000
588 0 -1.000000
588 0 -1.000000
589 10 1.000000
589 0 -1.000000
589 0 -1.000000
589 0 -1.000000
589 0 -1.000000
589 0 -1.000000
589 0 -1.000000
589 0 -1.000000
590 10 1.000000
590 0 -1.000000
590 0 -1.000000
590 0 -1.000000
590 0 -1.000000
590 0 -1.000000
590 0 -1.000000
590 0 -1.000000
591 10 1.000000
591 0 -1.000000
591 0 -1.000000
591 0 -1.000000
591 0 -1.000000
591 0 -1.000000
591 0 -1.000000
591 0 -1.000000
592 10 1.000000
592 0 -1.000000
592 0 -1.000000
592 0 -1.000000
592 0 -1.000000
592 0 -1.000000
592 0 -1.000000
592 0 -1.000000
593 10 1.000000
593 0 -1.000000
593 0 -1.000000
593 0 -1.000000
593 0 -1.000000
593 0 -1.000000
593 0 -1.000000
593 0 -1.000000
594 10 1.000000
594 0 -1.000000
594 0 -1.000000
594 0 -1.000000
594 0 -1.000000
594 0 -1.000000
594 0 -1.000000
594 0 -1.000000
595 10 1.000000
595 0 -1.000000
595 0 -1.000000
595 0 -1.000000
595 0 -1.000000
595 0 -1.000000
595 0 -1.000000
595 0 -1.000000
596 10 1.000000
596 0 -1.000000
596 0 -1.000000
596 0 -1.000000
596 0 -1.000000
596 0 -1.000000
596 0 -1.000000
596 0 -1.000000
597 10 1.000000
597 0 -1.000000
597 0 -1.000000
597 0 -1.000000
597 0 -1.000000
597 0 -1.000000
597 0 -1.000000
597 0 -1.000000
598 10 1.000000
598 0 -1.000000
598 0 -1.000000
598 0 -1.000000
598 0 -1.000000
598 0 -1.000000
598 0 -1.000000
598 0 -1.000000
599 10 1.000000
599 0 -1.000000
599 0 -1.000000
599 0 -1.000000
599 0 -1.000000
599 0 -1.000000
599 0 -1.000000
599 0 -1.000000
600 10 1.000000
600 0 -1.000000
600 0 -1.000000
600 0 -1.000000
600 0 -1.000000
600 0 -1.000000
600 0 -1.000000
600 0 -1.000000
601 10 1.000000
601 0 -1.000000
601 0 -1.000000
601 0 -1.000000
601 0 -1.000000
601 0 -1.000000
601 0 -1.000000
601 0 -1.000000
602 10 1.000000
602 0 -1.000000
602 0 -1.000000
602 0 -1.000000
602 0 -1.000000
602 0 -1.000000
602 0 -1.000000
602 0 -1.000000
603 10 1.000000
603 0 -1.000000
603 0 -1.000000
603 0 -1.000000
603 0 -1.000000
603 0 -1.000000
603 0 -1.000000
603 0 -1.000000
604 10 1.000000
604 0 -1.000000
604 0 -1.000000
604 0 -1.000000
604 0 -1.000000
604 0 -1.000000
604 0 -1.000000
604 0 -1.000000
605 10 1.000000
605 0 -1.000000
605 0 -1.000000
605 0 -1.000000
605 0 -1.000000
605 0 -1.000000
605 0 -1.000000
605 0 -1.000000
606 10 1.000000
606 0 -1.000000
606 0 -1.000000
606 0 -1.000000
606 0 -1.000000
606 0 -1.000000
606 0 -1.000000
606 0 -1.000000
607 10 1.000000
607 0 -1.000000
607 0 -1.000000
607 0 -1.000000
607 0 -1.000000
607 0 -1.000000
607 0 -1.000000
607 0 -1.000000
608 10 1.000000
608 0 -1.000000
608 0 -1.000000
608 0 -1.000000
608 0 -1.000000
608 0 -1.000000
608 0 -1.000000
608 0 -1.000000
609 10 1.000000
609 0 -1.000000
609 0 -1.000000
609 0 -1.000000
609 0 -1.000000
609 0 -1.000000
609 0 -1.000000
609 0 -1.000000
610 10 1.000000
610 0 -1.000000
610 0 -1.000000
610 0 -1.000000
610 0 -1.000000
610 0 -1.000000
610 0 -1.000000
610 0 -1.000000
611 10 1.000000
611 0 -1.000000
611 0 -1.000000
611 0 -1.000000
611 0 -1.000000
611 0 -1.000000
611 0 -1.000000
611 0 -1.000000
612 10 1.000000
612 0 -1.000000
612 0 -1.000000
612 0 -1.000000
612 0 -1.000000
612 0 -1.000000
612 0 -1.000000
612 0 -1.000000
613 10 1.000000
613 0 -1.000000
613 0 -1.000000
613 0 -1.000000
613 0 -1.000000
613 0 -1.000000
613 0 -1.000000
613 0 -1.000000
614 10 1.000000
614 0 -1.000000
614 0 -1.000000
614 0 -1.000000
614 0 -1.000000
614 0 -1.000000
614 0 -1.000000
614 0 -1.000000
615 10 1.000000
615 0 -1.000000
615 0 -1.000000
615 0 -1.000000
615 0 -1.000000
615 0 -1.000000
615 0 -1.000000
615 0 -1.000000
616 10 1.000000
616 0 -1.000000
616 0 -1.000000
616 0 -1.000000
616 0 -1.000000
616 0 -1.000000
616 0 -1.000000
616 0 -1.000000
617 10 1.000000
617 0 -1.000000
617 0 -1.000000
617 0 -1.000000
617 0 -1.000000
617 0 -1.000000
617 0 -1.000000
617 0 -1.000000
618 10 1.000000
618 0 -1.000000
618 0 -1.000000
618 0 -1.000000
618 0 -1.000000
618 0 -1.000000
618 0 -1.000000
618 0 -1.000000
619 10 1.000000
619 0 -1.000000
619 0 -1.000000
619 0 -1.000000
619 0 -1.000000
619 0 -1.000000
619 0 -1.000000
619 0 -1.000000
620 10 1.000000
620 0 -1.000000
620 0 -1.000000
620 0 -1.000000
620 0 -1.000000
620 0 -1.000000
620 0 -1.000000
620 0 -1.000000
621 10 1.000000
621 0 -1.000000
621 0 -1.000000
621 0 -1.000000
621 0 -1.000000
621 0 -1.000000
621 0 -1.000000
621 0 -1.000000
622 10 1.000000
622 0 -1.000000
622 0 -1.000000
622 0 -1.000000
622 0 -1.000000
622 0 -1.000000
622 0 -1.000000
622 0 -1.000000
623 10 1.000000
623 0 -1.000000
623 0 -1.000000
623 0 -1.000000
623 0 -1.000000
623 0 -1.000000
623 0 -1.000000
623 0 -1.000000
624 10 1.000000
624 0 -1.000000
624 0 -1.000000
624 0 -1.000000
624 0 -1.000000
624 0 -1.000000
624 0 -1.000000
624 0 -1.000000
625 10 1.000000
625 0 -1.000000
625 0 -1.000000
625 0 -1.000000
625 0 -1.000000
625 0 -1.000000
625 0 -1.000000
625 0 -1.000000
626 10 1.000000
626 0 -1.000000
626 0 -1.000000
626 0 -1.000000
626 0 -1.000000
626 0 -1.000000
626 0 -1.000000
626 0 -1.000000
627 10 1.000000
627 0 -1.000000
627 0 -1.000000
627 0 -1.000000
627 0 -1.000000
627 0 -1.000000
627 0 -1.000000
627 0 -1.000000
628 10 1.000000
628 0 -1.000000
628 0 -1.000000
628 0 -1.000000
628 0 -1.000000
628 0 -1.000000
628 0 -1.000000
628 0 -1.000000
629 10 1.000000
629 0 -1.000000
629 0 -1.000000
629 0 -1.000000
629 0 -1.000000
629 0 -1.000000
629 0 -1.000000
629 0 -1.000000
630 10 1.000000
630 0 -1.000000
630 0 -1.000000
630 0 -1.000000
630 0 -1.000000
630 0 -1.000000
630 0 -1.000000
630 0 -1.000000
631 10 1.000000
631 0 -1.000000
631 0 -1.000000
631 0 -1.000000
631 0 -1.000000
631 0 -1.000000
631 0 -1.000000
631 0 -1.000000
632 10 1.000000
632 0 -1.000000
632 0 -1.000000
632 0 -1.000000
632 0 -1.000000
632 0 -1.000000
632 0 -1.000000
632 0 -1.000000
633 10 1.000000
633 0 -1.000000
633 0 -1.000000
633 0 -1.000000
633 0 -1.000000
633 0 -1.000000
633 0 -1.000000
633 0 -1.000000
634 10 1.000000
634 0 -1.000000
634 0 -1.000000
634 0 -1.000000
634 0 -1.000000
634 0 -1.000000
634 0 -1.000000
634 0 -1.000000
635 10 1.000000
635 0 -1.000000
635 0 -1.000000
635 0 -1.000000
635 0 -1.000000
635 0 -1.000000
635 0 -1.000000
635 0 -1.000000
636 10 1.000000
636 0 -1.000000
636 0 -1.000000
636 0 -1.000000
636 0 -1.000000
636 0 -1.000000
636 0 -1.000000
636 0 -1.000000
637 10 1.000000
637 0 -1.000000
637 0 -1.000000
637 0 -1.000000
637 0 -1.000000
637 0 -1.000000
637 0 -1.000000
637 0 -1.000000
638 10 1.000000
638 0 -1.000000
638 0 -1.000000
638 0 -1.000000
638 0 -1.000000
638 0 -1.000000
638 0 -1.000000
638 0 -1.000000
639 10 1.000000
639 0 -1.000000
639 0 -1.000000
639 0 -1.000000
639 0 -1.000000
639 0 -1.000000
639 0 -1.000000
639 0 -1.000000
640 10 1.000000
640 0 -1.000000
640 0 -1.000000
640 0 -1.000000
640 0 -1.000000
640 0 -1.000000
640 0 -1.000000
640 0 -1.000000
641 10 1.000000
641 0 -1.000000
641 0 -1.000000
641 0 -1.000000
641 0 -1.000000
641 0 -1.000000
641 0 -1.000000
641 0 -1.000000
642 10 1.000000
642 0 -1.000000
642 0 -1.000000
642 0 -1.000000
642 0 -1.000000
642 0 -1.000000
642 0 -1.000000
642 0 -1.000000
643 10 1.000000
643 0 -1.000000
643 0 -1.000000
643 0 -1.000000
643 0 -1.000000
643 0 -1.000000
643 0 -1.000000
643 0 -1.000000
644 10 1.000000
644 0 -1.000000
644 0 -1.000000
644 0 -1.000000
644 0 -1.000000
644 0 -1.000000
644 0 -1.000000
644 0 -1.000000
645 10 1.000000
645 0 -1.000000
645 0 -1.000000
645 0 -1.000000
645 0 -1.000000
645 0 -1.000000
645 0 -1.000000
645 0 -1.000000
646 10 1.000000
646 0 -1.000000
646 0 -1.000000
646 0 -1.000000
646 0 -1.000000
646 0 -1.000000
646 0 -1.000000
646 0 -1.000000
647 10 1.000000
647 0 -1.000000
647 0 -1.000000
647 0 -1.000000
647 0 -1.000000
647 0 -1.000000
647 0 -1.000000
647 0 -1.000000
648 10 1.000000
648 0 -1.000000
648 0 -1.000000
648 0 -1.000000
648 0 -1.000000
648 0 -1.000000
648 0 -1.000000
648 0 -1.000000
649 10 1.000000
649 0 -1.000000
649 0 -1.000000
649 0 -1.000000
649 0 -1.000000
649 0 -1.000000
649 0 -1.000000
649 0 -1.000000
650 10 1.000000
650 0 -1.000000
650 0 -1.000000
650 0 -1.000000
650 0 -1.000000
650 0 -1.000000
650 0 -1.000000
650 0 -1.000000
651 10 1.000000
651 0 -1.000000
651 0 -1.000000
651 0 -1.000000
651 0 -1.000000
651 0 -1.000000
651 0 -1.000000
651 0 -1.000000
652 10 1.000000
652 0 -1.000000
652 0 -1.000000
652 0 -1.000000
652 0 -1.000000
652 0 -1.000000
652 0 -1.000000
652 0 -1.000000
653 10 1.000000
653 0 -1.000000
653 0 -1.000000
653 0 -1.000000
653 0 -1.000000
653 0 -1.000000
653 0 -1.000000
653 0 -1.000000
654 10 1.000000
654 0 -1.000000
654 0 -1.000000
654 0 -1.000000
654 0 -1.000000
654 0 -1.000000
654 0 -1.000000
654 0 -1.000000
655 10 1.000000
655 0 -1.000000
655 0 -1.000000
655 0 -1.000000
655 0 -1.000000
655 0 -1.000000
655 0 -1.000000
655 0 -1.000000
656 10 1.000000
656 0 -1.000000
656 0 -1.000000
656 0 -1.000000
656 0 -1.000000
656 0 -1.000000
656 0 -1.000000
656 0 -1.000000
657 10 1.000000
657 0 -1.000000
657 0 -1.000000
657 0 -1.000000
657 0 -1.000000
657 0 -1.000000
657 0 -1.000000
657 0 -1.000000
658 10 1.000000
658 0 -1.000000
658 0 -1.000000
658 0 -1.000000
658 0 -1.000000
658 0 -1.000000
658 0 -1.000000
658 0 -1.000000
659 10 1.000000
659 0 -1.000000
659 0 -1.000000
659 0 -1.000000
659 0 -1.000000
659 0 -1.000000
659 0 -1.000000
659 0 -1.000000
660 10 1.000000
660 0 -1.000000
660 0 -1.000000
660 0 -1.000000
660 0 -1.000000
660 0 -1.000000
660 0 -1.000000
660 0 -1.000000
661 10 1.000000
661 0 -1.000000
661 0 -1.000000
661 0 -1.000000
661 0 -1.000000
661 0 -1.000000
661 0 -1.000000
661 0 -1.000000
662 10 1.000000
662 0 -1.000000
662 0 -1.000000
662 0 -1.000000
662 0 -1.000000
662 0 -1.000000
662 0 -1.000000
662 0 -1.000000
663 10 1.000000
663 0 -1.000000
663 0 -1.000000
663 0 -1.000000
663 0 -1.000000
663 0 -1.000000
663 0 -1.000000
663 0 -1.000000
664 10 1.000000
664 0 -1.000000
664 0 -1.000000
664 0 -1.000000
664 0 -1.000000
664 0 -1.000000
664 0 -1.000000
664 0 -1.000000
665 10 1.000000
665 0 -1.000000
665 0 -1.000000
665 0 -1.000000
665 0 -1.000000
665 0 -1.000000
665 0 -1.000000
665 0 -1.000000
666 10 1.000000
666 0 -1.000000
666 0 -1.000000
666 0 -1.000000
666 0 -1.000000
666 0 -1.000000
666 0 -1.000000
666 0 -1.000000
667 10 1.000000
667 0 -1.000000
667 0 -1.000000
667 0 -1.000000
667 0 -1.000000
667 0 -1.000000
667 0 -1.000000
667 0 -1.000000
668 10 1.000000
668 0 -1.000000
668 0 -1.000000
668 0 -1.000000
668 0 -1.000000
668 0 -1.000000
668 0 -1.000000
668 0 -1.000000
669 10 1.000000
669 0 -1.000000
669 0 -1.000000
669 0 -1.000000
669 0 -1.000000
669 0 -1.000000
669 0 -1.000000
669 0 -1.000000
670 10 1.000000
670 0 -1.000000
670 0 -1.000000
670 0 -1.000000
670 0 -1.000000
670 0 -1.000000
670 0 -1.000000
670 0 -1.000000
671 10 1.000000
671 0 -1.000000
671 0 -1.000000
671 0 -1.000000
671 0 -1.000000
671 0 -1.000000
671 0 -1.000000
671 0 -1.000000
672 10 1.000000
672 0 -1.000000
672 0 -1.000000
672 0 -1.000000
672 0 -1.000000
672 0 -1.000000
672 0 -1.000000
672 0 -1.000000
673 10 1.000000
673 0 -1.000000
673 0 -1.000000
673 0 -1.000000
673 0 -1.000000
673 0 -1.000000
673 0 -1.000000
673 0 -1.000000
674 10 1.000000
674 0 -1.000000
674 0 -1.000000
674 0 -1.000000
674 0 -1.000000
674 0 -1.000000
674 0 -1.000000
674 0 -1.000000
675 10 1.000000
675 0 -1.000000
675 0 -1.000000
675 0 -1.000000
675 0 -1.000000
675 0 -1.000000
675 0 -1.000000
675 0 -1.000000
676 10 1.000000
676 0 -1.000000
676 0 -1.000000
676 0 -1.000000
676 0 -1.000000
676 0 -1.000000
676 0 -1.000000
676 0 -1.000000
677 10 1.000000
677 0 -1.000000
677 0 -1.000000
677 0 -1.000000
677 0 -1.000000
677 0 -1.000000
677 0 -1.000000
677 0 -1.000000
678 10 1.000000
678 0 -1.000000
678 0 -1.000000
678 0 -1.000000
678 0 -1.000000
678 0 -1.000000
678 0 -1.000000
678 0 -1.000000
679 10 1.000000
679 0 -1.000000
679 0 -1.000000
679 0 -1.000000
679 0 -1.000000
679 0 -1.000000
679 0 -1.000000
679 0 -1.000000
680 10 1.000000
680 0 -1.000000
680 0 -1.000000
680 0 -1.000000
680 0 -1.000000
680 0 -1.000000
680 0 -1.000000
680 0 -1.000000
681 10 1.000000
681 0 -1.000000
681 0 -1.000000
681 0 -1.000000
681 0 -1.000000
681 0 -1.000000
681 0 -1.000000
681 0 -1.000000
682 10 1.000000
682 0 -1.000000
682 0 -1.000000
682 0 -1.000000
682 0 -1.000000
682 0 -1.000000
682 0 -1.000000
682 0 -1.000000
683 10 1.000000
683 0 -1.000000
683 0 -1.000000
683 0 -1.000000
683 0 -1.000000
683 0 -1.000000
683 0 -1.000000
683 0 -1.000000
684 10 1.000000
684 0 -1.000000
684 0 -1.000000
684 0 -1.000000
684 0 -1.000000
684 0 -1.000000
684 0 -1.000000
684 0 -1.000000
685 10 1.000000
685 0 -1.000000
685 0 -1.000000
685 0 -1.000000
685 0 -1.000000
685 0 -1.000000
685 0 -1.000000
685 0 -1.000000
686 10 1.000000
686 0 -1.000000
686 0 -1.000000
686 0 -1.000000
686 0 -1.000000
686 0 -1.000000
686 0 -1.000000
686 0 -1.000000
687 10 1.000000
687 0 -1.000000
687 0 -1.000000
687 0 -1.000000
687 0 -1.000000
687 0 -1.000000
687 0 -1.000000
687 0 -1.000000
688 10 1.000000
688 0 -1.000000
688 0 -1.000000
688 0 -1.000000
688 0 -1.000000
688 0 -1.000000
688 0 -1.000000
688 0 -1.000000
689 10 1.000000
689 0 -1.000000
689 0 -1.000000
689 0 -1.000000
689 0 -1.000000
689 0 -1.000000
689 0 -1.000000
689 0 -1.000000
690 10 1.000000
690 0 -1.000000
690 0 -1.000000
690 0 -1.000000
690 0 -1.000000
690 0 -1.000000
690 0 -1.000000
690 0 -1.000000
691 10 1.000000
691 0 -1.000000
691 0 -1.000000
691 0 -1.000000
691 0 -1.000000
691 0 -1.000000
691 0 -1.000000
691 0 -1.000000
692 10 1.000000
692 0 -1.000000
692 0 -1.000000
692 0 -1.000000
692 0 -1.000000
692 0 -1.000000
692 0 -1.000000
692 0 -1.000000
693 10 1.000000
693 0 -1.000000
693 0 -1.000000
693 0 -1.000000
693 0 -1.000000
693 0 -1.000000
693 0 -1.000000
693 0 -1.000000
694 10 1.000000
694 0 -1.000000
694 0 -1.000000
694 0 -1.000000
694 0 -1.000000
694 0 -1.000000
694 0 -1.000000
694 0 -1.000000
695 10 1.000000
695 0 -1.000000
695 0 -1.000000
695 0 -1.000000
695 0 -1.000000
695 0 -1.000000
695 0 -1.000000
695 0 -1.000000
696 10 1.000000
696 0 -1.000000
696 0 -1.000000
696 0 -1.000000
696 0 -1.000000
696 0 -1.000000
696 0 -1.000000
696 0 -1.000000
697 10 1.000000
697 0 -1.000000
697 0 -1.000000
697 0 -1.000000
697 0 -1.000000
697 0 -1.000000
697 0 -1.000000
697 0 -1.000000
698 10 1.000000
698 0 -1.000000
698 0 -1.000000
698 0 -1.000000
698 0 -1.000000
698 0 -1.000000
698 0 -1.000000
698 0 -1.000000
699 10 1.000000
699 0 -1.000000
699 0 -1.000000
699 0 -1.000000
699 0 -1.000000
699 0 -1.000000
699 0 -1.000000
699 0 -1.000000
700 10 1.000000
700 0 -1.000000
700 0 -1.000000
700 0 -1.000000
700 0 -1.000000
700 0 -1.000000
700 0 -1.000000
700 0 -1.000000
701 10 1.000000
701 0 -1.000000
701 0 -1.000000
701 0 -1.000000
701 0 -1.000000
701 0 -1.000000
701 0 -1.000000
701 0 -1.000000
702 10 1.000000
702 0 -1.000000
702 0 -1.000000
702 0 -1.000000
702 0 -1.000000
702 0 -1.000000
702 0 -1.000000
702 0 -1.000000
703 10 1.000000
703 0 -1.000000
703 0 -1.000000
703 0 -1.000000
703 0 -1.000000
703 0 -1.000000
703 0 -1.000000
703 0 -1.000000
704 10 1.000000
704 0 -1.000000
704 0 -1.000000
704 0 -1.000000
704 0 -1.000000
704 0 -1.000000
704 0 -1.000000
704 0 -1.000000
705 10 1.000000
705 0 -1.000000
705 0 -1.000000
705 0 -1.000000
705 0 -1.000000
705 0 -1.000000
705 0 -1.000000
705 0 -1.000000
706 10 1.000000
706 0 -1.000000
706 0 -1.000000
706 0 -1.000000
706 0 -1.000000
706 0 -1.000000
706 0 -1.000000
706 0 -1.000000
707 10 1.000000
707 0 -1.000000
707 0 -1.000000
707 0 -1.000000
707 0 -1.000000
707 0 -1.000000
707 0 -1.000000
707 0 -1.000000
708 10 1.000000
708 0 -1.000000
708 0 -1.000000
708 0 -1.000000
708 0 -1.000000
708 0 -1.000000
708 0 -1.000000
708 0 -1.000000
709 10 1.000000
709 0 -1.000000
709 0 -1.000000
709 0 -1.000000
709 0 -1.000000
709 0 -1.000000
709 0 -1.000000
709 0 -1.000000
710 10 1.000000
710 0 -1.000000
710 0 -1.000000
710 0 -1.000000
710 0 -1.000000
710 0 -1.000000
710 0 -1.000000
710 0 -1.000000
711 10 1.000000
711 0 -1.000000
711 0 -1.000000
711 0 -1.000000
711 0 -1.000000
711 0 -1.000000
711 0 -1.000000
711 0 -1.000000
712 10 1.000000
712 0 -1.000000
712 0 -1.000000
712 0 -1.000000
712 0 -1.000000
712 0 -1.000000
712 0 -1.000000
712 0 -1.000000
713 10 1.000000
713 0 -1.000000
713 0 -1.000000
713 0 -1.000000
713 0 -1.000000
713 0 -1.000000
713 0 -1.000000
713 0 -1.000000
714 10 1.000000
714 0 -1.000000
714 0 -1.000000
714 0 -1.000000
714 0 -1.000000
714 0 -1.000000
714 0 -1.000000
714 0 -1.000000
715 10 1.000000
715 0 -1.000000
715 0 -1.000000
715 0 -1.000000
715 0 -1.000000
715 0 -1.000000
715 0 -1.000000
715 0 -1.000000
716 10 1.000000
716 0 -1.000000
716 0 -1.000000
716 0 -1.000000
716 0 -1.000000
716 0 -1.000000
716 0 -1.000000
716 0 -1.000000
717 10 1.000000
717 0 -1.000000
717 0 -1.000000
717 0 -1.000000
717 0 -1.000000
717 0 -1.000000
717 0 -1.000000
717 0 -1.000000
718 10 1.000000
718 0 -1.000000
718 0 -1.000000
718 0 -1.000000
718 0 -1.000000
718 0 -1.000000
718 0 -1.000000
718 0 -1.000000
719 10 1.000000
719 0 -1.000000
719 0 -1.000000
719 0 -1.000000
719 0 -1.000000
719 0 -1.000000
719 0 -1.000000
719 0 -1.000000
720 10 1.000000
720 0 -1.000000
720 0 -1.000000
720 0 -1.000000
720 0 -1.000000
720 0 -1.000000
720 0 -1.000000
720 0 -1.000000
721 10 1.000000
721 0 -1.000000
721 0 -1.000000
721 0 -1.000000
721 0 -1.000000
721 0 -1.000000
721 0 -1.000000
721 0 -1.000000
722 10 1.000000
722 0 -1.000000
722 0 -1.000000
722 0 -1.000000
722 0 -1.000000
722 0 -1.000000
722 0 -1.000000
722 0 -1.000000
723 10 1.000000
723 0 -1.000000
723 0 -1.000000
723 0 -1.000000
723 0 -1.000000
723 0 -1.000000
723 0 -1.000000
723 0 -1.000000
724 10 1.000000
724 0 -1.000000
724 0 -1.000000
724 0 -1.000000
724 0 -1.000000
724 0 -1.000000
724 0 -1.000000
724 0 -1.000000
725 10 1.000000
725 0 -1.000000
725 0 -1.000000
725 0 -1.000000
725 0 -1.000000
725 0 -1.000000
725 0 -1.000000
725 0 -1.000000
726 10 1.000000
726 0 -1.000000
726 0 -1.000000
726 0 -1.000000
726 0 -1.000000
726 0 -1.000000
726 0 -1.000000
726 0 -1.000000
727 10 1.000000
727 0 -1.000000
727 0 -1.000000
727 0 -1.000000
727 0 -1.000000
727 0 -1.000000
727 0 -1.000000
727 0 -1.000000
728 10 1.000000
728 0 -1.000000
728 0 -1.000000
728 0 -1.000000
728 0 -1.000000
728 0 -1.000000
728 0 -1.000000
728 0 -1.000000
729 10 1.000000
729 0 -1.000000
729 0 -1.000000
729 0 -1.000000
729 0 -1.000000
729 0 -1.000000
729 0 -1.000000
729 0 -1.000000
730 10 1.000000
730 0 -1.000000
730 0 -1.000000
730 0 -1.000000
730 0 -1.000000
730 0 -1.000000
730 0 -1.000000
730 0 -1.000000
731 10 1.000000
731 0 -1.000000
731 0 -1.000000
731 0 -1.000000
731 0 -1.000000
731 0 -1.000000
731 0 -1.000000
731 0 -1.000000
732 10 1.000000
732 0 -1.000000
732 0 -1.000000
732 0 -1.000000
732 0 -1.000000
732 0 -1.000000
732 0 -1.000000
732 0 -1.000000
733 10 1.000000
733 0 -1.000000
733 0 -1.000000
733 0 -1.000000
733 0 -1.000000
733 0 -1.000000
733 0 -1.000000
733 0 -1.000000
734 10 1.000000
734 0 -1.000000
734 0 -1.000000
734 0 -1.000000
734 0 -1.000000
734 0 -1.000000
734 0 -1.000000
734 0 -1.000000
735 10 1.000000
735 0 -1.000000
735 0 -1.000000
735 0 -1.000000
735 0 -1.000000
735 0 -1.000000
735 0 -1.000000
735 0 -1.000000
736 10 1.000000
736 0 -1.000000
736 0 -1.000000
736 0 -1.000000
736 0 -1.000000
736 0 -1.000000
736 0 -1.000000
736 0 -1.000000
737 10 1.000000
737 0 -1.000000
737 0 -1.000000
737 0 -1.000000
737 0 -1.000000
737 0 -1.000000
737 0 -1.000000
737 0 -1.000000
738 10 1.000000
738 0 -1.000000
738 0 -1.000000
738 0 -1.000000
738 0 -1.000000
738 0 -1.000000
738 0 -1.000000
738 0 -1.000000
739 10 1.000000
739 0 -1.000000
739 0 -1.000000
739 0 -1.000000
739 0 -1.000000
739 0 -1.000000
739 0 -1.000000
739 0 -1.000000
740 10 1.000000
740 0 -1.000000
740 0 -1.000000
740 0 -1.000000
740 0 -1.000000
740 0 -1.000000
740 0 -1.000000
740 0 -1.000000
741 10 1.000000
741 0 -1.000000
741 0 -1.000000
741 0 -1.000000
741 0 -1.000000
741 0 -1.000000
741 0 -1.000000
741 0 -1.000000
742 10 1.000000
742 0 -1.000000
742 0 -1.000000
742 0 -1.000000
742 0 -1.000000
742 0 -1.000000
742 0 -1.000000
742 0 -1.000000
743 10 1.000000
743 0 -1.000000
743 0 -1.000000
743 0 -1.000000
743 0 -1.000000
743 0 -1.000000
743 0 -1.000000
743 0 -1.000000
744 10 1.000000
744 0 -1.000000
744 0 -1.000000
744 0 -1.000000
744 0 -1.000000
744 0 -1.000000
744 0 -1.000000
744 0 -1.000000
745 10 1.000000
745 0 -1.000000
745 0 -1.000000
745 0 -1.000000
745 0 -1.000000
745 0 -1.000000
745 0 -1.000000
745 0 -1.000000
746 10 1.000000
746 0 -1.000000
746 0 -1.000000
746 0 -1.000000
746 0 -1.000000
746 0 -1.000000
746 0 -1.000000
746 0 -1.000000
747 10 1.000000
747 0 -1.000000
747 0 -1.000000
747 0 -1.000000
747 0 -1.000000
747 0 -1.000000
747 0 -1.000000
747 0 -1.000000
748 10 1.000000
748 0 -1.000000
748 0 -1.000000
748 0 -1.000000
748 0 -1.000000
748 0 -1.000000
748 0 -1.000000
748 0 -1.000000
749 10 1.000000
749 0 -1.000000
749 0 -1.000000
749 0 -1.000000
749 0 -1.000000
749 0 -1.000000
749 0 -1.000000
749 0 -1.000000
750 10 1.000000
750 0 -1.000000
750 0 -1.000000
750 0 -1.000000
750 0 -1.000000
750 0 -1.000000
750 0 -1.000000
750 0 -1.000000
751 10 1.000000
751 0 -1.000000
751 0 -1.000000
751 0 -1.000000
751 0 -1.000000
751 0 -1.000000
751 0 -1.000000
751 0 -1.000000
752 10 1.000000
752 0 -1.000000
752 0 -1.000000
752 0 -1.000000
752 0 -1.000000
752 0 -1.000000
752 0 -1.000000
752 0 -1.000000
753 10 1.000000
753 0 -1.000000
753 0 -1.000000
753 0 -1.000000
753 0 -1.000000
753 0 -1.000000
753 0 -1.000000
753 0 -1.000000
754 10 1.000000
754 0 -1.000000
754 0 -1.000000
754 0 -1.000000
754 0 -1.000000
754 0 -1.000000
754 0 -1.000000
754 0 -1.000000
755 10 1.000000
755 0 -1.000000
755 0 -1.000000
755 0 -1.000000
755 0 -1.000000
755 0 -1.000000
755 0 -1.000000
755 0 -1.000000
756 10 1.000000
756 0 -1.000000
756 0 -1.000000
756 0 -1.000000
756 0 -1.000000
756 0 -1.000000
756 0 -1.000000
756 0 -1.000000
757 10 1.000000
757 0 -1.000000
757 0 -1.000000
757 0 -1.000000
757 0 -1.000000
757 0 -1.000000
757 0 -1.000000
757 0 -1.000000
758 10 1.000000
758 0 -1.000000
758 0 -1.000000
758 0 -1.000000
758 0 -1.000000
758 0 -1.000000
758 0 -1.000000
758 0 -1.000000
759 10 1.000000
759 0 -1.000000
759 0 -1.000000
759 0 -1.000000
759 0 -1.000000
759 0 -1.000000
759 0 -1.000000
759 0 -1.000000
760 10 1.000000
760 0 -1.000000
760 0 -1.000000
760 0 -1.000000
760 0 -1.000000
760 0 -1.000000
760 0 -1.000000
760 0 -1.000000
761 10 1.000000
761 0 -1.000000
761 0 -1.000000
761 0 -1.000000
761 0 -1.000000
761 0 -1.000000
761 0 -1.000000
761 0 -1.000000
762 10 1.000000
762 0 -1.000000
762 0 -1.000000
762 0 -1.000000
762 0 -1.000000
762 0 -1.000000
762 0 -1.000000
762 0 -1.000000
763 10 1.000000
763 0 -1.000000
763 0 -1.000000
763 0 -1.000000
763 0 -1.000000
763 0 -1.000000
763 0 -1.000000
763 0 -1.000000
764 10 1.000000
764 0 -1.000000
764 0 -1.000000
764 0 -1.000000
764 0 -1.000000
764 0 -1.000000
764 0 -1.000000
764 0 -1.000000
765 10 1.000000
765 0 -1.000000
765 0 -1.000000
765 0 -1.000000
765 0 -1.000000
765 0 -1.000000
765 0 -1.000000
765 0 -1.000000
766 10 1.000000
766 0 -1.000000
766 0 -1.000000
766 0 -1.000000
766 0 -1.000000
766 0 -1.000000
766 0 -1.000000
766 0 -1.000000
767 10 1.000000
767 0 -1.000000
767 0 -1.000000
767 0 -1.000000
767 0 -1.000000
767 0 -1.000000
767 0 -1.000000
767 0 -1.000000
768 10 1.000000
768 0 -1.000000
768 0 -1.000000
768 0 -1.000000
768 0 -1.000000
768 0 -1.000000
768 0 -1.000000
768 0 -1.000000
769 10 1.000000
769 0 -1.000000
769 0 -1.000000
769 0 -1.000000
769 0 -1.000000
769 0 -1.000000
769 0 -1.000000
769 0 -1.000000
770 10 1.000000
770 0 -1.000000
770 0 -1.000000
770 0 -1.000000
770 0 -1.000000
770 0 -1.000000
770 0 -1.000000
770 0 -1.000000
771 10 1.000000
771 0 -1.000000
771 0 -1.000000
771 0 -1.000000
771 0 -1.000000
771 0 -1.000000
771 0 -1.000000
771 0 -1.000000
772 10 1.000000
772 0 -1.000000
772 0 -1.000000
772 0 -1.000000
772 0 -1.000000
772 0 -1.000000
772 0 -1.000000
772 0 -1.000000
773 10 1.000000
773 0 -1.000000
773 0 -1.000000
773 0 -1.000000
773 0 -1.000000
773 0 -1.000000
773 0 -1.000000
773 0 -1.000000
774 10 1.000000
774 0 -1.000000
774 0 -1.000000
774 0 -1.000000
774 0 -1.000000
774 0 -1.000000
774 0 -1.000000
774 0 -1.000000
775 10 1.000000
775 0 -1.000000
775 0 -1.000000
775 0 -1.000000
775 0 -1.000000
775 0 -1.000000
775 0 -1.000000
775 0 -1.000000
776 10 1.000000
776 0 -1.000000
776 0 -1.000000
776 0 -1.000000
776 0 -1.000000
776 0 -1.000000
776 0 -1.000000
776 0 -1.000000
777 10 1.000000
777 0 -1.000000
777 0 -1.000000
777 0 -1.000000
777 0 -1.000000
777 0 -1.000000
777 0 -1.000000
777 0 -1.000000
778 10 1.000000
778 0 -1.000000
778 0 -1.000000
778 0 -1.000000
778 0 -1.000000
778 0 -1.000000
778 0 -1.000000
778 0 -1.000000
779 10 1.000000
779 0 -1.000000
779 0 -1.000000
779 0 -1.000000
779 0 -1.000000
779 0 -1.000000
779 0 -1.000000
779 0 -1.000000
780 10 1.000000
780 0 -1.000000
780 0 -1.000000
780 0 -1.000000
780 0 -1.000000
780 0 -1.000000
780 0 -1.000000
780 0 -1.000000
781 10 1.000000
781 0 -1.000000
781 0 -1.000000
781 0 -1.000000
781 0 -1.000000
781 0 -1.000000
781 0 -1.000000
781 0 -1.000000
782 10 1.000000
782 0 -1.000000
782 0 -1.000000
782 0 -1.000000
782 0 -1.000000
782 0 -1.000000
782 0 -1.000000
782 0 -1.000000
783 10 1.000000
783 0 -1.000000
783 0 -1.000000
783 0 -1.000000
783 0 -1.000000
783 0 -1.000000
783 0 -1.000000
783 0 -1.000000
784 10 1.000000
784 0 -1.000000
784 0 -1.000000
784 0 -1.000000
784 0 -1.000000
784 0 -1.000000
784 0 -1.000000
784 0 -1.000000
785 10 1.000000
785 0 -1.000000
785 0 -1.000000
785 0 -1.000000
785 0 -1.000000
785 0 -1.000000
785 0 -1.000000
785 0 -1.000000
786 10 1.000000
786 0 -1.000000
786 0 -1.000000
786 0 -1.000000
786 0 -1.000000
786 0 -1.000000
786 0 -1.000000
786 0 -1.000000
787 10 1.000000
787 0 -1.000000
787 0 -1.000000
787 0 -1.000000
787 0 -1.000000
787 0 -1.000000
787 0 -1.000000
787 0 -1.000000
788 10 1.000000
