0 3 0.500000
0 4 0.500000
0 0 -1.000000
0 0 -1.000000
0 0 -1.000000
0 0 -1.000000
0 0 -1.000000
0 0 -1.000000
1 3 0.500000
1 4 0.500000
1 0 -1.000000
1 0 -1.000000
1 0 -1.000000
1 0 -1.000000
1 0 -1.000000
1 0 -1.000000
2 3 1.000000
2 0 -1.000000
2 0 -1.000000
2 0 -1.000000
2 0 -1.000000
2 0 -1.000000
2 0 -1.000000
2 0 -1.000000
3 3 0.500000
3 4 0.500000
3 0 -1.000000
3 0 -1.000000
3 0 -1.000000
3 0 -1.000000
3 0 -1.000000
3 0 -1.000000
4 3 0.500000
4 4 0.500000
4 0 -1.000000
4 0 -1.000000
4 0 -1.000000
4 0 -1.000000
4 0 -1.000000
4 0 -1.000000
5 3 1.000000
5 0 -1.000000
5 0 -1.000000
5 0 -1.000000
5 0 -1.000000
5 0 -1.000000
5 0 -1.000000
5 0 -1.000000
6 6 0.500000
6 5 0.500000
6 0 -1.000000
6 0 -1.000000
6 0 -1.000000
6 0 -1.000000
6 0 -1.000000
6 0 -1.000000
7 6 0.750000
7 11 0.250000
7 0 -1.000000
7 0 -1.000000
7 0 -1.000000
7 0 -1.000000
7 0 -1.000000
7 0 -1.000000
8 5 0.375000
8 4 0.375000
8 11 0.250000
8 0 -1.000000
8 0 -1.000000
8 0 -1.000000
8 0 -1.000000
8 0 -1.000000
9 6 0.500000
9 5 0.500000
9 0 -1.000000
9 0 -1.000000
9 0 -1.000000
9 0 -1.000000
9 0 -1.000000
9 0 -1.000000
10 6 0.500000
10 5 0.500000
10 0 -1.000000
10 0 -1.000000
10 0 -1.000000
10 0 -1.000000
10 0 -1.000000
10 0 -1.000000
11 5 0.375000
11 4 0.375000
11 11 0.250000
11 0 -1.000000
11 0 -1.000000
11 0 -1.000000
11 0 -1.000000
11 0 -1.000000
12 5 0.500000
12 4 0.500000
12 0 -1.000000
12 0 -1.000000
12 0 -1.000000
12 0 -1.000000
12 0 -1.000000
12 0 -1.000000
13 6 0.500000
13 5 0.500000
13 0 -1.000000
13 0 -1.000000
13 0 -1.000000
13 0 -1.000000
13 0 -1.000000
13 0 -1.000000
14 5 0.375000
14 4 0.375000
14 11 0.250000
14 0 -1.000000
14 0 -1.000000
14 0 -1.000000
14 0 -1.000000
14 0 -1.000000
15 6 0.500000
15 5 0.500000
15 0 -1.000000
15 0 -1.000000
15 0 -1.000000
15 0 -1.000000
15 0 -1.000000
15 0 -1.000000
16 6 0.500000
16 5 0.500000
16 0 -1.000000
16 0 -1.000000
16 0 -1.000000
16 0 -1.000000
16 0 -1.000000
16 0 -1.000000
17 5 0.500000
17 4 0.500000
17 0 -1.000000
17 0 -1.000000
17 0 -1.000000
17 0 -1.000000
17 0 -1.000000
17 0 -1.000000
18 5 0.500000
18 4 0.500000
18 0 -1.000000
18 0 -1.000000
18 0 -1.000000
18 0 -1.000000
18 0 -1.000000
18 0 -1.000000
19 5 0.500000
19 4 0.500000
19 0 -1.000000
19 0 -1.000000
19 0 -1.000000
19 0 -1.000000
19 0 -1.000000
19 0 -1.000000
20 6 0.500000
20 5 0.500000
20 0 -1.000000
20 0 -1.000000
20 0 -1.000000
20 0 -1.000000
20 0 -1.000000
20 0 -1.000000
21 6 0.500000
21 5 0.500000
21 0 -1.000000
21 0 -1.000000
21 0 -1.000000
21 0 -1.000000
21 0 -1.000000
21 0 -1.000000
22 6 0.500000
22 5 0.500000
22 0 -1.000000
22 0 -1.000000
22 0 -1.000000
22 0 -1.000000
22 0 -1.000000
22 0 -1.000000
23 5 0.500000
23 4 0.500000
23 0 -1.000000
23 0 -1.000000
23 0 -1.000000
23 0 -1.000000
23 0 -1.000000
23 0 -1.000000
24 5 0.500000
24 4 0.500000
24 0 -1.000000
24 0 -1.000000
24 0 -1.000000
24 0 -1.000000
24 0 -1.000000
24 0 -1.000000
25 5 0.500000
25 4 0.500000
25 0 -1.000000
25 0 -1.000000
25 0 -1.000000
25 0 -1.000000
25 0 -1.000000
25 0 -1.000000
26 6 0.500000
26 5 0.500000
26 0 -1.000000
26 0 -1.000000
26 0 -1.000000
26 0 -1.000000
26 0 -1.000000
26 0 -1.000000
27 6 0.500000
27 5 0.500000
27 0 -1.000000
27 0 -1.000000
27 0 -1.000000
27 0 -1.000000
27 0 -1.000000
27 0 -1.000000
28 6 0.500000
28 5 0.500000
28 0 -1.000000
28 0 -1.000000
28 0 -1.000000
28 0 -1.000000
28 0 -1.000000
28 0 -1.000000
29 5 0.500000
29 4 0.500000
29 0 -1.000000
29 0 -1.000000
29 0 -1.000000
29 0 -1.000000
29 0 -1.000000
29 0 -1.000000
30 5 0.500000
30 4 0.500000
30 0 -1.000000
30 0 -1.000000
30 0 -1.000000
30 0 -1.000000
30 0 -1.000000
30 0 -1.000000
31 5 0.500000
31 4 0.500000
31 0 -1.000000
31 0 -1.000000
31 0 -1.000000
31 0 -1.000000
31 0 -1.000000
31 0 -1.000000
32 6 0.500000
32 5 0.500000
32 0 -1.000000
32 0 -1.000000
32 0 -1.000000
32 0 -1.000000
32 0 -1.000000
32 0 -1.000000
33 6 0.500000
33 5 0.500000
33 0 -1.000000
33 0 -1.000000
33 0 -1.000000
33 0 -1.000000
33 0 -1.000000
33 0 -1.000000
34 6 0.500000
34 5 0.500000
34 0 -1.000000
34 0 -1.000000
34 0 -1.000000
34 0 -1.000000
34 0 -1.000000
34 0 -1.000000
35 5 0.500000
35 4 0.500000
35 0 -1.000000
35 0 -1.000000
35 0 -1.000000
35 0 -1.000000
35 0 -1.000000
35 0 -1.000000
36 5 0.500000
36 4 0.500000
36 0 -1.000000
36 0 -1.000000
36 0 -1.000000
36 0 -1.000000
36 0 -1.000000
36 0 -1.000000
37 5 0.500000
37 4 0.500000
37 0 -1.000000
37 0 -1.000000
37 0 -1.000000
37 0 -1.000000
37 0 -1.000000
37 0 -1.000000
38 6 0.500000
38 5 0.500000
38 0 -1.000000
38 0 -1.000000
38 0 -1.000000
38 0 -1.000000
38 0 -1.000000
38 0 -1.000000
39 6 0.500000
39 5 0.500000
39 0 -1.000000
39 0 -1.000000
39 0 -1.000000
39 0 -1.000000
39 0 -1.000000
39 0 -1.000000
40 6 0.500000
40 5 0.500000
40 0 -1.000000
40 0 -1.000000
40 0 -1.000000
40 0 -1.000000
40 0 -1.000000
40 0 -1.000000
41 5 0.500000
41 4 0.500000
41 0 -1.000000
41 0 -1.000000
41 0 -1.000000
41 0 -1.000000
41 0 -1.000000
41 0 -1.000000
42 5 0.500000
42 4 0.500000
42 0 -1.000000
42 0 -1.000000
42 0 -1.000000
42 0 -1.000000
42 0 -1.000000
42 0 -1.000000
43 5 0.500000
43 4 0.500000
43 0 -1.000000
43 0 -1.000000
43 0 -1.000000
43 0 -1.000000
43 0 -1.000000
43 0 -1.000000
44 6 0.500000
44 5 0.500000
44 0 -1.000000
44 0 -1.000000
44 0 -1.000000
44 0 -1.000000
44 0 -1.000000
44 0 -1.000000
45 5 0.375000
45 4 0.375000
45 11 0.250000
45 0 -1.000000
45 0 -1.000000
45 0 -1.000000
45 0 -1.000000
45 0 -1.000000
46 5 0.375000
46 4 0.375000
46 11 0.250000
46 0 -1.000000
46 0 -1.000000
46 0 -1.000000
46 0 -1.000000
46 0 -1.000000
47 3 0.500000
47 4 0.500000
47 0 -1.000000
47 0 -1.000000
47 0 -1.000000
47 0 -1.000000
47 0 -1.000000
47 0 -1.000000
48 5 0.500000
48 4 0.500000
48 0 -1.000000
48 0 -1.000000
48 0 -1.000000
48 0 -1.000000
48 0 -1.000000
48 0 -1.000000
49 5 0.375000
49 4 0.375000
49 11 0.250000
49 0 -1.000000
49 0 -1.000000
49 0 -1.000000
49 0 -1.000000
49 0 -1.000000
50 3 0.500000
50 4 0.500000
50 0 -1.000000
50 0 -1.000000
50 0 -1.000000
50 0 -1.000000
50 0 -1.000000
50 0 -1.000000
51 3 0.500000
51 4 0.500000
51 0 -1.000000
51 0 -1.000000
51 0 -1.000000
51 0 -1.000000
51 0 -1.000000
51 0 -1.000000
52 5 0.500000
52 4 0.500000
52 0 -1.000000
52 0 -1.000000
52 0 -1.000000
52 0 -1.000000
52 0 -1.000000
52 0 -1.000000
53 3 0.500000
53 4 0.500000
53 0 -1.000000
53 0 -1.000000
53 0 -1.000000
53 0 -1.000000
53 0 -1.000000
53 0 -1.000000
54 5 0.500000
54 4 0.500000
54 0 -1.000000
54 0 -1.000000
54 0 -1.000000
54 0 -1.000000
54 0 -1.000000
54 0 -1.000000
55 5 0.500000
55 4 0.500000
55 0 -1.000000
55 0 -1.000000
55 0 -1.000000
55 0 -1.000000
55 0 -1.000000
55 0 -1.000000
56 3 0.500000
56 4 0.500000
56 0 -1.000000
56 0 -1.000000
56 0 -1.000000
56 0 -1.000000
56 0 -1.000000
56 0 -1.000000
57 3 0.500000
57 4 0.500000
57 0 -1.000000
57 0 -1.000000
57 0 -1.000000
57 0 -1.000000
57 0 -1.000000
57 0 -1.000000
58 3 0.500000
58 4 0.500000
58 0 -1.000000
58 0 -1.000000
58 0 -1.000000
58 0 -1.000000
58 0 -1.000000
58 0 -1.000000
59 5 0.500000
59 4 0.500000
59 0 -1.000000
59 0 -1.000000
59 0 -1.000000
59 0 -1.000000
59 0 -1.000000
59 0 -1.000000
60 5 0.500000
60 4 0.500000
60 0 -1.000000
60 0 -1.000000
60 0 -1.000000
60 0 -1.000000
60 0 -1.000000
60 0 -1.000000
61 5 0.500000
61 4 0.500000
61 0 -1.000000
61 0 -1.000000
61 0 -1.000000
61 0 -1.000000
61 0 -1.000000
61 0 -1.000000
62 3 0.500000
62 4 0.500000
62 0 -1.000000
62 0 -1.000000
62 0 -1.000000
62 0 -1.000000
62 0 -1.000000
62 0 -1.000000
63 3 0.500000
63 4 0.500000
63 0 -1.000000
63 0 -1.000000
63 0 -1.000000
63 0 -1.000000
63 0 -1.000000
63 0 -1.000000
64 3 0.500000
64 4 0.500000
64 0 -1.000000
64 0 -1.000000
64 0 -1.000000
64 0 -1.000000
64 0 -1.000000
64 0 -1.000000
65 5 0.500000
65 4 0.500000
65 0 -1.000000
65 0 -1.000000
65 0 -1.000000
65 0 -1.000000
65 0 -1.000000
65 0 -1.000000
66 5 0.500000
66 4 0.500000
66 0 -1.000000
66 0 -1.000000
66 0 -1.000000
66 0 -1.000000
66 0 -1.000000
66 0 -1.000000
67 5 0.500000
67 4 0.500000
67 0 -1.000000
67 0 -1.000000
67 0 -1.000000
67 0 -1.000000
67 0 -1.000000
67 0 -1.000000
68 3 0.500000
68 4 0.500000
68 0 -1.000000
68 0 -1.000000
68 0 -1.000000
68 0 -1.000000
68 0 -1.000000
68 0 -1.000000
69 3 0.500000
69 4 0.500000
69 0 -1.000000
69 0 -1.000000
69 0 -1.000000
69 0 -1.000000
69 0 -1.000000
69 0 -1.000000
70 3 0.500000
70 4 0.500000
70 0 -1.000000
70 0 -1.000000
70 0 -1.000000
70 0 -1.000000
70 0 -1.000000
70 0 -1.000000
71 5 0.500000
71 4 0.500000
71 0 -1.000000
71 0 -1.000000
71 0 -1.000000
71 0 -1.000000
71 0 -1.000000
71 0 -1.000000
72 5 0.500000
72 4 0.500000
72 0 -1.000000
72 0 -1.000000
72 0 -1.000000
72 0 -1.000000
72 0 -1.000000
72 0 -1.000000
73 5 0.500000
73 4 0.500000
73 0 -1.000000
73 0 -1.000000
73 0 -1.000000
73 0 -1.000000
73 0 -1.000000
73 0 -1.000000
74 3 0.500000
74 4 0.500000
74 0 -1.000000
74 0 -1.000000
74 0 -1.000000
74 0 -1.000000
74 0 -1.000000
74 0 -1.000000
75 3 0.500000
75 4 0.500000
75 0 -1.000000
75 0 -1.000000
75 0 -1.000000
75 0 -1.000000
75 0 -1.000000
75 0 -1.000000
76 3 0.500000
76 4 0.500000
76 0 -1.000000
76 0 -1.000000
76 0 -1.000000
76 0 -1.000000
76 0 -1.000000
76 0 -1.000000
77 5 0.500000
77 4 0.500000
77 0 -1.000000
77 0 -1.000000
77 0 -1.000000
77 0 -1.000000
77 0 -1.000000
77 0 -1.000000
78 5 0.500000
78 4 0.500000
78 0 -1.000000
78 0 -1.000000
78 0 -1.000000
78 0 -1.000000
78 0 -1.000000
78 0 -1.000000
79 5 0.500000
79 4 0.500000
79 0 -1.000000
79 0 -1.000000
79 0 -1.000000
79 0 -1.000000
79 0 -1.000000
79 0 -1.000000
80 3 0.500000
80 4 0.500000
80 0 -1.000000
80 0 -1.000000
80 0 -1.000000
80 0 -1.000000
80 0 -1.000000
80 0 -1.000000
81 3 0.500000
81 4 0.500000
81 0 -1.000000
81 0 -1.000000
81 0 -1.000000
81 0 -1.000000
81 0 -1.000000
81 0 -1.000000
82 3 0.500000
82 4 0.500000
82 0 -1.000000
82 0 -1.000000
82 0 -1.000000
82 0 -1.000000
82 0 -1.000000
82 0 -1.000000
83 5 0.500000
83 4 0.500000
83 0 -1.000000
83 0 -1.000000
83 0 -1.000000
83 0 -1.000000
83 0 -1.000000
83 0 -1.000000
84 6 1.000000
84 0 -1.000000
84 0 -1.000000
84 0 -1.000000
84 0 -1.000000
84 0 -1.000000
84 0 -1.000000
84 0 -1.000000
85 6 1.000000
85 0 -1.000000
85 0 -1.000000
85 0 -1.000000
85 0 -1.000000
85 0 -1.000000
85 0 -1.000000
85 0 -1.000000
86 6 1.000000
86 0 -1.000000
86 0 -1.000000
86 0 -1.000000
86 0 -1.000000
86 0 -1.000000
86 0 -1.000000
86 0 -1.000000
87 6 1.000000
87 0 -1.000000
87 0 -1.000000
87 0 -1.000000
87 0 -1.000000
87 0 -1.000000
87 0 -1.000000
87 0 -1.000000
88 6 1.000000
88 0 -1.000000
88 0 -1.000000
88 0 -1.000000
88 0 -1.000000
88 0 -1.000000
88 0 -1.000000
88 0 -1.000000
89 6 1.000000
89 0 -1.000000
89 0 -1.000000
89 0 -1.000000
89 0 -1.000000
89 0 -1.000000
89 0 -1.000000
89 0 -1.000000
90 6 1.000000
90 0 -1.000000
90 0 -1.000000
90 0 -1.000000
90 0 -1.000000
90 0 -1.000000
90 0 -1.000000
90 0 -1.000000
91 6 1.000000
91 0 -1.000000
91 0 -1.000000
91 0 -1.000000
91 0 -1.000000
91 0 -1.000000
91 0 -1.000000
91 0 -1.000000
92 6 1.000000
92 0 -1.000000
92 0 -1.000000
92 0 -1.000000
92 0 -1.000000
92 0 -1.000000
92 0 -1.000000
92 0 -1.000000
93 6 1.000000
93 0 -1.000000
93 0 -1.000000
93 0 -1.000000
93 0 -1.000000
93 0 -1.000000
93 0 -1.000000
93 0 -1.000000
94 6 1.000000
94 0 -1.000000
94 0 -1.000000
94 0 -1.000000
94 0 -1.000000
94 0 -1.000000
94 0 -1.000000
94 0 -1.000000
95 6 1.000000
95 0 -1.000000
95 0 -1.000000
95 0 -1.000000
95 0 -1.000000
95 0 -1.000000
95 0 -1.000000
95 0 -1.000000
96 6 1.000000
96 0 -1.000000
96 0 -1.000000
96 0 -1.000000
96 0 -1.000000
96 0 -1.000000
96 0 -1.000000
96 0 -1.000000
97 6 1.000000
97 0 -1.000000
97 0 -1.000000
97 0 -1.000000
97 0 -1.000000
97 0 -1.000000
97 0 -1.000000
97 0 -1.000000
98 6 1.000000
98 0 -1.000000
98 0 -1.000000
98 0 -1.000000
98 0 -1.000000
98 0 -1.000000
98 0 -1.000000
98 0 -1.000000
99 6 1.000000
99 0 -1.000000
99 0 -1.000000
99 0 -1.000000
99 0 -1.000000
99 0 -1.000000
99 0 -1.000000
99 0 -1.000000
100 6 1.000000
100 0 -1.000000
100 0 -1.000000
100 0 -1.000000
100 0 -1.000000
100 0 -1.000000
100 0 -1.000000
100 0 -1.000000
101 6 1.000000
101 0 -1.000000
101 0 -1.000000
101 0 -1.000000
101 0 -1.000000
101 0 -1.000000
101 0 -1.000000
101 0 -1.000000
102 6 1.000000
102 0 -1.000000
102 0 -1.000000
102 0 -1.000000
102 0 -1.000000
102 0 -1.000000
102 0 -1.000000
102 0 -1.000000
103 6 1.000000
103 0 -1.000000
103 0 -1.000000
103 0 -1.000000
103 0 -1.000000
103 0 -1.000000
103 0 -1.000000
103 0 -1.000000
104 6 1.000000
104 0 -1.000000
104 0 -1.000000
104 0 -1.000000
104 0 -1.000000
104 0 -1.000000
104 0 -1.000000
104 0 -1.000000
105 6 1.000000
105 0 -1.000000
105 0 -1.000000
105 0 -1.000000
105 0 -1.000000
105 0 -1.000000
105 0 -1.000000
105 0 -1.000000
106 6 1.000000
106 0 -1.000000
106 0 -1.000000
106 0 -1.000000
106 0 -1.000000
106 0 -1.000000
106 0 -1.000000
106 0 -1.000000
107 6 1.000000
107 0 -1.000000
107 0 -1.000000
107 0 -1.000000
107 0 -1.000000
107 0 -1.000000
107 0 -1.000000
107 0 -1.000000
108 6 1.000000
108 0 -1.000000
108 0 -1.000000
108 0 -1.000000
108 0 -1.000000
108 0 -1.000000
108 0 -1.000000
108 0 -1.000000
109 6 1.000000
109 0 -1.000000
109 0 -1.000000
109 0 -1.000000
109 0 -1.000000
109 0 -1.000000
109 0 -1.000000
109 0 -1.000000
110 6 1.000000
110 0 -1.000000
110 0 -1.000000
110 0 -1.000000
110 0 -1.000000
110 0 -1.000000
110 0 -1.000000
110 0 -1.000000
111 6 1.000000
111 0 -1.000000
111 0 -1.000000
111 0 -1.000000
111 0 -1.000000
111 0 -1.000000
111 0 -1.000000
111 0 -1.000000
112 6 1.000000
112 0 -1.000000
112 0 -1.000000
112 0 -1.000000
112 0 -1.000000
112 0 -1.000000
112 0 -1.000000
112 0 -1.000000
113 6 1.000000
113 0 -1.000000
113 0 -1.000000
113 0 -1.000000
113 0 -1.000000
113 0 -1.000000
113 0 -1.000000
113 0 -1.000000
114 6 1.000000
114 0 -1.000000
114 0 -1.000000
114 0 -1.000000
114 0 -1.000000
114 0 -1.000000
114 0 -1.000000
114 0 -1.000000
115 6 1.000000
115 0 -1.000000
115 0 -1.000000
115 0 -1.000000
115 0 -1.000000
115 0 -1.000000
115 0 -1.000000
115 0 -1.000000
116 6 1.000000
116 0 -1.000000
116 0 -1.000000
116 0 -1.000000
116 0 -1.000000
116 0 -1.000000
116 0 -1.000000
116 0 -1.000000
117 6 1.000000
117 0 -1.000000
117 0 -1.000000
117 0 -1.000000
117 0 -1.000000
117 0 -1.000000
117 0 -1.000000
117 0 -1.000000
118 6 1.000000
118 0 -1.000000
118 0 -1.000000
118 0 -1.000000
118 0 -1.000000
118 0 -1.000000
118 0 -1.000000
118 0 -1.000000
119 6 1.000000
119 0 -1.000000
119 0 -1.000000
119 0 -1.000000
119 0 -1.000000
119 0 -1.000000
119 0 -1.000000
119 0 -1.000000
120 6 1.000000
120 0 -1.000000
120 0 -1.000000
120 0 -1.000000
120 0 -1.000000
120 0 -1.000000
120 0 -1.000000
120 0 -1.000000
121 6 1.000000
121 0 -1.000000
121 0 -1.000000
121 0 -1.000000
121 0 -1.000000
121 0 -1.000000
121 0 -1.000000
121 0 -1.000000
122 6 0.500000
122 5 0.500000
122 0 -1.000000
122 0 -1.000000
122 0 -1.000000
122 0 -1.000000
122 0 -1.000000
122 0 -1.000000
123 6 0.500000
123 5 0.500000
123 0 -1.000000
123 0 -1.000000
123 0 -1.000000
123 0 -1.000000
123 0 -1.000000
123 0 -1.000000
124 6 0.500000
124 5 0.500000
124 0 -1.000000
124 0 -1.000000
124 0 -1.000000
124 0 -1.000000
124 0 -1.000000
124 0 -1.000000
125 6 1.000000
125 0 -1.000000
125 0 -1.000000
125 0 -1.000000
125 0 -1.000000
125 0 -1.000000
125 0 -1.000000
125 0 -1.000000
126 6 1.000000
126 0 -1.000000
126 0 -1.000000
126 0 -1.000000
126 0 -1.000000
126 0 -1.000000
126 0 -1.000000
126 0 -1.000000
127 6 1.000000
127 0 -1.000000
127 0 -1.000000
127 0 -1.000000
127 0 -1.000000
127 0 -1.000000
127 0 -1.000000
127 0 -1.000000
128 6 0.500000
128 5 0.500000
128 0 -1.000000
128 0 -1.000000
128 0 -1.000000
128 0 -1.000000
128 0 -1.000000
128 0 -1.000000
129 6 0.500000
129 5 0.500000
129 0 -1.000000
129 0 -1.000000
129 0 -1.000000
129 0 -1.000000
129 0 -1.000000
129 0 -1.000000
130 6 0.500000
130 5 0.500000
130 0 -1.000000
130 0 -1.000000
130 0 -1.000000
130 0 -1.000000
130 0 -1.000000
130 0 -1.000000
131 6 1.000000
131 0 -1.000000
131 0 -1.000000
131 0 -1.000000
131 0 -1.000000
131 0 -1.000000
131 0 -1.000000
131 0 -1.000000
132 6 1.000000
132 0 -1.000000
132 0 -1.000000
132 0 -1.000000
132 0 -1.000000
132 0 -1.000000
132 0 -1.000000
132 0 -1.000000
133 6 1.000000
133 0 -1.000000
133 0 -1.000000
133 0 -1.000000
133 0 -1.000000
133 0 -1.000000
133 0 -1.000000
133 0 -1.000000
134 6 0.500000
134 5 0.500000
134 0 -1.000000
134 0 -1.000000
134 0 -1.000000
134 0 -1.000000
134 0 -1.000000
134 0 -1.000000
135 6 0.500000
135 5 0.500000
135 0 -1.000000
135 0 -1.000000
135 0 -1.000000
135 0 -1.000000
135 0 -1.000000
135 0 -1.000000
136 6 0.500000
136 5 0.500000
136 0 -1.000000
136 0 -1.000000
136 0 -1.000000
136 0 -1.000000
136 0 -1.000000
136 0 -1.000000
137 6 1.000000
137 0 -1.000000
137 0 -1.000000
137 0 -1.000000
137 0 -1.000000
137 0 -1.000000
137 0 -1.000000
137 0 -1.000000
138 6 1.000000
138 0 -1.000000
138 0 -1.000000
138 0 -1.000000
138 0 -1.000000
138 0 -1.000000
138 0 -1.000000
138 0 -1.000000
139 6 1.000000
139 0 -1.000000
139 0 -1.000000
139 0 -1.000000
139 0 -1.000000
139 0 -1.000000
139 0 -1.000000
139 0 -1.000000
140 6 0.500000
140 5 0.500000
140 0 -1.000000
140 0 -1.000000
140 0 -1.000000
140 0 -1.000000
140 0 -1.000000
140 0 -1.000000
141 6 0.500000
141 5 0.500000
141 0 -1.000000
141 0 -1.000000
141 0 -1.000000
141 0 -1.000000
141 0 -1.000000
141 0 -1.000000
142 6 0.500000
142 5 0.500000
142 0 -1.000000
142 0 -1.000000
142 0 -1.000000
142 0 -1.000000
142 0 -1.000000
142 0 -1.000000
143 6 1.000000
143 0 -1.000000
143 0 -1.000000
143 0 -1.000000
143 0 -1.000000
143 0 -1.000000
143 0 -1.000000
143 0 -1.000000
144 6 1.000000
144 0 -1.000000
144 0 -1.000000
144 0 -1.000000
144 0 -1.000000
144 0 -1.000000
144 0 -1.000000
144 0 -1.000000
145 6 1.000000
145 0 -1.000000
145 0 -1.000000
145 0 -1.000000
145 0 -1.000000
145 0 -1.000000
145 0 -1.000000
145 0 -1.000000
146 6 0.500000
146 5 0.500000
146 0 -1.000000
146 0 -1.000000
146 0 -1.000000
146 0 -1.000000
146 0 -1.000000
146 0 -1.000000
147 6 0.500000
147 5 0.500000
147 0 -1.000000
147 0 -1.000000
147 0 -1.000000
147 0 -1.000000
147 0 -1.000000
147 0 -1.000000
148 6 0.500000
148 5 0.500000
148 0 -1.000000
148 0 -1.000000
148 0 -1.000000
148 0 -1.000000
148 0 -1.000000
148 0 -1.000000
149 6 1.000000
149 0 -1.000000
149 0 -1.000000
149 0 -1.000000
149 0 -1.000000
149 0 -1.000000
149 0 -1.000000
149 0 -1.000000
150 6 1.000000
150 0 -1.000000
150 0 -1.000000
150 0 -1.000000
150 0 -1.000000
150 0 -1.000000
150 0 -1.000000
150 0 -1.000000
151 6 1.000000
151 0 -1.000000
151 0 -1.000000
151 0 -1.000000
151 0 -1.000000
151 0 -1.000000
151 0 -1.000000
151 0 -1.000000
152 6 0.500000
152 5 0.500000
152 0 -1.000000
152 0 -1.000000
152 0 -1.000000
152 0 -1.000000
152 0 -1.000000
152 0 -1.000000
153 6 0.500000
153 5 0.500000
153 0 -1.000000
153 0 -1.000000
153 0 -1.000000
153 0 -1.000000
153 0 -1.000000
153 0 -1.000000
154 6 0.500000
154 5 0.500000
154 0 -1.000000
154 0 -1.000000
154 0 -1.000000
154 0 -1.000000
154 0 -1.000000
154 0 -1.000000
155 6 1.000000
155 0 -1.000000
155 0 -1.000000
155 0 -1.000000
155 0 -1.000000
155 0 -1.000000
155 0 -1.000000
155 0 -1.000000
156 6 1.000000
156 0 -1.000000
156 0 -1.000000
156 0 -1.000000
156 0 -1.000000
156 0 -1.000000
156 0 -1.000000
156 0 -1.000000
157 6 1.000000
157 0 -1.000000
157 0 -1.000000
157 0 -1.000000
157 0 -1.000000
157 0 -1.000000
157 0 -1.000000
157 0 -1.000000
158 6 1.000000
158 0 -1.000000
158 0 -1.000000
158 0 -1.000000
158 0 -1.000000
158 0 -1.000000
158 0 -1.000000
158 0 -1.000000
159 6 1.000000
159 0 -1.000000
159 0 -1.000000
159 0 -1.000000
159 0 -1.000000
159 0 -1.000000
159 0 -1.000000
159 0 -1.000000
160 6 1.000000
160 0 -1.000000
160 0 -1.000000
160 0 -1.000000
160 0 -1.000000
160 0 -1.000000
160 0 -1.000000
160 0 -1.000000
161 6 1.000000
161 0 -1.000000
161 0 -1.000000
161 0 -1.000000
161 0 -1.000000
161 0 -1.000000
161 0 -1.000000
161 0 -1.000000
162 6 1.000000
162 0 -1.000000
162 0 -1.000000
162 0 -1.000000
162 0 -1.000000
162 0 -1.000000
162 0 -1.000000
162 0 -1.000000
163 6 1.000000
163 0 -1.000000
163 0 -1.000000
163 0 -1.000000
163 0 -1.000000
163 0 -1.000000
163 0 -1.000000
163 0 -1.000000
164 6 1.000000
164 0 -1.000000
164 0 -1.000000
164 0 -1.000000
164 0 -1.000000
164 0 -1.000000
164 0 -1.000000
164 0 -1.000000
165 6 1.000000
165 0 -1.000000
165 0 -1.000000
165 0 -1.000000
165 0 -1.000000
165 0 -1.000000
165 0 -1.000000
165 0 -1.000000
166 6 1.000000
166 0 -1.000000
166 0 -1.000000
166 0 -1.000000
166 0 -1.000000
166 0 -1.000000
166 0 -1.000000
166 0 -1.000000
167 6 1.000000
167 0 -1.000000
167 0 -1.000000
167 0 -1.000000
167 0 -1.000000
167 0 -1.000000
167 0 -1.000000
167 0 -1.000000
168 6 1.000000
168 0 -1.000000
168 0 -1.000000
168 0 -1.000000
168 0 -1.000000
168 0 -1.000000
168 0 -1.000000
168 0 -1.000000
169 6 1.000000
169 0 -1.000000
169 0 -1.000000
169 0 -1.000000
169 0 -1.000000
169 0 -1.000000
169 0 -1.000000
169 0 -1.000000
170 6 1.000000
170 0 -1.000000
170 0 -1.000000
170 0 -1.000000
170 0 -1.000000
170 0 -1.000000
170 0 -1.000000
170 0 -1.000000
171 6 1.000000
171 0 -1.000000
171 0 -1.000000
171 0 -1.000000
171 0 -1.000000
171 0 -1.000000
171 0 -1.000000
171 0 -1.000000
172 6 1.000000
172 0 -1.000000
172 0 -1.000000
172 0 -1.000000
172 0 -1.000000
172 0 -1.000000
172 0 -1.000000
172 0 -1.000000
173 6 1.000000
173 0 -1.000000
173 0 -1.000000
173 0 -1.000000
173 0 -1.000000
173 0 -1.000000
173 0 -1.000000
173 0 -1.000000
174 6 1.000000
174 0 -1.000000
174 0 -1.000000
174 0 -1.000000
174 0 -1.000000
174 0 -1.000000
174 0 -1.000000
174 0 -1.000000
175 6 1.000000
175 0 -1.000000
175 0 -1.000000
175 0 -1.000000
175 0 -1.000000
175 0 -1.000000
175 0 -1.000000
175 0 -1.000000
176 6 1.000000
176 0 -1.000000
176 0 -1.000000
176 0 -1.000000
176 0 -1.000000
176 0 -1.000000
176 0 -1.000000
176 0 -1.000000
177 6 1.000000
177 0 -1.000000
177 0 -1.000000
177 0 -1.000000
177 0 -1.000000
177 0 -1.000000
177 0 -1.000000
177 0 -1.000000
178 6 1.000000
178 0 -1.000000
178 0 -1.000000
178 0 -1.000000
178 0 -1.000000
178 0 -1.000000
178 0 -1.000000
178 0 -1.000000
179 6 1.000000
179 0 -1.000000
179 0 -1.000000
179 0 -1.000000
179 0 -1.000000
179 0 -1.000000
179 0 -1.000000
179 0 -1.000000
180 6 1.000000
180 0 -1.000000
180 0 -1.000000
180 0 -1.000000
180 0 -1.000000
180 0 -1.000000
180 0 -1.000000
180 0 -1.000000
181 6 1.000000
181 0 -1.000000
181 0 -1.000000
181 0 -1.000000
181 0 -1.000000
181 0 -1.000000
181 0 -1.000000
181 0 -1.000000
182 6 1.000000
182 0 -1.000000
182 0 -1.000000
182 0 -1.000000
182 0 -1.000000
182 0 -1.000000
182 0 -1.000000
182 0 -1.000000
183 6 1.000000
183 0 -1.000000
183 0 -1.000000
183 0 -1.000000
183 0 -1.000000
183 0 -1.000000
183 0 -1.000000
183 0 -1.000000
184 6 1.000000
184 0 -1.000000
184 0 -1.000000
184 0 -1.000000
184 0 -1.000000
184 0 -1.000000
184 0 -1.000000
184 0 -1.000000
185 6 1.000000
185 0 -1.000000
185 0 -1.000000
185 0 -1.000000
185 0 -1.000000
185 0 -1.000000
185 0 -1.000000
185 0 -1.000000
186 6 1.000000
186 0 -1.000000
186 0 -1.000000
186 0 -1.000000
186 0 -1.000000
186 0 -1.000000
186 0 -1.000000
186 0 -1.000000
187 6 1.000000
187 0 -1.000000
187 0 -1.000000
187 0 -1.000000
187 0 -1.000000
187 0 -1.000000
187 0 -1.000000
187 0 -1.000000
188 6 1.000000
188 0 -1.000000
188 0 -1.000000
188 0 -1.000000
188 0 -1.000000
188 0 -1.000000
188 0 -1.000000
188 0 -1.000000
189 6 1.000000
189 0 -1.000000
189 0 -1.000000
189 0 -1.000000
189 0 -1.000000
189 0 -1.000000
189 0 -1.000000
189 0 -1.000000
190 6 1.000000
190 0 -1.000000
190 0 -1.000000
190 0 -1.000000
190 0 -1.000000
190 0 -1.000000
190 0 -1.000000
190 0 -1.000000
191 6 1.000000
191 0 -1.000000
191 0 -1.000000
191 0 -1.000000
191 0 -1.000000
191 0 -1.000000
191 0 -1.000000
191 0 -1.000000
192 6 1.000000
192 0 -1.000000
192 0 -1.000000
192 0 -1.000000
192 0 -1.000000
192 0 -1.000000
192 0 -1.000000
192 0 -1.000000
193 6 1.000000
193 0 -1.000000
193 0 -1.000000
193 0 -1.000000
193 0 -1.000000
193 0 -1.000000
193 0 -1.000000
193 0 -1.000000
194 6 1.000000
194 0 -1.000000
194 0 -1.000000
194 0 -1.000000
194 0 -1.000000
194 0 -1.000000
194 0 -1.000000
194 0 -1.000000
195 6 1.000000
195 0 -1.000000
195 0 -1.000000
195 0 -1.000000
195 0 -1.000000
195 0 -1.000000
195 0 -1.000000
195 0 -1.000000
196 6 1.000000
196 0 -1.000000
196 0 -1.000000
196 0 -1.000000
196 0 -1.000000
196 0 -1.000000
196 0 -1.000000
196 0 -1.000000
197 6 1.000000
197 0 -1.000000
197 0 -1.000000
197 0 -1.000000
197 0 -1.000000
197 0 -1.000000
197 0 -1.000000
197 0 -1.000000
198 6 1.000000
198 0 -1.000000
198 0 -1.000000
198 0 -1.000000
198 0 -1.000000
198 0 -1.000000
198 0 -1.000000
198 0 -1.000000
199 6 1.000000
199 0 -1.000000
199 0 -1.000000
199 0 -1.000000
199 0 -1.000000
199 0 -1.000000
199 0 -1.000000
199 0 -1.000000
200 6 1.000000
200 0 -1.000000
200 0 -1.000000
200 0 -1.000000
200 0 -1.000000
200 0 -1.000000
200 0 -1.000000
200 0 -1.000000
201 6 1.000000
201 0 -1.000000
201 0 -1.000000
201 0 -1.000000
201 0 -1.000000
201 0 -1.000000
201 0 -1.000000
201 0 -1.000000
202 6 1.000000
202 0 -1.000000
202 0 -1.000000
202 0 -1.000000
202 0 -1.000000
202 0 -1.000000
202 0 -1.000000
202 0 -1.000000
203 6 1.000000
203 0 -1.000000
203 0 -1.000000
203 0 -1.000000
203 0 -1.000000
203 0 -1.000000
203 0 -1.000000
203 0 -1.000000
204 6 1.000000
204 0 -1.000000
204 0 -1.000000
204 0 -1.000000
204 0 -1.000000
204 0 -1.000000
204 0 -1.000000
204 0 -1.000000
205 6 1.000000
205 0 -1.000000
205 0 -1.000000
205 0 -1.000000
205 0 -1.000000
205 0 -1.000000
205 0 -1.000000
205 0 -1.000000
206 6 1.000000
206 0 -1.000000
206 0 -1.000000
206 0 -1.000000
206 0 -1.000000
206 0 -1.000000
206 0 -1.000000
206 0 -1.000000
207 6 1.000000
207 0 -1.000000
207 0 -1.000000
207 0 -1.000000
207 0 -1.000000
207 0 -1.000000
207 0 -1.000000
207 0 -1.000000
208 6 1.000000
208 0 -1.000000
208 0 -1.000000
208 0 -1.000000
208 0 -1.000000
208 0 -1.000000
208 0 -1.000000
208 0 -1.000000
209 6 1.000000
209 0 -1.000000
209 0 -1.000000
209 0 -1.000000
209 0 -1.000000
209 0 -1.000000
209 0 -1.000000
209 0 -1.000000
210 3 0.500000
210 4 0.500000
210 0 -1.000000
210 0 -1.000000
210 0 -1.000000
210 0 -1.000000
210 0 -1.000000
210 0 -1.000000
211 3 0.500000
211 4 0.500000
211 0 -1.000000
211 0 -1.000000
211 0 -1.000000
211 0 -1.000000
211 0 -1.000000
211 0 -1.000000
212 3 1.000000
212 0 -1.000000
212 0 -1.000000
212 0 -1.000000
212 0 -1.000000
212 0 -1.000000
212 0 -1.000000
212 0 -1.000000
213 3 1.000000
213 0 -1.000000
213 0 -1.000000
213 0 -1.000000
213 0 -1.000000
213 0 -1.000000
213 0 -1.000000
213 0 -1.000000
214 3 1.000000
214 0 -1.000000
214 0 -1.000000
214 0 -1.000000
214 0 -1.000000
214 0 -1.000000
214 0 -1.000000
214 0 -1.000000
215 3 0.500000
215 4 0.500000
215 0 -1.000000
215 0 -1.000000
215 0 -1.000000
215 0 -1.000000
215 0 -1.000000
215 0 -1.000000
216 3 1.000000
216 0 -1.000000
216 0 -1.000000
216 0 -1.000000
216 0 -1.000000
216 0 -1.000000
216 0 -1.000000
216 0 -1.000000
217 3 1.000000
217 0 -1.000000
217 0 -1.000000
217 0 -1.000000
217 0 -1.000000
217 0 -1.000000
217 0 -1.000000
217 0 -1.000000
218 3 1.000000
218 0 -1.000000
218 0 -1.000000
218 0 -1.000000
218 0 -1.000000
218 0 -1.000000
218 0 -1.000000
218 0 -1.000000
219 3 1.000000
219 0 -1.000000
219 0 -1.000000
219 0 -1.000000
219 0 -1.000000
219 0 -1.000000
219 0 -1.000000
219 0 -1.000000
220 3 1.000000
220 0 -1.000000
220 0 -1.000000
220 0 -1.000000
220 0 -1.000000
220 0 -1.000000
220 0 -1.000000
220 0 -1.000000
221 3 1.000000
221 0 -1.000000
221 0 -1.000000
221 0 -1.000000
221 0 -1.000000
221 0 -1.000000
221 0 -1.000000
221 0 -1.000000
222 6 0.750000
222 11 0.250000
222 0 -1.000000
222 0 -1.000000
222 0 -1.000000
222 0 -1.000000
222 0 -1.000000
222 0 -1.000000
223 11 0.500000
223 12 0.500000
223 0 -1.000000
223 0 -1.000000
223 0 -1.000000
223 0 -1.000000
223 0 -1.000000
223 0 -1.000000
224 11 0.500000
224 12 0.500000
224 0 -1.000000
224 0 -1.000000
224 0 -1.000000
224 0 -1.000000
224 0 -1.000000
224 0 -1.000000
225 11 0.500000
225 12 0.500000
225 0 -1.000000
225 0 -1.000000
225 0 -1.000000
225 0 -1.000000
225 0 -1.000000
225 0 -1.000000
226 5 0.375000
226 4 0.375000
226 11 0.250000
226 0 -1.000000
226 0 -1.000000
226 0 -1.000000
226 0 -1.000000
226 0 -1.000000
227 6 0.750000
227 11 0.250000
227 0 -1.000000
227 0 -1.000000
227 0 -1.000000
227 0 -1.000000
227 0 -1.000000
227 0 -1.000000
228 5 0.375000
228 4 0.375000
228 11 0.250000
228 0 -1.000000
228 0 -1.000000
228 0 -1.000000
228 0 -1.000000
228 0 -1.000000
229 11 0.500000
229 12 0.500000
229 0 -1.000000
229 0 -1.000000
229 0 -1.000000
229 0 -1.000000
229 0 -1.000000
229 0 -1.000000
230 11 0.500000
230 12 0.500000
230 0 -1.000000
230 0 -1.000000
230 0 -1.000000
230 0 -1.000000
230 0 -1.000000
230 0 -1.000000
231 11 0.500000
231 12 0.500000
231 0 -1.000000
231 0 -1.000000
231 0 -1.000000
231 0 -1.000000
231 0 -1.000000
231 0 -1.000000
232 5 0.375000
232 4 0.375000
232 11 0.250000
232 0 -1.000000
232 0 -1.000000
232 0 -1.000000
232 0 -1.000000
232 0 -1.000000
233 5 0.375000
233 4 0.375000
233 11 0.250000
233 0 -1.000000
233 0 -1.000000
233 0 -1.000000
233 0 -1.000000
233 0 -1.000000
234 14 0.500000
234 15 0.500000
234 0 -1.000000
234 0 -1.000000
234 0 -1.000000
234 0 -1.000000
234 0 -1.000000
234 0 -1.000000
235 14 0.500000
235 15 0.500000
235 0 -1.000000
235 0 -1.000000
235 0 -1.000000
235 0 -1.000000
235 0 -1.000000
235 0 -1.000000
236 15 1.000000
236 0 -1.000000
236 0 -1.000000
236 0 -1.000000
236 0 -1.000000
236 0 -1.000000
236 0 -1.000000
236 0 -1.000000
237 15 1.000000
237 0 -1.000000
237 0 -1.000000
237 0 -1.000000
237 0 -1.000000
237 0 -1.000000
237 0 -1.000000
237 0 -1.000000
238 15 1.000000
238 0 -1.000000
238 0 -1.000000
238 0 -1.000000
238 0 -1.000000
238 0 -1.000000
238 0 -1.000000
238 0 -1.000000
239 14 0.500000
239 15 0.500000
239 0 -1.000000
239 0 -1.000000
239 0 -1.000000
239 0 -1.000000
239 0 -1.000000
239 0 -1.000000
240 14 0.500000
240 15 0.500000
240 0 -1.000000
240 0 -1.000000
240 0 -1.000000
240 0 -1.000000
240 0 -1.000000
240 0 -1.000000
241 14 0.500000
241 15 0.500000
241 0 -1.000000
241 0 -1.000000
241 0 -1.000000
241 0 -1.000000
241 0 -1.000000
241 0 -1.000000
242 15 1.000000
242 0 -1.000000
242 0 -1.000000
242 0 -1.000000
242 0 -1.000000
242 0 -1.000000
242 0 -1.000000
242 0 -1.000000
243 15 1.000000
243 0 -1.000000
243 0 -1.000000
243 0 -1.000000
243 0 -1.000000
243 0 -1.000000
243 0 -1.000000
243 0 -1.000000
244 15 1.000000
244 0 -1.000000
244 0 -1.000000
244 0 -1.000000
244 0 -1.000000
244 0 -1.000000
244 0 -1.000000
244 0 -1.000000
245 14 0.500000
245 15 0.500000
245 0 -1.000000
245 0 -1.000000
245 0 -1.000000
245 0 -1.000000
245 0 -1.000000
245 0 -1.000000
246 15 1.000000
246 0 -1.000000
246 0 -1.000000
246 0 -1.000000
246 0 -1.000000
246 0 -1.000000
246 0 -1.000000
246 0 -1.000000
247 15 1.000000
247 0 -1.000000
247 0 -1.000000
247 0 -1.000000
247 0 -1.000000
247 0 -1.000000
247 0 -1.000000
247 0 -1.000000
248 15 1.000000
248 0 -1.000000
248 0 -1.000000
248 0 -1.000000
248 0 -1.000000
248 0 -1.000000
248 0 -1.000000
248 0 -1.000000
249 15 1.000000
249 0 -1.000000
249 0 -1.000000
249 0 -1.000000
249 0 -1.000000
249 0 -1.000000
249 0 -1.000000
249 0 -1.000000
250 15 1.000000
250 0 -1.000000
250 0 -1.000000
250 0 -1.000000
250 0 -1.000000
250 0 -1.000000
250 0 -1.000000
250 0 -1.000000
251 15 1.000000
251 0 -1.000000
251 0 -1.000000
251 0 -1.000000
251 0 -1.000000
251 0 -1.000000
251 0 -1.000000
251 0 -1.000000
252 14 0.500000
252 13 0.500000
252 0 -1.000000
252 0 -1.000000
252 0 -1.000000
252 0 -1.000000
252 0 -1.000000
252 0 -1.000000
253 14 0.500000
253 13 0.500000
253 0 -1.000000
253 0 -1.000000
253 0 -1.000000
253 0 -1.000000
253 0 -1.000000
253 0 -1.000000
254 12 0.500000
254 13 0.500000
254 0 -1.000000
254 0 -1.000000
254 0 -1.000000
254 0 -1.000000
254 0 -1.000000
254 0 -1.000000
255 12 0.500000
255 13 0.500000
255 0 -1.000000
255 0 -1.000000
255 0 -1.000000
255 0 -1.000000
255 0 -1.000000
255 0 -1.000000
256 12 0.500000
256 13 0.500000
256 0 -1.000000
256 0 -1.000000
256 0 -1.000000
256 0 -1.000000
256 0 -1.000000
256 0 -1.000000
257 14 0.500000
257 13 0.500000
257 0 -1.000000
257 0 -1.000000
257 0 -1.000000
257 0 -1.000000
257 0 -1.000000
257 0 -1.000000
258 12 0.500000
258 13 0.500000
258 0 -1.000000
258 0 -1.000000
258 0 -1.000000
258 0 -1.000000
258 0 -1.000000
258 0 -1.000000
259 14 0.500000
259 13 0.500000
259 0 -1.000000
259 0 -1.000000
259 0 -1.000000
259 0 -1.000000
259 0 -1.000000
259 0 -1.000000
260 14 0.500000
260 13 0.500000
260 0 -1.000000
260 0 -1.000000
260 0 -1.000000
260 0 -1.000000
260 0 -1.000000
260 0 -1.000000
261 14 0.500000
261 13 0.500000
261 0 -1.000000
261 0 -1.000000
261 0 -1.000000
261 0 -1.000000
261 0 -1.000000
261 0 -1.000000
262 12 0.500000
262 13 0.500000
262 0 -1.000000
262 0 -1.000000
262 0 -1.000000
262 0 -1.000000
262 0 -1.000000
262 0 -1.000000
263 12 0.500000
263 13 0.500000
263 0 -1.000000
263 0 -1.000000
263 0 -1.000000
263 0 -1.000000
263 0 -1.000000
263 0 -1.000000
264 14 0.500000
264 15 0.500000
264 0 -1.000000
264 0 -1.000000
264 0 -1.000000
264 0 -1.000000
264 0 -1.000000
264 0 -1.000000
265 14 0.500000
265 15 0.500000
265 0 -1.000000
265 0 -1.000000
265 0 -1.000000
265 0 -1.000000
265 0 -1.000000
265 0 -1.000000
266 14 0.500000
266 13 0.500000
266 0 -1.000000
266 0 -1.000000
266 0 -1.000000
266 0 -1.000000
266 0 -1.000000
266 0 -1.000000
267 14 0.500000
267 13 0.500000
267 0 -1.000000
267 0 -1.000000
267 0 -1.000000
267 0 -1.000000
267 0 -1.000000
267 0 -1.000000
268 14 0.500000
268 13 0.500000
268 0 -1.000000
268 0 -1.000000
268 0 -1.000000
268 0 -1.000000
268 0 -1.000000
268 0 -1.000000
269 14 0.500000
269 15 0.500000
269 0 -1.000000
269 0 -1.000000
269 0 -1.000000
269 0 -1.000000
269 0 -1.000000
269 0 -1.000000
270 14 0.500000
270 13 0.500000
270 0 -1.000000
270 0 -1.000000
270 0 -1.000000
270 0 -1.000000
270 0 -1.000000
270 0 -1.000000
271 14 0.500000
271 15 0.500000
271 0 -1.000000
271 0 -1.000000
271 0 -1.000000
271 0 -1.000000
271 0 -1.000000
271 0 -1.000000
272 14 0.500000
272 15 0.500000
272 0 -1.000000
272 0 -1.000000
272 0 -1.000000
272 0 -1.000000
272 0 -1.000000
272 0 -1.000000
273 14 0.500000
273 15 0.500000
273 0 -1.000000
273 0 -1.000000
273 0 -1.000000
273 0 -1.000000
273 0 -1.000000
273 0 -1.000000
274 14 0.500000
274 13 0.500000
274 0 -1.000000
274 0 -1.000000
274 0 -1.000000
274 0 -1.000000
274 0 -1.000000
274 0 -1.000000
275 14 0.500000
275 13 0.500000
275 0 -1.000000
275 0 -1.000000
275 0 -1.000000
275 0 -1.000000
275 0 -1.000000
275 0 -1.000000
276 11 0.500000
276 12 0.500000
276 0 -1.000000
276 0 -1.000000
276 0 -1.000000
276 0 -1.000000
276 0 -1.000000
276 0 -1.000000
277 12 0.500000
277 13 0.500000
277 0 -1.000000
277 0 -1.000000
277 0 -1.000000
277 0 -1.000000
277 0 -1.000000
277 0 -1.000000
278 12 0.500000
278 13 0.500000
278 0 -1.000000
278 0 -1.000000
278 0 -1.000000
278 0 -1.000000
278 0 -1.000000
278 0 -1.000000
279 12 0.500000
279 13 0.500000
279 0 -1.000000
279 0 -1.000000
279 0 -1.000000
279 0 -1.000000
279 0 -1.000000
279 0 -1.000000
280 11 0.500000
280 12 0.500000
280 0 -1.000000
280 0 -1.000000
280 0 -1.000000
280 0 -1.000000
280 0 -1.000000
280 0 -1.000000
281 11 0.500000
281 12 0.500000
281 0 -1.000000
281 0 -1.000000
281 0 -1.000000
281 0 -1.000000
281 0 -1.000000
281 0 -1.000000
282 11 0.500000
282 12 0.500000
282 0 -1.000000
282 0 -1.000000
282 0 -1.000000
282 0 -1.000000
282 0 -1.000000
282 0 -1.000000
283 12 0.500000
283 13 0.500000
283 0 -1.000000
283 0 -1.000000
283 0 -1.000000
283 0 -1.000000
283 0 -1.000000
283 0 -1.000000
284 12 0.500000
284 13 0.500000
284 0 -1.000000
284 0 -1.000000
284 0 -1.000000
284 0 -1.000000
284 0 -1.000000
284 0 -1.000000
285 12 0.500000
285 13 0.500000
285 0 -1.000000
285 0 -1.000000
285 0 -1.000000
285 0 -1.000000
285 0 -1.000000
285 0 -1.000000
286 11 0.500000
286 12 0.500000
286 0 -1.000000
286 0 -1.000000
286 0 -1.000000
286 0 -1.000000
286 0 -1.000000
286 0 -1.000000
287 11 0.500000
287 12 0.500000
287 0 -1.000000
287 0 -1.000000
287 0 -1.000000
287 0 -1.000000
287 0 -1.000000
287 0 -1.000000
288 3 1.000000
288 0 -1.000000
288 0 -1.000000
288 0 -1.000000
288 0 -1.000000
288 0 -1.000000
288 0 -1.000000
288 0 -1.000000
289 3 1.000000
289 0 -1.000000
289 0 -1.000000
289 0 -1.000000
289 0 -1.000000
289 0 -1.000000
289 0 -1.000000
289 0 -1.000000
290 3 0.500000
290 4 0.500000
290 0 -1.000000
290 0 -1.000000
290 0 -1.000000
290 0 -1.000000
290 0 -1.000000
290 0 -1.000000
291 3 0.500000
291 4 0.500000
291 0 -1.000000
291 0 -1.000000
291 0 -1.000000
291 0 -1.000000
291 0 -1.000000
291 0 -1.000000
292 3 0.500000
292 4 0.500000
292 0 -1.000000
292 0 -1.000000
292 0 -1.000000
292 0 -1.000000
292 0 -1.000000
292 0 -1.000000
293 3 1.000000
293 0 -1.000000
293 0 -1.000000
293 0 -1.000000
293 0 -1.000000
293 0 -1.000000
293 0 -1.000000
293 0 -1.000000
294 3 0.500000
294 4 0.500000
294 0 -1.000000
294 0 -1.000000
294 0 -1.000000
294 0 -1.000000
294 0 -1.000000
294 0 -1.000000
295 3 1.000000
295 0 -1.000000
295 0 -1.000000
295 0 -1.000000
295 0 -1.000000
295 0 -1.000000
295 0 -1.000000
295 0 -1.000000
296 3 0.500000
296 4 0.500000
296 0 -1.000000
296 0 -1.000000
296 0 -1.000000
296 0 -1.000000
296 0 -1.000000
296 0 -1.000000
297 5 0.375000
297 4 0.375000
297 11 0.250000
297 0 -1.000000
297 0 -1.000000
297 0 -1.000000
297 0 -1.000000
297 0 -1.000000
298 6 0.750000
298 11 0.250000
298 0 -1.000000
298 0 -1.000000
298 0 -1.000000
298 0 -1.000000
298 0 -1.000000
298 0 -1.000000
299 6 0.500000
299 5 0.500000
299 0 -1.000000
299 0 -1.000000
299 0 -1.000000
299 0 -1.000000
299 0 -1.000000
299 0 -1.000000
300 5 0.375000
300 4 0.375000
300 11 0.250000
300 0 -1.000000
300 0 -1.000000
300 0 -1.000000
300 0 -1.000000
300 0 -1.000000
301 6 0.500000
301 5 0.500000
301 0 -1.000000
301 0 -1.000000
301 0 -1.000000
301 0 -1.000000
301 0 -1.000000
301 0 -1.000000
302 6 0.500000
302 5 0.500000
302 0 -1.000000
302 0 -1.000000
302 0 -1.000000
302 0 -1.000000
302 0 -1.000000
302 0 -1.000000
303 5 0.500000
303 4 0.500000
303 0 -1.000000
303 0 -1.000000
303 0 -1.000000
303 0 -1.000000
303 0 -1.000000
303 0 -1.000000
304 5 0.375000
304 4 0.375000
304 11 0.250000
304 0 -1.000000
304 0 -1.000000
304 0 -1.000000
304 0 -1.000000
304 0 -1.000000
305 6 0.500000
305 5 0.500000
305 0 -1.000000
305 0 -1.000000
305 0 -1.000000
305 0 -1.000000
305 0 -1.000000
305 0 -1.000000
306 6 0.500000
306 5 0.500000
306 0 -1.000000
306 0 -1.000000
306 0 -1.000000
306 0 -1.000000
306 0 -1.000000
306 0 -1.000000
307 5 0.500000
307 4 0.500000
307 0 -1.000000
307 0 -1.000000
307 0 -1.000000
307 0 -1.000000
307 0 -1.000000
307 0 -1.000000
308 5 0.500000
308 4 0.500000
308 0 -1.000000
308 0 -1.000000
308 0 -1.000000
308 0 -1.000000
308 0 -1.000000
308 0 -1.000000
309 5 0.500000
309 4 0.500000
309 0 -1.000000
309 0 -1.000000
309 0 -1.000000
309 0 -1.000000
309 0 -1.000000
309 0 -1.000000
310 6 0.500000
310 5 0.500000
310 0 -1.000000
310 0 -1.000000
310 0 -1.000000
310 0 -1.000000
310 0 -1.000000
310 0 -1.000000
311 6 0.500000
311 5 0.500000
311 0 -1.000000
311 0 -1.000000
311 0 -1.000000
311 0 -1.000000
311 0 -1.000000
311 0 -1.000000
312 6 0.500000
312 5 0.500000
312 0 -1.000000
312 0 -1.000000
312 0 -1.000000
312 0 -1.000000
312 0 -1.000000
312 0 -1.000000
313 5 0.500000
313 4 0.500000
313 0 -1.000000
313 0 -1.000000
313 0 -1.000000
313 0 -1.000000
313 0 -1.000000
313 0 -1.000000
314 5 0.500000
314 4 0.500000
314 0 -1.000000
314 0 -1.000000
314 0 -1.000000
314 0 -1.000000
314 0 -1.000000
314 0 -1.000000
315 5 0.500000
315 4 0.500000
315 0 -1.000000
315 0 -1.000000
315 0 -1.000000
315 0 -1.000000
315 0 -1.000000
315 0 -1.000000
316 6 0.500000
316 5 0.500000
316 0 -1.000000
316 0 -1.000000
316 0 -1.000000
316 0 -1.000000
316 0 -1.000000
316 0 -1.000000
317 6 0.500000
317 5 0.500000
317 0 -1.000000
317 0 -1.000000
317 0 -1.000000
317 0 -1.000000
317 0 -1.000000
317 0 -1.000000
318 6 0.500000
318 5 0.500000
318 0 -1.000000
318 0 -1.000000
318 0 -1.000000
318 0 -1.000000
318 0 -1.000000
318 0 -1.000000
319 5 0.500000
319 4 0.500000
319 0 -1.000000
319 0 -1.000000
319 0 -1.000000
319 0 -1.000000
319 0 -1.000000
319 0 -1.000000
320 5 0.500000
320 4 0.500000
320 0 -1.000000
320 0 -1.000000
320 0 -1.000000
320 0 -1.000000
320 0 -1.000000
320 0 -1.000000
321 5 0.500000
321 4 0.500000
321 0 -1.000000
321 0 -1.000000
321 0 -1.000000
321 0 -1.000000
321 0 -1.000000
321 0 -1.000000
322 6 0.500000
322 5 0.500000
322 0 -1.000000
322 0 -1.000000
322 0 -1.000000
322 0 -1.000000
322 0 -1.000000
322 0 -1.000000
323 6 0.500000
323 5 0.500000
323 0 -1.000000
323 0 -1.000000
323 0 -1.000000
323 0 -1.000000
323 0 -1.000000
323 0 -1.000000
324 6 0.500000
324 5 0.500000
324 0 -1.000000
324 0 -1.000000
324 0 -1.000000
324 0 -1.000000
324 0 -1.000000
324 0 -1.000000
325 5 0.500000
325 4 0.500000
325 0 -1.000000
325 0 -1.000000
325 0 -1.000000
325 0 -1.000000
325 0 -1.000000
325 0 -1.000000
326 5 0.500000
326 4 0.500000
326 0 -1.000000
326 0 -1.000000
326 0 -1.000000
326 0 -1.000000
326 0 -1.000000
326 0 -1.000000
327 5 0.500000
327 4 0.500000
327 0 -1.000000
327 0 -1.000000
327 0 -1.000000
327 0 -1.000000
327 0 -1.000000
327 0 -1.000000
328 6 0.500000
328 5 0.500000
328 0 -1.000000
328 0 -1.000000
328 0 -1.000000
328 0 -1.000000
328 0 -1.000000
328 0 -1.000000
329 6 0.500000
329 5 0.500000
329 0 -1.000000
329 0 -1.000000
329 0 -1.000000
329 0 -1.000000
329 0 -1.000000
329 0 -1.000000
330 6 0.500000
330 5 0.500000
330 0 -1.000000
330 0 -1.000000
330 0 -1.000000
330 0 -1.000000
330 0 -1.000000
330 0 -1.000000
331 5 0.500000
331 4 0.500000
331 0 -1.000000
331 0 -1.000000
331 0 -1.000000
331 0 -1.000000
331 0 -1.000000
331 0 -1.000000
332 5 0.500000
332 4 0.500000
332 0 -1.000000
332 0 -1.000000
332 0 -1.000000
332 0 -1.000000
332 0 -1.000000
332 0 -1.000000
333 5 0.500000
333 4 0.500000
333 0 -1.000000
333 0 -1.000000
333 0 -1.000000
333 0 -1.000000
333 0 -1.000000
333 0 -1.000000
334 6 0.500000
334 5 0.500000
334 0 -1.000000
334 0 -1.000000
334 0 -1.000000
334 0 -1.000000
334 0 -1.000000
334 0 -1.000000
335 6 0.500000
335 5 0.500000
335 0 -1.000000
335 0 -1.000000
335 0 -1.000000
335 0 -1.000000
335 0 -1.000000
335 0 -1.000000
336 3 0.500000
336 4 0.500000
336 0 -1.000000
336 0 -1.000000
336 0 -1.000000
336 0 -1.000000
336 0 -1.000000
336 0 -1.000000
337 5 0.375000
337 4 0.375000
337 11 0.250000
337 0 -1.000000
337 0 -1.000000
337 0 -1.000000
337 0 -1.000000
337 0 -1.000000
338 5 0.375000
338 4 0.375000
338 11 0.250000
338 0 -1.000000
338 0 -1.000000
338 0 -1.000000
338 0 -1.000000
338 0 -1.000000
339 3 0.500000
339 4 0.500000
339 0 -1.000000
339 0 -1.000000
339 0 -1.000000
339 0 -1.000000
339 0 -1.000000
339 0 -1.000000
340 5 0.375000
340 4 0.375000
340 11 0.250000
340 0 -1.000000
340 0 -1.000000
340 0 -1.000000
340 0 -1.000000
340 0 -1.000000
341 5 0.500000
341 4 0.500000
341 0 -1.000000
341 0 -1.000000
341 0 -1.000000
341 0 -1.000000
341 0 -1.000000
341 0 -1.000000
342 3 0.500000
342 4 0.500000
342 0 -1.000000
342 0 -1.000000
342 0 -1.000000
342 0 -1.000000
342 0 -1.000000
342 0 -1.000000
343 3 0.500000
343 4 0.500000
343 0 -1.000000
343 0 -1.000000
343 0 -1.000000
343 0 -1.000000
343 0 -1.000000
343 0 -1.000000
344 5 0.500000
344 4 0.500000
344 0 -1.000000
344 0 -1.000000
344 0 -1.000000
344 0 -1.000000
344 0 -1.000000
344 0 -1.000000
345 5 0.500000
345 4 0.500000
345 0 -1.000000
345 0 -1.000000
345 0 -1.000000
345 0 -1.000000
345 0 -1.000000
345 0 -1.000000
346 3 0.500000
346 4 0.500000
346 0 -1.000000
346 0 -1.000000
346 0 -1.000000
346 0 -1.000000
346 0 -1.000000
346 0 -1.000000
347 3 0.500000
347 4 0.500000
347 0 -1.000000
347 0 -1.000000
347 0 -1.000000
347 0 -1.000000
347 0 -1.000000
347 0 -1.000000
348 3 0.500000
348 4 0.500000
348 0 -1.000000
348 0 -1.000000
348 0 -1.000000
348 0 -1.000000
348 0 -1.000000
348 0 -1.000000
349 5 0.500000
349 4 0.500000
349 0 -1.000000
349 0 -1.000000
349 0 -1.000000
349 0 -1.000000
349 0 -1.000000
349 0 -1.000000
350 5 0.500000
350 4 0.500000
350 0 -1.000000
350 0 -1.000000
350 0 -1.000000
350 0 -1.000000
350 0 -1.000000
350 0 -1.000000
351 5 0.500000
351 4 0.500000
351 0 -1.000000
351 0 -1.000000
351 0 -1.000000
351 0 -1.000000
351 0 -1.000000
351 0 -1.000000
352 3 0.500000
352 4 0.500000
352 0 -1.000000
352 0 -1.000000
352 0 -1.000000
352 0 -1.000000
352 0 -1.000000
352 0 -1.000000
353 3 0.500000
353 4 0.500000
353 0 -1.000000
353 0 -1.000000
353 0 -1.000000
353 0 -1.000000
353 0 -1.000000
353 0 -1.000000
354 3 0.500000
354 4 0.500000
354 0 -1.000000
354 0 -1.000000
354 0 -1.000000
354 0 -1.000000
354 0 -1.000000
354 0 -1.000000
355 5 0.500000
355 4 0.500000
355 0 -1.000000
355 0 -1.000000
355 0 -1.000000
355 0 -1.000000
355 0 -1.000000
355 0 -1.000000
356 5 0.500000
356 4 0.500000
356 0 -1.000000
356 0 -1.000000
356 0 -1.000000
356 0 -1.000000
356 0 -1.000000
356 0 -1.000000
357 5 0.500000
357 4 0.500000
357 0 -1.000000
357 0 -1.000000
357 0 -1.000000
357 0 -1.000000
357 0 -1.000000
357 0 -1.000000
358 3 0.500000
358 4 0.500000
358 0 -1.000000
358 0 -1.000000
358 0 -1.000000
358 0 -1.000000
358 0 -1.000000
358 0 -1.000000
359 3 0.500000
359 4 0.500000
359 0 -1.000000
359 0 -1.000000
359 0 -1.000000
359 0 -1.000000
359 0 -1.000000
359 0 -1.000000
360 3 0.500000
360 4 0.500000
360 0 -1.000000
360 0 -1.000000
360 0 -1.000000
360 0 -1.000000
360 0 -1.000000
360 0 -1.000000
361 5 0.500000
361 4 0.500000
361 0 -1.000000
361 0 -1.000000
361 0 -1.000000
361 0 -1.000000
361 0 -1.000000
361 0 -1.000000
362 5 0.500000
362 4 0.500000
362 0 -1.000000
362 0 -1.000000
362 0 -1.000000
362 0 -1.000000
362 0 -1.000000
362 0 -1.000000
363 5 0.500000
363 4 0.500000
363 0 -1.000000
363 0 -1.000000
363 0 -1.000000
363 0 -1.000000
363 0 -1.000000
363 0 -1.000000
364 3 0.500000
364 4 0.500000
364 0 -1.000000
364 0 -1.000000
364 0 -1.000000
364 0 -1.000000
364 0 -1.000000
364 0 -1.000000
365 3 0.500000
365 4 0.500000
365 0 -1.000000
365 0 -1.000000
365 0 -1.000000
365 0 -1.000000
365 0 -1.000000
365 0 -1.000000
366 3 0.500000
366 4 0.500000
366 0 -1.000000
366 0 -1.000000
366 0 -1.000000
366 0 -1.000000
366 0 -1.000000
366 0 -1.000000
367 5 0.500000
367 4 0.500000
367 0 -1.000000
367 0 -1.000000
367 0 -1.000000
367 0 -1.000000
367 0 -1.000000
367 0 -1.000000
368 5 0.500000
368 4 0.500000
368 0 -1.000000
368 0 -1.000000
368 0 -1.000000
368 0 -1.000000
368 0 -1.000000
368 0 -1.000000
369 5 0.500000
369 4 0.500000
369 0 -1.000000
369 0 -1.000000
369 0 -1.000000
369 0 -1.000000
369 0 -1.000000
369 0 -1.000000
370 3 0.500000
370 4 0.500000
370 0 -1.000000
370 0 -1.000000
370 0 -1.000000
370 0 -1.000000
370 0 -1.000000
370 0 -1.000000
371 3 0.500000
371 4 0.500000
371 0 -1.000000
371 0 -1.000000
371 0 -1.000000
371 0 -1.000000
371 0 -1.000000
371 0 -1.000000
372 3 0.500000
372 4 0.500000
372 0 -1.000000
372 0 -1.000000
372 0 -1.000000
372 0 -1.000000
372 0 -1.000000
372 0 -1.000000
373 5 0.500000
373 4 0.500000
373 0 -1.000000
373 0 -1.000000
373 0 -1.000000
373 0 -1.000000
373 0 -1.000000
373 0 -1.000000
374 5 0.500000
374 4 0.500000
374 0 -1.000000
374 0 -1.000000
374 0 -1.000000
374 0 -1.000000
374 0 -1.000000
374 0 -1.000000
375 6 1.000000
375 0 -1.000000
375 0 -1.000000
375 0 -1.000000
375 0 -1.000000
375 0 -1.000000
375 0 -1.000000
375 0 -1.000000
376 6 1.000000
376 0 -1.000000
376 0 -1.000000
376 0 -1.000000
376 0 -1.000000
376 0 -1.000000
376 0 -1.000000
376 0 -1.000000
377 6 1.000000
377 0 -1.000000
377 0 -1.000000
377 0 -1.000000
377 0 -1.000000
377 0 -1.000000
377 0 -1.000000
377 0 -1.000000
378 6 1.000000
378 0 -1.000000
378 0 -1.000000
378 0 -1.000000
378 0 -1.000000
378 0 -1.000000
378 0 -1.000000
378 0 -1.000000
379 6 1.000000
379 0 -1.000000
379 0 -1.000000
379 0 -1.000000
379 0 -1.000000
379 0 -1.000000
379 0 -1.000000
379 0 -1.000000
380 6 1.000000
380 0 -1.000000
380 0 -1.000000
380 0 -1.000000
380 0 -1.000000
380 0 -1.000000
380 0 -1.000000
380 0 -1.000000
381 6 1.000000
381 0 -1.000000
381 0 -1.000000
381 0 -1.000000
381 0 -1.000000
381 0 -1.000000
381 0 -1.000000
381 0 -1.000000
382 6 1.000000
382 0 -1.000000
382 0 -1.000000
382 0 -1.000000
382 0 -1.000000
382 0 -1.000000
382 0 -1.000000
382 0 -1.000000
383 6 1.000000
383 0 -1.000000
383 0 -1.000000
383 0 -1.000000
383 0 -1.000000
383 0 -1.000000
383 0 -1.000000
383 0 -1.000000
384 6 1.000000
384 0 -1.000000
384 0 -1.000000
384 0 -1.000000
384 0 -1.000000
384 0 -1.000000
384 0 -1.000000
384 0 -1.000000
385 6 1.000000
385 0 -1.000000
385 0 -1.000000
385 0 -1.000000
385 0 -1.000000
385 0 -1.000000
385 0 -1.000000
385 0 -1.000000
386 6 1.000000
386 0 -1.000000
386 0 -1.000000
386 0 -1.000000
386 0 -1.000000
386 0 -1.000000
386 0 -1.000000
386 0 -1.000000
387 6 1.000000
387 0 -1.000000
387 0 -1.000000
387 0 -1.000000
387 0 -1.000000
387 0 -1.000000
387 0 -1.000000
387 0 -1.000000
388 6 1.000000
388 0 -1.000000
388 0 -1.000000
388 0 -1.000000
388 0 -1.000000
388 0 -1.000000
388 0 -1.000000
388 0 -1.000000
389 6 1.000000
389 0 -1.000000
389 0 -1.000000
389 0 -1.000000
389 0 -1.000000
389 0 -1.000000
389 0 -1.000000
389 0 -1.000000
390 6 1.000000
390 0 -1.000000
390 0 -1.000000
390 0 -1.000000
390 0 -1.000000
390 0 -1.000000
390 0 -1.000000
390 0 -1.000000
391 6 1.000000
391 0 -1.000000
391 0 -1.000000
391 0 -1.000000
391 0 -1.000000
391 0 -1.000000
391 0 -1.000000
391 0 -1.000000
392 6 1.000000
392 0 -1.000000
392 0 -1.000000
392 0 -1.000000
392 0 -1.000000
392 0 -1.000000
392 0 -1.000000
392 0 -1.000000
393 6 1.000000
393 0 -1.000000
393 0 -1.000000
393 0 -1.000000
393 0 -1.000000
393 0 -1.000000
393 0 -1.000000
393 0 -1.000000
394 6 1.000000
394 0 -1.000000
394 0 -1.000000
394 0 -1.000000
394 0 -1.000000
394 0 -1.000000
394 0 -1.000000
394 0 -1.000000
395 6 1.000000
395 0 -1.000000
395 0 -1.000000
395 0 -1.000000
395 0 -1.000000
395 0 -1.000000
395 0 -1.000000
395 0 -1.000000
396 6 1.000000
396 0 -1.000000
396 0 -1.000000
396 0 -1.000000
396 0 -1.000000
396 0 -1.000000
396 0 -1.000000
396 0 -1.000000
397 6 1.000000
397 0 -1.000000
397 0 -1.000000
397 0 -1.000000
397 0 -1.000000
397 0 -1.000000
397 0 -1.000000
397 0 -1.000000
398 6 1.000000
398 0 -1.000000
398 0 -1.000000
398 0 -1.000000
398 0 -1.000000
398 0 -1.000000
398 0 -1.000000
398 0 -1.000000
399 6 1.000000
399 0 -1.000000
399 0 -1.000000
399 0 -1.000000
399 0 -1.000000
399 0 -1.000000
399 0 -1.000000
399 0 -1.000000
400 6 1.000000
400 0 -1.000000
400 0 -1.000000
400 0 -1.000000
400 0 -1.000000
400 0 -1.000000
400 0 -1.000000
400 0 -1.000000
401 6 1.000000
401 0 -1.000000
401 0 -1.000000
401 0 -1.000000
401 0 -1.000000
401 0 -1.000000
401 0 -1.000000
401 0 -1.000000
402 6 1.000000
402 0 -1.000000
402 0 -1.000000
402 0 -1.000000
402 0 -1.000000
402 0 -1.000000
402 0 -1.000000
402 0 -1.000000
403 6 1.000000
403 0 -1.000000
403 0 -1.000000
403 0 -1.000000
403 0 -1.000000
403 0 -1.000000
403 0 -1.000000
403 0 -1.000000
404 6 1.000000
404 0 -1.000000
404 0 -1.000000
404 0 -1.000000
404 0 -1.000000
404 0 -1.000000
404 0 -1.000000
404 0 -1.000000
405 6 1.000000
405 0 -1.000000
405 0 -1.000000
405 0 -1.000000
405 0 -1.000000
405 0 -1.000000
405 0 -1.000000
405 0 -1.000000
406 6 1.000000
406 0 -1.000000
406 0 -1.000000
406 0 -1.000000
406 0 -1.000000
406 0 -1.000000
406 0 -1.000000
406 0 -1.000000
407 6 1.000000
407 0 -1.000000
407 0 -1.000000
407 0 -1.000000
407 0 -1.000000
407 0 -1.000000
407 0 -1.000000
407 0 -1.000000
408 6 1.000000
408 0 -1.000000
408 0 -1.000000
408 0 -1.000000
408 0 -1.000000
408 0 -1.000000
408 0 -1.000000
408 0 -1.000000
409 6 1.000000
409 0 -1.000000
409 0 -1.000000
409 0 -1.000000
409 0 -1.000000
409 0 -1.000000
409 0 -1.000000
409 0 -1.000000
410 6 1.000000
410 0 -1.000000
410 0 -1.000000
410 0 -1.000000
410 0 -1.000000
410 0 -1.000000
410 0 -1.000000
410 0 -1.000000
411 6 1.000000
411 0 -1.000000
411 0 -1.000000
411 0 -1.000000
411 0 -1.000000
411 0 -1.000000
411 0 -1.000000
411 0 -1.000000
412 6 0.500000
412 5 0.500000
412 0 -1.000000
412 0 -1.000000
412 0 -1.000000
412 0 -1.000000
412 0 -1.000000
412 0 -1.000000
413 6 0.500000
413 5 0.500000
413 0 -1.000000
413 0 -1.000000
413 0 -1.000000
413 0 -1.000000
413 0 -1.000000
413 0 -1.000000
414 6 0.500000
414 5 0.500000
414 0 -1.000000
414 0 -1.000000
414 0 -1.000000
414 0 -1.000000
414 0 -1.000000
414 0 -1.000000
415 6 1.000000
415 0 -1.000000
415 0 -1.000000
415 0 -1.000000
415 0 -1.000000
415 0 -1.000000
415 0 -1.000000
415 0 -1.000000
416 6 1.000000
416 0 -1.000000
416 0 -1.000000
416 0 -1.000000
416 0 -1.000000
416 0 -1.000000
416 0 -1.000000
416 0 -1.000000
417 6 1.000000
417 0 -1.000000
417 0 -1.000000
417 0 -1.000000
417 0 -1.000000
417 0 -1.000000
417 0 -1.000000
417 0 -1.000000
418 6 0.500000
418 5 0.500000
418 0 -1.000000
418 0 -1.000000
418 0 -1.000000
418 0 -1.000000
418 0 -1.000000
418 0 -1.000000
419 6 0.500000
419 5 0.500000
419 0 -1.000000
419 0 -1.000000
419 0 -1.000000
419 0 -1.000000
419 0 -1.000000
419 0 -1.000000
420 6 0.500000
420 5 0.500000
420 0 -1.000000
420 0 -1.000000
420 0 -1.000000
420 0 -1.000000
420 0 -1.000000
420 0 -1.000000
421 6 1.000000
421 0 -1.000000
421 0 -1.000000
421 0 -1.000000
421 0 -1.000000
421 0 -1.000000
421 0 -1.000000
421 0 -1.000000
422 6 1.000000
422 0 -1.000000
422 0 -1.000000
422 0 -1.000000
422 0 -1.000000
422 0 -1.000000
422 0 -1.000000
422 0 -1.000000
423 6 1.000000
423 0 -1.000000
423 0 -1.000000
423 0 -1.000000
423 0 -1.000000
423 0 -1.000000
423 0 -1.000000
423 0 -1.000000
424 6 0.500000
424 5 0.500000
424 0 -1.000000
424 0 -1.000000
424 0 -1.000000
424 0 -1.000000
424 0 -1.000000
424 0 -1.000000
425 6 0.500000
425 5 0.500000
425 0 -1.000000
425 0 -1.000000
425 0 -1.000000
425 0 -1.000000
425 0 -1.000000
425 0 -1.000000
426 6 0.500000
426 5 0.500000
426 0 -1.000000
426 0 -1.000000
426 0 -1.000000
426 0 -1.000000
426 0 -1.000000
426 0 -1.000000
427 6 1.000000
427 0 -1.000000
427 0 -1.000000
427 0 -1.000000
427 0 -1.000000
427 0 -1.000000
427 0 -1.000000
427 0 -1.000000
428 6 1.000000
428 0 -1.000000
428 0 -1.000000
428 0 -1.000000
428 0 -1.000000
428 0 -1.000000
428 0 -1.000000
428 0 -1.000000
429 6 1.000000
429 0 -1.000000
429 0 -1.000000
429 0 -1.000000
429 0 -1.000000
429 0 -1.000000
429 0 -1.000000
429 0 -1.000000
430 6 0.500000
430 5 0.500000
430 0 -1.000000
430 0 -1.000000
430 0 -1.000000
430 0 -1.000000
430 0 -1.000000
430 0 -1.000000
431 6 0.500000
431 5 0.500000
431 0 -1.000000
431 0 -1.000000
431 0 -1.000000
431 0 -1.000000
431 0 -1.000000
431 0 -1.000000
432 6 0.500000
432 5 0.500000
432 0 -1.000000
432 0 -1.000000
432 0 -1.000000
432 0 -1.000000
432 0 -1.000000
432 0 -1.000000
433 6 1.000000
433 0 -1.000000
433 0 -1.000000
433 0 -1.000000
433 0 -1.000000
433 0 -1.000000
433 0 -1.000000
433 0 -1.000000
434 6 1.000000
434 0 -1.000000
434 0 -1.000000
434 0 -1.000000
434 0 -1.000000
434 0 -1.000000
434 0 -1.000000
434 0 -1.000000
435 6 1.000000
435 0 -1.000000
435 0 -1.000000
435 0 -1.000000
435 0 -1.000000
435 0 -1.000000
435 0 -1.000000
435 0 -1.000000
436 6 0.500000
436 5 0.500000
436 0 -1.000000
436 0 -1.000000
436 0 -1.000000
436 0 -1.000000
436 0 -1.000000
436 0 -1.000000
437 6 0.500000
437 5 0.500000
437 0 -1.000000
437 0 -1.000000
437 0 -1.000000
437 0 -1.000000
437 0 -1.000000
437 0 -1.000000
438 6 0.500000
438 5 0.500000
438 0 -1.000000
438 0 -1.000000
438 0 -1.000000
438 0 -1.000000
438 0 -1.000000
438 0 -1.000000
439 6 1.000000
439 0 -1.000000
439 0 -1.000000
439 0 -1.000000
439 0 -1.000000
439 0 -1.000000
439 0 -1.000000
439 0 -1.000000
440 6 1.000000
440 0 -1.000000
440 0 -1.000000
440 0 -1.000000
440 0 -1.000000
440 0 -1.000000
440 0 -1.000000
440 0 -1.000000
441 6 1.000000
441 0 -1.000000
441 0 -1.000000
441 0 -1.000000
441 0 -1.000000
441 0 -1.000000
441 0 -1.000000
441 0 -1.000000
442 6 0.500000
442 5 0.500000
442 0 -1.000000
442 0 -1.000000
442 0 -1.000000
442 0 -1.000000
442 0 -1.000000
442 0 -1.000000
443 6 0.500000
443 5 0.500000
443 0 -1.000000
443 0 -1.000000
443 0 -1.000000
443 0 -1.000000
443 0 -1.000000
443 0 -1.000000
444 6 0.500000
444 5 0.500000
444 0 -1.000000
444 0 -1.000000
444 0 -1.000000
444 0 -1.000000
444 0 -1.000000
444 0 -1.000000
445 6 1.000000
445 0 -1.000000
445 0 -1.000000
445 0 -1.000000
445 0 -1.000000
445 0 -1.000000
445 0 -1.000000
445 0 -1.000000
446 6 1.000000
446 0 -1.000000
446 0 -1.000000
446 0 -1.000000
446 0 -1.000000
446 0 -1.000000
446 0 -1.000000
446 0 -1.000000
447 6 1.000000
447 0 -1.000000
447 0 -1.000000
447 0 -1.000000
447 0 -1.000000
447 0 -1.000000
447 0 -1.000000
447 0 -1.000000
448 6 1.000000
448 0 -1.000000
448 0 -1.000000
448 0 -1.000000
448 0 -1.000000
448 0 -1.000000
448 0 -1.000000
448 0 -1.000000
449 6 1.000000
449 0 -1.000000
449 0 -1.000000
449 0 -1.000000
449 0 -1.000000
449 0 -1.000000
449 0 -1.000000
449 0 -1.000000
450 6 1.000000
450 0 -1.000000
450 0 -1.000000
450 0 -1.000000
450 0 -1.000000
450 0 -1.000000
450 0 -1.000000
450 0 -1.000000
451 6 1.000000
451 0 -1.000000
451 0 -1.000000
451 0 -1.000000
451 0 -1.000000
451 0 -1.000000
451 0 -1.000000
451 0 -1.000000
452 6 1.000000
452 0 -1.000000
452 0 -1.000000
452 0 -1.000000
452 0 -1.000000
452 0 -1.000000
452 0 -1.000000
452 0 -1.000000
453 6 1.000000
453 0 -1.000000
453 0 -1.000000
453 0 -1.000000
453 0 -1.000000
453 0 -1.000000
453 0 -1.000000
453 0 -1.000000
454 6 1.000000
454 0 -1.000000
454 0 -1.000000
454 0 -1.000000
454 0 -1.000000
454 0 -1.000000
454 0 -1.000000
454 0 -1.000000
455 6 1.000000
455 0 -1.000000
455 0 -1.000000
455 0 -1.000000
455 0 -1.000000
455 0 -1.000000
455 0 -1.000000
455 0 -1.000000
456 6 1.000000
456 0 -1.000000
456 0 -1.000000
456 0 -1.000000
456 0 -1.000000
456 0 -1.000000
456 0 -1.000000
456 0 -1.000000
457 6 1.000000
457 0 -1.000000
457 0 -1.000000
457 0 -1.000000
457 0 -1.000000
457 0 -1.000000
457 0 -1.000000
457 0 -1.000000
458 6 1.000000
458 0 -1.000000
458 0 -1.000000
458 0 -1.000000
458 0 -1.000000
458 0 -1.000000
458 0 -1.000000
458 0 -1.000000
459 6 1.000000
459 0 -1.000000
459 0 -1.000000
459 0 -1.000000
459 0 -1.000000
459 0 -1.000000
459 0 -1.000000
459 0 -1.000000
460 6 1.000000
460 0 -1.000000
460 0 -1.000000
460 0 -1.000000
460 0 -1.000000
460 0 -1.000000
460 0 -1.000000
460 0 -1.000000
461 6 1.000000
461 0 -1.000000
461 0 -1.000000
461 0 -1.000000
461 0 -1.000000
461 0 -1.000000
461 0 -1.000000
461 0 -1.000000
462 6 1.000000
462 0 -1.000000
462 0 -1.000000
462 0 -1.000000
462 0 -1.000000
462 0 -1.000000
462 0 -1.000000
462 0 -1.000000
463 6 1.000000
463 0 -1.000000
463 0 -1.000000
463 0 -1.000000
463 0 -1.000000
463 0 -1.000000
463 0 -1.000000
463 0 -1.000000
464 6 1.000000
464 0 -1.000000
464 0 -1.000000
464 0 -1.000000
464 0 -1.000000
464 0 -1.000000
464 0 -1.000000
464 0 -1.000000
465 6 1.000000
465 0 -1.000000
465 0 -1.000000
465 0 -1.000000
465 0 -1.000000
465 0 -1.000000
465 0 -1.000000
465 0 -1.000000
466 6 1.000000
466 0 -1.000000
466 0 -1.000000
466 0 -1.000000
466 0 -1.000000
466 0 -1.000000
466 0 -1.000000
466 0 -1.000000
467 6 1.000000
467 0 -1.000000
467 0 -1.000000
467 0 -1.000000
467 0 -1.000000
467 0 -1.000000
467 0 -1.000000
467 0 -1.000000
468 6 1.000000
468 0 -1.000000
468 0 -1.000000
468 0 -1.000000
468 0 -1.000000
468 0 -1.000000
468 0 -1.000000
468 0 -1.000000
469 6 1.000000
469 0 -1.000000
469 0 -1.000000
469 0 -1.000000
469 0 -1.000000
469 0 -1.000000
469 0 -1.000000
469 0 -1.000000
470 6 1.000000
470 0 -1.000000
470 0 -1.000000
470 0 -1.000000
470 0 -1.000000
470 0 -1.000000
470 0 -1.000000
470 0 -1.000000
471 6 1.000000
471 0 -1.000000
471 0 -1.000000
471 0 -1.000000
471 0 -1.000000
471 0 -1.000000
471 0 -1.000000
471 0 -1.000000
472 6 1.000000
472 0 -1.000000
472 0 -1.000000
472 0 -1.000000
472 0 -1.000000
472 0 -1.000000
472 0 -1.000000
472 0 -1.000000
473 6 1.000000
473 0 -1.000000
473 0 -1.000000
473 0 -1.000000
473 0 -1.000000
473 0 -1.000000
473 0 -1.000000
473 0 -1.000000
474 6 1.000000
474 0 -1.000000
474 0 -1.000000
474 0 -1.000000
474 0 -1.000000
474 0 -1.000000
474 0 -1.000000
474 0 -1.000000
475 6 1.000000
475 0 -1.000000
475 0 -1.000000
475 0 -1.000000
475 0 -1.000000
475 0 -1.000000
475 0 -1.000000
475 0 -1.000000
476 6 1.000000
476 0 -1.000000
476 0 -1.000000
476 0 -1.000000
476 0 -1.000000
476 0 -1.000000
476 0 -1.000000
476 0 -1.000000
477 6 1.000000
477 0 -1.000000
477 0 -1.000000
477 0 -1.000000
477 0 -1.000000
477 0 -1.000000
477 0 -1.000000
477 0 -1.000000
478 6 1.000000
478 0 -1.000000
478 0 -1.000000
478 0 -1.000000
478 0 -1.000000
478 0 -1.000000
478 0 -1.000000
478 0 -1.000000
479 6 1.000000
479 0 -1.000000
479 0 -1.000000
479 0 -1.000000
479 0 -1.000000
479 0 -1.000000
479 0 -1.000000
479 0 -1.000000
480 6 1.000000
480 0 -1.000000
480 0 -1.000000
480 0 -1.000000
480 0 -1.000000
480 0 -1.000000
480 0 -1.000000
480 0 -1.000000
481 6 1.000000
481 0 -1.000000
481 0 -1.000000
481 0 -1.000000
481 0 -1.000000
481 0 -1.000000
481 0 -1.000000
481 0 -1.000000
482 6 1.000000
482 0 -1.000000
482 0 -1.000000
482 0 -1.000000
482 0 -1.000000
482 0 -1.000000
482 0 -1.000000
482 0 -1.000000
483 6 1.000000
483 0 -1.000000
483 0 -1.000000
483 0 -1.000000
483 0 -1.000000
483 0 -1.000000
483 0 -1.000000
483 0 -1.000000
484 6 1.000000
484 0 -1.000000
484 0 -1.000000
484 0 -1.000000
484 0 -1.000000
484 0 -1.000000
484 0 -1.000000
484 0 -1.000000
485 6 1.000000
485 0 -1.000000
485 0 -1.000000
485 0 -1.000000
485 0 -1.000000
485 0 -1.000000
485 0 -1.000000
485 0 -1.000000
486 6 1.000000
486 0 -1.000000
486 0 -1.000000
486 0 -1.000000
486 0 -1.000000
486 0 -1.000000
486 0 -1.000000
486 0 -1.000000
487 6 1.000000
487 0 -1.000000
487 0 -1.000000
487 0 -1.000000
487 0 -1.000000
487 0 -1.000000
487 0 -1.000000
487 0 -1.000000
488 6 1.000000
488 0 -1.000000
488 0 -1.000000
488 0 -1.000000
488 0 -1.000000
488 0 -1.000000
488 0 -1.000000
488 0 -1.000000
489 6 1.000000
489 0 -1.000000
489 0 -1.000000
489 0 -1.000000
489 0 -1.000000
489 0 -1.000000
489 0 -1.000000
489 0 -1.000000
490 6 1.000000
490 0 -1.000000
490 0 -1.000000
490 0 -1.000000
490 0 -1.000000
490 0 -1.000000
490 0 -1.000000
490 0 -1.000000
491 6 1.000000
491 0 -1.000000
491 0 -1.000000
491 0 -1.000000
491 0 -1.000000
491 0 -1.000000
491 0 -1.000000
491 0 -1.000000
492 6 1.000000
492 0 -1.000000
492 0 -1.000000
492 0 -1.000000
492 0 -1.000000
492 0 -1.000000
492 0 -1.000000
492 0 -1.000000
493 6 1.000000
493 0 -1.000000
493 0 -1.000000
493 0 -1.000000
493 0 -1.000000
493 0 -1.000000
493 0 -1.000000
493 0 -1.000000
494 6 1.000000
494 0 -1.000000
494 0 -1.000000
494 0 -1.000000
494 0 -1.000000
494 0 -1.000000
494 0 -1.000000
494 0 -1.000000
495 6 1.000000
495 0 -1.000000
495 0 -1.000000
495 0 -1.000000
495 0 -1.000000
495 0 -1.000000
495 0 -1.000000
495 0 -1.000000
496 6 1.000000
496 0 -1.000000
496 0 -1.000000
496 0 -1.000000
496 0 -1.000000
496 0 -1.000000
496 0 -1.000000
496 0 -1.000000
497 6 1.000000
497 0 -1.000000
497 0 -1.000000
497 0 -1.000000
497 0 -1.000000
497 0 -1.000000
497 0 -1.000000
497 0 -1.000000
498 6 1.000000
498 0 -1.000000
498 0 -1.000000
498 0 -1.000000
498 0 -1.000000
498 0 -1.000000
498 0 -1.000000
498 0 -1.000000
499 6 1.000000
499 0 -1.000000
499 0 -1.000000
499 0 -1.000000
499 0 -1.000000
499 0 -1.000000
499 0 -1.000000
499 0 -1.000000
500 6 1.000000
500 0 -1.000000
500 0 -1.000000
500 0 -1.000000
500 0 -1.000000
500 0 -1.000000
500 0 -1.000000
500 0 -1.000000
501 6 1.000000
501 0 -1.000000
501 0 -1.000000
501 0 -1.000000
501 0 -1.000000
501 0 -1.000000
501 0 -1.000000
501 0 -1.000000
502 6 1.000000
502 0 -1.000000
502 0 -1.000000
502 0 -1.000000
502 0 -1.000000
502 0 -1.000000
502 0 -1.000000
502 0 -1.000000
503 6 1.000000
503 0 -1.000000
503 0 -1.000000
503 0 -1.000000
503 0 -1.000000
503 0 -1.000000
503 0 -1.000000
503 0 -1.000000
504 6 1.000000
504 0 -1.000000
504 0 -1.000000
504 0 -1.000000
504 0 -1.000000
504 0 -1.000000
504 0 -1.000000
504 0 -1.000000
505 6 1.000000
505 0 -1.000000
505 0 -1.000000
505 0 -1.000000
505 0 -1.000000
505 0 -1.000000
505 0 -1.000000
505 0 -1.000000
506 6 1.000000
506 0 -1.000000
506 0 -1.000000
506 0 -1.000000
506 0 -1.000000
506 0 -1.000000
506 0 -1.000000
506 0 -1.000000
507 3 0.500000
507 4 0.500000
507 0 -1.000000
507 0 -1.000000
507 0 -1.000000
507 0 -1.000000
507 0 -1.000000
507 0 -1.000000
508 3 1.000000
508 0 -1.000000
508 0 -1.000000
508 0 -1.000000
508 0 -1.000000
508 0 -1.000000
508 0 -1.000000
508 0 -1.000000
509 3 1.000000
509 0 -1.000000
509 0 -1.000000
509 0 -1.000000
509 0 -1.000000
509 0 -1.000000
509 0 -1.000000
509 0 -1.000000
510 3 1.000000
510 0 -1.000000
510 0 -1.000000
510 0 -1.000000
510 0 -1.000000
510 0 -1.000000
510 0 -1.000000
510 0 -1.000000
511 3 0.500000
511 4 0.500000
511 0 -1.000000
511 0 -1.000000
511 0 -1.000000
511 0 -1.000000
511 0 -1.000000
511 0 -1.000000
512 3 0.500000
512 4 0.500000
512 0 -1.000000
512 0 -1.000000
512 0 -1.000000
512 0 -1.000000
512 0 -1.000000
512 0 -1.000000
513 3 1.000000
513 0 -1.000000
513 0 -1.000000
513 0 -1.000000
513 0 -1.000000
513 0 -1.000000
513 0 -1.000000
513 0 -1.000000
514 3 1.000000
514 0 -1.000000
514 0 -1.000000
514 0 -1.000000
514 0 -1.000000
514 0 -1.000000
514 0 -1.000000
514 0 -1.000000
515 3 1.000000
515 0 -1.000000
515 0 -1.000000
515 0 -1.000000
515 0 -1.000000
515 0 -1.000000
515 0 -1.000000
515 0 -1.000000
516 3 1.000000
516 0 -1.000000
516 0 -1.000000
516 0 -1.000000
516 0 -1.000000
516 0 -1.000000
516 0 -1.000000
516 0 -1.000000
517 3 1.000000
517 0 -1.000000
517 0 -1.000000
517 0 -1.000000
517 0 -1.000000
517 0 -1.000000
517 0 -1.000000
517 0 -1.000000
518 3 1.000000
518 0 -1.000000
518 0 -1.000000
518 0 -1.000000
518 0 -1.000000
518 0 -1.000000
518 0 -1.000000
518 0 -1.000000
519 6 0.750000
519 11 0.250000
519 0 -1.000000
519 0 -1.000000
519 0 -1.000000
519 0 -1.000000
519 0 -1.000000
519 0 -1.000000
520 5 0.375000
520 4 0.375000
520 11 0.250000
520 0 -1.000000
520 0 -1.000000
520 0 -1.000000
520 0 -1.000000
520 0 -1.000000
521 11 0.500000
521 12 0.500000
521 0 -1.000000
521 0 -1.000000
521 0 -1.000000
521 0 -1.000000
521 0 -1.000000
521 0 -1.000000
522 11 0.500000
522 12 0.500000
522 0 -1.000000
522 0 -1.000000
522 0 -1.000000
522 0 -1.000000
522 0 -1.000000
522 0 -1.000000
523 11 0.500000
523 12 0.500000
523 0 -1.000000
523 0 -1.000000
523 0 -1.000000
523 0 -1.000000
523 0 -1.000000
523 0 -1.000000
524 6 0.750000
524 11 0.250000
524 0 -1.000000
524 0 -1.000000
524 0 -1.000000
524 0 -1.000000
524 0 -1.000000
524 0 -1.000000
525 5 0.375000
525 4 0.375000
525 11 0.250000
525 0 -1.000000
525 0 -1.000000
525 0 -1.000000
525 0 -1.000000
525 0 -1.000000
526 5 0.375000
526 4 0.375000
526 11 0.250000
526 0 -1.000000
526 0 -1.000000
526 0 -1.000000
526 0 -1.000000
526 0 -1.000000
527 11 0.500000
527 12 0.500000
527 0 -1.000000
527 0 -1.000000
527 0 -1.000000
527 0 -1.000000
527 0 -1.000000
527 0 -1.000000
528 11 0.500000
528 12 0.500000
528 0 -1.000000
528 0 -1.000000
528 0 -1.000000
528 0 -1.000000
528 0 -1.000000
528 0 -1.000000
529 11 0.500000
529 12 0.500000
529 0 -1.000000
529 0 -1.000000
529 0 -1.000000
529 0 -1.000000
529 0 -1.000000
529 0 -1.000000
530 5 0.375000
530 4 0.375000
530 11 0.250000
530 0 -1.000000
530 0 -1.000000
530 0 -1.000000
530 0 -1.000000
530 0 -1.000000
531 14 0.500000
531 15 0.500000
531 0 -1.000000
531 0 -1.000000
531 0 -1.000000
531 0 -1.000000
531 0 -1.000000
531 0 -1.000000
532 15 1.000000
532 0 -1.000000
532 0 -1.000000
532 0 -1.000000
532 0 -1.000000
532 0 -1.000000
532 0 -1.000000
532 0 -1.000000
533 15 1.000000
533 0 -1.000000
533 0 -1.000000
533 0 -1.000000
533 0 -1.000000
533 0 -1.000000
533 0 -1.000000
533 0 -1.000000
534 15 1.000000
534 0 -1.000000
534 0 -1.000000
534 0 -1.000000
534 0 -1.000000
534 0 -1.000000
534 0 -1.000000
534 0 -1.000000
535 14 0.500000
535 15 0.500000
535 0 -1.000000
535 0 -1.000000
535 0 -1.000000
535 0 -1.000000
535 0 -1.000000
535 0 -1.000000
536 14 0.500000
536 15 0.500000
536 0 -1.000000
536 0 -1.000000
536 0 -1.000000
536 0 -1.000000
536 0 -1.000000
536 0 -1.000000
537 14 0.500000
537 15 0.500000
537 0 -1.000000
537 0 -1.000000
537 0 -1.000000
537 0 -1.000000
537 0 -1.000000
537 0 -1.000000
538 15 1.000000
538 0 -1.000000
538 0 -1.000000
538 0 -1.000000
538 0 -1.000000
538 0 -1.000000
538 0 -1.000000
538 0 -1.000000
539 15 1.000000
539 0 -1.000000
539 0 -1.000000
539 0 -1.000000
539 0 -1.000000
539 0 -1.000000
539 0 -1.000000
539 0 -1.000000
540 15 1.000000
540 0 -1.000000
540 0 -1.000000
540 0 -1.000000
540 0 -1.000000
540 0 -1.000000
540 0 -1.000000
540 0 -1.000000
541 14 0.500000
541 15 0.500000
541 0 -1.000000
541 0 -1.000000
541 0 -1.000000
541 0 -1.000000
541 0 -1.000000
541 0 -1.000000
542 14 0.500000
542 15 0.500000
542 0 -1.000000
542 0 -1.000000
542 0 -1.000000
542 0 -1.000000
542 0 -1.000000
542 0 -1.000000
543 15 1.000000
543 0 -1.000000
543 0 -1.000000
543 0 -1.000000
543 0 -1.000000
543 0 -1.000000
543 0 -1.000000
543 0 -1.000000
544 15 1.000000
544 0 -1.000000
544 0 -1.000000
544 0 -1.000000
544 0 -1.000000
544 0 -1.000000
544 0 -1.000000
544 0 -1.000000
545 15 1.000000
545 0 -1.000000
545 0 -1.000000
545 0 -1.000000
545 0 -1.000000
545 0 -1.000000
545 0 -1.000000
545 0 -1.000000
546 15 1.000000
546 0 -1.000000
546 0 -1.000000
546 0 -1.000000
546 0 -1.000000
546 0 -1.000000
546 0 -1.000000
546 0 -1.000000
547 15 1.000000
547 0 -1.000000
547 0 -1.000000
547 0 -1.000000
547 0 -1.000000
547 0 -1.000000
547 0 -1.000000
547 0 -1.000000
548 15 1.000000
548 0 -1.000000
548 0 -1.000000
548 0 -1.000000
548 0 -1.000000
548 0 -1.000000
548 0 -1.000000
548 0 -1.000000
549 14 0.500000
549 13 0.500000
549 0 -1.000000
549 0 -1.000000
549 0 -1.000000
549 0 -1.000000
549 0 -1.000000
549 0 -1.000000
550 12 0.500000
550 13 0.500000
550 0 -1.000000
550 0 -1.000000
550 0 -1.000000
550 0 -1.000000
550 0 -1.000000
550 0 -1.000000
551 12 0.500000
551 13 0.500000
551 0 -1.000000
551 0 -1.000000
551 0 -1.000000
551 0 -1.000000
551 0 -1.000000
551 0 -1.000000
552 12 0.500000
552 13 0.500000
552 0 -1.000000
552 0 -1.000000
552 0 -1.000000
552 0 -1.000000
552 0 -1.000000
552 0 -1.000000
553 14 0.500000
553 13 0.500000
553 0 -1.000000
553 0 -1.000000
553 0 -1.000000
553 0 -1.000000
553 0 -1.000000
553 0 -1.000000
554 14 0.500000
554 13 0.500000
554 0 -1.000000
554 0 -1.000000
554 0 -1.000000
554 0 -1.000000
554 0 -1.000000
554 0 -1.000000
555 12 0.500000
555 13 0.500000
555 0 -1.000000
555 0 -1.000000
555 0 -1.000000
555 0 -1.000000
555 0 -1.000000
555 0 -1.000000
556 12 0.500000
556 13 0.500000
556 0 -1.000000
556 0 -1.000000
556 0 -1.000000
556 0 -1.000000
556 0 -1.000000
556 0 -1.000000
557 14 0.500000
557 13 0.500000
557 0 -1.000000
557 0 -1.000000
557 0 -1.000000
557 0 -1.000000
557 0 -1.000000
557 0 -1.000000
558 14 0.500000
558 13 0.500000
558 0 -1.000000
558 0 -1.000000
558 0 -1.000000
558 0 -1.000000
558 0 -1.000000
558 0 -1.000000
559 14 0.500000
559 13 0.500000
559 0 -1.000000
559 0 -1.000000
559 0 -1.000000
559 0 -1.000000
559 0 -1.000000
559 0 -1.000000
560 12 0.500000
560 13 0.500000
560 0 -1.000000
560 0 -1.000000
560 0 -1.000000
560 0 -1.000000
560 0 -1.000000
560 0 -1.000000
561 14 0.500000
561 15 0.500000
561 0 -1.000000
561 0 -1.000000
561 0 -1.000000
561 0 -1.000000
561 0 -1.000000
561 0 -1.000000
562 14 0.500000
562 13 0.500000
562 0 -1.000000
562 0 -1.000000
562 0 -1.000000
562 0 -1.000000
562 0 -1.000000
562 0 -1.000000
563 14 0.500000
563 13 0.500000
563 0 -1.000000
563 0 -1.000000
563 0 -1.000000
563 0 -1.000000
563 0 -1.000000
563 0 -1.000000
564 14 0.500000
564 13 0.500000
564 0 -1.000000
564 0 -1.000000
564 0 -1.000000
564 0 -1.000000
564 0 -1.000000
564 0 -1.000000
565 14 0.500000
565 15 0.500000
565 0 -1.000000
565 0 -1.000000
565 0 -1.000000
565 0 -1.000000
565 0 -1.000000
565 0 -1.000000
566 14 0.500000
566 15 0.500000
566 0 -1.000000
566 0 -1.000000
566 0 -1.000000
566 0 -1.000000
566 0 -1.000000
566 0 -1.000000
567 14 0.500000
567 13 0.500000
567 0 -1.000000
567 0 -1.000000
567 0 -1.000000
567 0 -1.000000
567 0 -1.000000
567 0 -1.000000
568 14 0.500000
568 13 0.500000
568 0 -1.000000
568 0 -1.000000
568 0 -1.000000
568 0 -1.000000
568 0 -1.000000
568 0 -1.000000
569 14 0.500000
569 15 0.500000
569 0 -1.000000
569 0 -1.000000
569 0 -1.000000
569 0 -1.000000
569 0 -1.000000
569 0 -1.000000
570 14 0.500000
570 15 0.500000
570 0 -1.000000
570 0 -1.000000
570 0 -1.000000
570 0 -1.000000
570 0 -1.000000
570 0 -1.000000
571 14 0.500000
571 15 0.500000
571 0 -1.000000
571 0 -1.000000
571 0 -1.000000
571 0 -1.000000
571 0 -1.000000
571 0 -1.000000
572 14 0.500000
572 13 0.500000
572 0 -1.000000
572 0 -1.000000
572 0 -1.000000
572 0 -1.000000
572 0 -1.000000
572 0 -1.000000
573 11 0.500000
573 12 0.500000
573 0 -1.000000
573 0 -1.000000
573 0 -1.000000
573 0 -1.000000
573 0 -1.000000
573 0 -1.000000
574 11 0.500000
574 12 0.500000
574 0 -1.000000
574 0 -1.000000
574 0 -1.000000
574 0 -1.000000
574 0 -1.000000
574 0 -1.000000
575 12 0.500000
575 13 0.500000
575 0 -1.000000
575 0 -1.000000
575 0 -1.000000
575 0 -1.000000
575 0 -1.000000
575 0 -1.000000
576 12 0.500000
576 13 0.500000
576 0 -1.000000
576 0 -1.000000
576 0 -1.000000
576 0 -1.000000
576 0 -1.000000
576 0 -1.000000
577 12 0.500000
577 13 0.500000
577 0 -1.000000
577 0 -1.000000
577 0 -1.000000
577 0 -1.000000
577 0 -1.000000
577 0 -1.000000
578 11 0.500000
578 12 0.500000
578 0 -1.000000
578 0 -1.000000
578 0 -1.000000
578 0 -1.000000
578 0 -1.000000
578 0 -1.000000
579 11 0.500000
579 12 0.500000
579 0 -1.000000
579 0 -1.000000
579 0 -1.000000
579 0 -1.000000
579 0 -1.000000
579 0 -1.000000
580 11 0.500000
580 12 0.500000
580 0 -1.000000
580 0 -1.000000
580 0 -1.000000
580 0 -1.000000
580 0 -1.000000
580 0 -1.000000
581 12 0.500000
581 13 0.500000
581 0 -1.000000
581 0 -1.000000
581 0 -1.000000
581 0 -1.000000
581 0 -1.000000
581 0 -1.000000
582 12 0.500000
582 13 0.500000
582 0 -1.000000
582 0 -1.000000
582 0 -1.000000
582 0 -1.000000
582 0 -1.000000
582 0 -1.000000
583 12 0.500000
583 13 0.500000
583 0 -1.000000
583 0 -1.000000
583 0 -1.000000
583 0 -1.000000
583 0 -1.000000
583 0 -1.000000
584 11 0.500000
584 12 0.500000
584 0 -1.000000
584 0 -1.000000
584 0 -1.000000
584 0 -1.000000
584 0 -1.000000
584 0 -1.000000
585 6 1.000000
585 0 -1.000000
585 0 -1.000000
585 0 -1.000000
585 0 -1.000000
585 0 -1.000000
585 0 -1.000000
585 0 -1.000000
586 6 1.000000
586 0 -1.000000
586 0 -1.000000
586 0 -1.000000
586 0 -1.000000
586 0 -1.000000
586 0 -1.000000
586 0 -1.000000
587 6 1.000000
587 0 -1.000000
587 0 -1.000000
587 0 -1.000000
587 0 -1.000000
587 0 -1.000000
587 0 -1.000000
587 0 -1.000000
588 6 1.000000
588 0 -1.000000
588 0 -1.000000
588 0 -1.000000
588 0 -1.000000
588 0 -1.000000
588 0 -1.000000
588 0 -1.000000
589 6 1.000000
589 0 -1.000000
589 0 -1.000000
589 0 -1.000000
589 0 -1.000000
589 0 -1.000000
589 0 -1.000000
589 0 -1.000000
590 6 1.000000
590 0 -1.000000
590 0 -1.000000
590 0 -1.000000
590 0 -1.000000
590 0 -1.000000
590 0 -1.000000
590 0 -1.000000
591 6 1.000000
591 0 -1.000000
591 0 -1.000000
591 0 -1.000000
591 0 -1.000000
591 0 -1.000000
591 0 -1.000000
591 0 -1.000000
592 6 1.000000
592 0 -1.000000
592 0 -1.000000
592 0 -1.000000
592 0 -1.000000
592 0 -1.000000
592 0 -1.000000
592 0 -1.000000
593 6 1.000000
593 0 -1.000000
593 0 -1.000000
593 0 -1.000000
593 0 -1.000000
593 0 -1.000000
593 0 -1.000000
593 0 -1.000000
594 6 1.000000
594 0 -1.000000
594 0 -1.000000
594 0 -1.000000
594 0 -1.000000
594 0 -1.000000
594 0 -1.000000
594 0 -1.000000
595 6 1.000000
595 0 -1.000000
595 0 -1.000000
595 0 -1.000000
595 0 -1.000000
595 0 -1.000000
595 0 -1.000000
595 0 -1.000000
596 6 1.000000
596 0 -1.000000
596 0 -1.000000
596 0 -1.000000
596 0 -1.000000
596 0 -1.000000
596 0 -1.000000
596 0 -1.000000
597 6 1.000000
597 0 -1.000000
597 0 -1.000000
597 0 -1.000000
597 0 -1.000000
597 0 -1.000000
597 0 -1.000000
597 0 -1.000000
598 6 1.000000
598 0 -1.000000
598 0 -1.000000
598 0 -1.000000
598 0 -1.000000
598 0 -1.000000
598 0 -1.000000
598 0 -1.000000
599 6 1.000000
599 0 -1.000000
599 0 -1.000000
599 0 -1.000000
599 0 -1.000000
599 0 -1.000000
599 0 -1.000000
599 0 -1.000000
600 6 1.000000
600 0 -1.000000
600 0 -1.000000
600 0 -1.000000
600 0 -1.000000
600 0 -1.000000
600 0 -1.000000
600 0 -1.000000
601 6 1.000000
601 0 -1.000000
601 0 -1.000000
601 0 -1.000000
601 0 -1.000000
601 0 -1.000000
601 0 -1.000000
601 0 -1.000000
602 6 1.000000
602 0 -1.000000
602 0 -1.000000
602 0 -1.000000
602 0 -1.000000
602 0 -1.000000
602 0 -1.000000
602 0 -1.000000
603 6 1.000000
603 0 -1.000000
603 0 -1.000000
603 0 -1.000000
603 0 -1.000000
603 0 -1.000000
603 0 -1.000000
603 0 -1.000000
604 6 1.000000
604 0 -1.000000
604 0 -1.000000
604 0 -1.000000
604 0 -1.000000
604 0 -1.000000
604 0 -1.000000
604 0 -1.000000
605 6 1.000000
605 0 -1.000000
605 0 -1.000000
605 0 -1.000000
605 0 -1.000000
605 0 -1.000000
605 0 -1.000000
605 0 -1.000000
606 6 1.000000
606 0 -1.000000
606 0 -1.000000
606 0 -1.000000
606 0 -1.000000
606 0 -1.000000
606 0 -1.000000
606 0 -1.000000
607 6 1.000000
607 0 -1.000000
607 0 -1.000000
607 0 -1.000000
607 0 -1.000000
607 0 -1.000000
607 0 -1.000000
607 0 -1.000000
608 6 1.000000
608 0 -1.000000
608 0 -1.000000
608 0 -1.000000
608 0 -1.000000
608 0 -1.000000
608 0 -1.000000
608 0 -1.000000
609 6 1.000000
609 0 -1.000000
609 0 -1.000000
609 0 -1.000000
609 0 -1.000000
609 0 -1.000000
609 0 -1.000000
609 0 -1.000000
610 6 1.000000
610 0 -1.000000
610 0 -1.000000
610 0 -1.000000
610 0 -1.000000
610 0 -1.000000
610 0 -1.000000
610 0 -1.000000
611 6 1.000000
611 0 -1.000000
611 0 -1.000000
611 0 -1.000000
611 0 -1.000000
611 0 -1.000000
611 0 -1.000000
611 0 -1.000000
612 6 1.000000
612 0 -1.000000
612 0 -1.000000
612 0 -1.000000
612 0 -1.000000
612 0 -1.000000
612 0 -1.000000
612 0 -1.000000
613 6 1.000000
613 0 -1.000000
613 0 -1.000000
613 0 -1.000000
613 0 -1.000000
613 0 -1.000000
613 0 -1.000000
613 0 -1.000000
614 6 1.000000
614 0 -1.000000
614 0 -1.000000
614 0 -1.000000
614 0 -1.000000
614 0 -1.000000
614 0 -1.000000
614 0 -1.000000
615 6 1.000000
615 0 -1.000000
615 0 -1.000000
615 0 -1.000000
615 0 -1.000000
615 0 -1.000000
615 0 -1.000000
615 0 -1.000000
616 6 1.000000
616 0 -1.000000
616 0 -1.000000
616 0 -1.000000
616 0 -1.000000
616 0 -1.000000
616 0 -1.000000
616 0 -1.000000
617 6 1.000000
617 0 -1.000000
617 0 -1.000000
617 0 -1.000000
617 0 -1.000000
617 0 -1.000000
617 0 -1.000000
617 0 -1.000000
618 6 1.000000
618 0 -1.000000
618 0 -1.000000
618 0 -1.000000
618 0 -1.000000
618 0 -1.000000
618 0 -1.000000
618 0 -1.000000
619 6 1.000000
619 0 -1.000000
619 0 -1.000000
619 0 -1.000000
619 0 -1.000000
619 0 -1.000000
619 0 -1.000000
619 0 -1.000000
620 6 1.000000
620 0 -1.000000
620 0 -1.000000
620 0 -1.000000
620 0 -1.000000
620 0 -1.000000
620 0 -1.000000
620 0 -1.000000
621 6 1.000000
621 0 -1.000000
621 0 -1.000000
621 0 -1.000000
621 0 -1.000000
621 0 -1.000000
621 0 -1.000000
621 0 -1.000000
622 6 1.000000
622 0 -1.000000
622 0 -1.000000
622 0 -1.000000
622 0 -1.000000
622 0 -1.000000
622 0 -1.000000
622 0 -1.000000
623 6 1.000000
623 0 -1.000000
623 0 -1.000000
623 0 -1.000000
623 0 -1.000000
623 0 -1.000000
623 0 -1.000000
623 0 -1.000000
624 6 1.000000
624 0 -1.000000
624 0 -1.000000
624 0 -1.000000
624 0 -1.000000
624 0 -1.000000
624 0 -1.000000
624 0 -1.000000
625 6 1.000000
625 0 -1.000000
625 0 -1.000000
625 0 -1.000000
625 0 -1.000000
625 0 -1.000000
625 0 -1.000000
625 0 -1.000000
626 6 1.000000
626 0 -1.000000
626 0 -1.000000
626 0 -1.000000
626 0 -1.000000
626 0 -1.000000
626 0 -1.000000
626 0 -1.000000
627 6 1.000000
627 0 -1.000000
627 0 -1.000000
627 0 -1.000000
627 0 -1.000000
627 0 -1.000000
627 0 -1.000000
627 0 -1.000000
628 6 1.000000
628 0 -1.000000
628 0 -1.000000
628 0 -1.000000
628 0 -1.000000
628 0 -1.000000
628 0 -1.000000
628 0 -1.000000
629 6 1.000000
629 0 -1.000000
629 0 -1.000000
629 0 -1.000000
629 0 -1.000000
629 0 -1.000000
629 0 -1.000000
629 0 -1.000000
630 6 1.000000
630 0 -1.000000
630 0 -1.000000
630 0 -1.000000
630 0 -1.000000
630 0 -1.000000
630 0 -1.000000
630 0 -1.000000
631 6 1.000000
631 0 -1.000000
631 0 -1.000000
631 0 -1.000000
631 0 -1.000000
631 0 -1.000000
631 0 -1.000000
631 0 -1.000000
632 6 1.000000
632 0 -1.000000
632 0 -1.000000
632 0 -1.000000
632 0 -1.000000
632 0 -1.000000
632 0 -1.000000
632 0 -1.000000
633 6 1.000000
633 0 -1.000000
633 0 -1.000000
633 0 -1.000000
633 0 -1.000000
633 0 -1.000000
633 0 -1.000000
633 0 -1.000000
634 6 1.000000
634 0 -1.000000
634 0 -1.000000
634 0 -1.000000
634 0 -1.000000
634 0 -1.000000
634 0 -1.000000
634 0 -1.000000
635 6 1.000000
635 0 -1.000000
635 0 -1.000000
635 0 -1.000000
635 0 -1.000000
635 0 -1.000000
635 0 -1.000000
635 0 -1.000000
636 6 1.000000
636 0 -1.000000
636 0 -1.000000
636 0 -1.000000
636 0 -1.000000
636 0 -1.000000
636 0 -1.000000
636 0 -1.000000
637 6 1.000000
637 0 -1.000000
637 0 -1.000000
637 0 -1.000000
637 0 -1.000000
637 0 -1.000000
637 0 -1.000000
637 0 -1.000000
638 6 1.000000
638 0 -1.000000
638 0 -1.000000
638 0 -1.000000
638 0 -1.000000
638 0 -1.000000
638 0 -1.000000
638 0 -1.000000
639 6 1.000000
639 0 -1.000000
639 0 -1.000000
639 0 -1.000000
639 0 -1.000000
639 0 -1.000000
639 0 -1.000000
639 0 -1.000000
640 6 1.000000
640 0 -1.000000
640 0 -1.000000
640 0 -1.000000
640 0 -1.000000
640 0 -1.000000
640 0 -1.000000
640 0 -1.000000
641 6 1.000000
641 0 -1.000000
641 0 -1.000000
641 0 -1.000000
641 0 -1.000000
641 0 -1.000000
641 0 -1.000000
641 0 -1.000000
642 6 1.000000
642 0 -1.000000
642 0 -1.000000
642 0 -1.000000
642 0 -1.000000
642 0 -1.000000
642 0 -1.000000
642 0 -1.000000
643 6 1.000000
643 0 -1.000000
643 0 -1.000000
643 0 -1.000000
643 0 -1.000000
643 0 -1.000000
643 0 -1.000000
643 0 -1.000000
644 6 1.000000
644 0 -1.000000
644 0 -1.000000
644 0 -1.000000
644 0 -1.000000
644 0 -1.000000
644 0 -1.000000
644 0 -1.000000
645 6 1.000000
645 0 -1.000000
645 0 -1.000000
645 0 -1.000000
645 0 -1.000000
645 0 -1.000000
645 0 -1.000000
645 0 -1.000000
646 6 1.000000
646 0 -1.000000
646 0 -1.000000
646 0 -1.000000
646 0 -1.000000
646 0 -1.000000
646 0 -1.000000
646 0 -1.000000
647 6 1.000000
647 0 -1.000000
647 0 -1.000000
647 0 -1.000000
647 0 -1.000000
647 0 -1.000000
647 0 -1.000000
647 0 -1.000000
648 6 1.000000
648 0 -1.000000
648 0 -1.000000
648 0 -1.000000
648 0 -1.000000
648 0 -1.000000
648 0 -1.000000
648 0 -1.000000
649 6 1.000000
649 0 -1.000000
649 0 -1.000000
649 0 -1.000000
649 0 -1.000000
649 0 -1.000000
649 0 -1.000000
649 0 -1.000000
650 6 1.000000
650 0 -1.000000
650 0 -1.000000
650 0 -1.000000
650 0 -1.000000
650 0 -1.000000
650 0 -1.000000
650 0 -1.000000
651 6 1.000000
651 0 -1.000000
651 0 -1.000000
651 0 -1.000000
651 0 -1.000000
651 0 -1.000000
651 0 -1.000000
651 0 -1.000000
652 6 1.000000
652 0 -1.000000
652 0 -1.000000
652 0 -1.000000
652 0 -1.000000
652 0 -1.000000
652 0 -1.000000
652 0 -1.000000
653 6 1.000000
653 0 -1.000000
653 0 -1.000000
653 0 -1.000000
653 0 -1.000000
653 0 -1.000000
653 0 -1.000000
653 0 -1.000000
654 6 1.000000
654 0 -1.000000
654 0 -1.000000
654 0 -1.000000
654 0 -1.000000
654 0 -1.000000
654 0 -1.000000
654 0 -1.000000
655 6 1.000000
655 0 -1.000000
655 0 -1.000000
655 0 -1.000000
655 0 -1.000000
655 0 -1.000000
655 0 -1.000000
655 0 -1.000000
656 6 1.000000
656 0 -1.000000
656 0 -1.000000
656 0 -1.000000
656 0 -1.000000
656 0 -1.000000
656 0 -1.000000
656 0 -1.000000
657 6 1.000000
657 0 -1.000000
657 0 -1.000000
657 0 -1.000000
657 0 -1.000000
657 0 -1.000000
657 0 -1.000000
657 0 -1.000000
658 6 1.000000
658 0 -1.000000
658 0 -1.000000
658 0 -1.000000
658 0 -1.000000
658 0 -1.000000
658 0 -1.000000
658 0 -1.000000
659 6 1.000000
659 0 -1.000000
659 0 -1.000000
659 0 -1.000000
659 0 -1.000000
659 0 -1.000000
659 0 -1.000000
659 0 -1.000000
660 6 1.000000
660 0 -1.000000
660 0 -1.000000
660 0 -1.000000
660 0 -1.000000
660 0 -1.000000
660 0 -1.000000
660 0 -1.000000
661 6 1.000000
661 0 -1.000000
661 0 -1.000000
661 0 -1.000000
661 0 -1.000000
661 0 -1.000000
661 0 -1.000000
661 0 -1.000000
662 6 1.000000
662 0 -1.000000
662 0 -1.000000
662 0 -1.000000
662 0 -1.000000
662 0 -1.000000
662 0 -1.000000
662 0 -1.000000
663 6 1.000000
663 0 -1.000000
663 0 -1.000000
663 0 -1.000000
663 0 -1.000000
663 0 -1.000000
663 0 -1.000000
663 0 -1.000000
664 6 1.000000
664 0 -1.000000
664 0 -1.000000
664 0 -1.000000
664 0 -1.000000
664 0 -1.000000
664 0 -1.000000
664 0 -1.000000
665 6 1.000000
665 0 -1.000000
665 0 -1.000000
665 0 -1.000000
665 0 -1.000000
665 0 -1.000000
665 0 -1.000000
665 0 -1.000000
666 6 1.000000
666 0 -1.000000
666 0 -1.000000
666 0 -1.000000
666 0 -1.000000
666 0 -1.000000
666 0 -1.000000
666 0 -1.000000
667 6 1.000000
667 0 -1.000000
667 0 -1.000000
667 0 -1.000000
667 0 -1.000000
667 0 -1.000000
667 0 -1.000000
667 0 -1.000000
668 6 1.000000
668 0 -1.000000
668 0 -1.000000
668 0 -1.000000
668 0 -1.000000
668 0 -1.000000
668 0 -1.000000
668 0 -1.000000
669 6 1.000000
669 0 -1.000000
669 0 -1.000000
669 0 -1.000000
669 0 -1.000000
669 0 -1.000000
669 0 -1.000000
669 0 -1.000000
670 6 1.000000
670 0 -1.000000
670 0 -1.000000
670 0 -1.000000
670 0 -1.000000
670 0 -1.000000
670 0 -1.000000
670 0 -1.000000
671 6 1.000000
671 0 -1.000000
671 0 -1.000000
671 0 -1.000000
671 0 -1.000000
671 0 -1.000000
671 0 -1.000000
671 0 -1.000000
672 6 1.000000
672 0 -1.000000
672 0 -1.000000
672 0 -1.000000
672 0 -1.000000
672 0 -1.000000
672 0 -1.000000
672 0 -1.000000
673 6 1.000000
673 0 -1.000000
673 0 -1.000000
673 0 -1.000000
673 0 -1.000000
673 0 -1.000000
673 0 -1.000000
673 0 -1.000000
674 6 1.000000
674 0 -1.000000
674 0 -1.000000
674 0 -1.000000
674 0 -1.000000
674 0 -1.000000
674 0 -1.000000
674 0 -1.000000
675 6 1.000000
675 0 -1.000000
675 0 -1.000000
675 0 -1.000000
675 0 -1.000000
675 0 -1.000000
675 0 -1.000000
675 0 -1.000000
676 6 1.000000
676 0 -1.000000
676 0 -1.000000
676 0 -1.000000
676 0 -1.000000
676 0 -1.000000
676 0 -1.000000
676 0 -1.000000
677 6 1.000000
677 0 -1.000000
677 0 -1.000000
677 0 -1.000000
677 0 -1.000000
677 0 -1.000000
677 0 -1.000000
677 0 -1.000000
678 6 1.000000
678 0 -1.000000
678 0 -1.000000
678 0 -1.000000
678 0 -1.000000
678 0 -1.000000
678 0 -1.000000
678 0 -1.000000
679 6 1.000000
679 0 -1.000000
679 0 -1.000000
679 0 -1.000000
679 0 -1.000000
679 0 -1.000000
679 0 -1.000000
679 0 -1.000000
680 6 1.000000
680 0 -1.000000
680 0 -1.000000
680 0 -1.000000
680 0 -1.000000
680 0 -1.000000
680 0 -1.000000
680 0 -1.000000
681 6 1.000000
681 0 -1.000000
681 0 -1.000000
681 0 -1.000000
681 0 -1.000000
681 0 -1.000000
681 0 -1.000000
681 0 -1.000000
682 6 1.000000
682 0 -1.000000
682 0 -1.000000
682 0 -1.000000
682 0 -1.000000
682 0 -1.000000
682 0 -1.000000
682 0 -1.000000
683 6 1.000000
683 0 -1.000000
683 0 -1.000000
683 0 -1.000000
683 0 -1.000000
683 0 -1.000000
683 0 -1.000000
683 0 -1.000000
684 6 1.000000
684 0 -1.000000
684 0 -1.000000
684 0 -1.000000
684 0 -1.000000
684 0 -1.000000
684 0 -1.000000
684 0 -1.000000
685 6 1.000000
685 0 -1.000000
685 0 -1.000000
685 0 -1.000000
685 0 -1.000000
685 0 -1.000000
685 0 -1.000000
685 0 -1.000000
686 6 1.000000
686 0 -1.000000
686 0 -1.000000
686 0 -1.000000
686 0 -1.000000
686 0 -1.000000
686 0 -1.000000
686 0 -1.000000
687 6 1.000000
687 0 -1.000000
687 0 -1.000000
687 0 -1.000000
687 0 -1.000000
687 0 -1.000000
687 0 -1.000000
687 0 -1.000000
688 6 1.000000
688 0 -1.000000
688 0 -1.000000
688 0 -1.000000
688 0 -1.000000
688 0 -1.000000
688 0 -1.000000
688 0 -1.000000
689 6 1.000000
689 0 -1.000000
689 0 -1.000000
689 0 -1.000000
689 0 -1.000000
689 0 -1.000000
689 0 -1.000000
689 0 -1.000000
690 6 1.000000
690 0 -1.000000
690 0 -1.000000
690 0 -1.000000
690 0 -1.000000
690 0 -1.000000
690 0 -1.000000
690 0 -1.000000
691 6 1.000000
691 0 -1.000000
691 0 -1.000000
691 0 -1.000000
691 0 -1.000000
691 0 -1.000000
691 0 -1.000000
691 0 -1.000000
692 6 1.000000
692 0 -1.000000
692 0 -1.000000
692 0 -1.000000
692 0 -1.000000
692 0 -1.000000
692 0 -1.000000
692 0 -1.000000
693 6 0.500000
693 5 0.500000
693 0 -1.000000
693 0 -1.000000
693 0 -1.000000
693 0 -1.000000
693 0 -1.000000
693 0 -1.000000
694 6 0.500000
694 5 0.500000
694 0 -1.000000
694 0 -1.000000
694 0 -1.000000
694 0 -1.000000
694 0 -1.000000
694 0 -1.000000
695 6 0.500000
695 5 0.500000
695 0 -1.000000
695 0 -1.000000
695 0 -1.000000
695 0 -1.000000
695 0 -1.000000
695 0 -1.000000
696 6 0.500000
696 5 0.500000
696 0 -1.000000
696 0 -1.000000
696 0 -1.000000
696 0 -1.000000
696 0 -1.000000
696 0 -1.000000
697 6 0.500000
697 5 0.500000
697 0 -1.000000
697 0 -1.000000
697 0 -1.000000
697 0 -1.000000
697 0 -1.000000
697 0 -1.000000
698 6 0.500000
698 5 0.500000
698 0 -1.000000
698 0 -1.000000
698 0 -1.000000
698 0 -1.000000
698 0 -1.000000
698 0 -1.000000
699 5 0.500000
699 4 0.500000
699 0 -1.000000
699 0 -1.000000
699 0 -1.000000
699 0 -1.000000
699 0 -1.000000
699 0 -1.000000
700 5 0.500000
700 4 0.500000
700 0 -1.000000
700 0 -1.000000
700 0 -1.000000
700 0 -1.000000
700 0 -1.000000
700 0 -1.000000
701 6 0.500000
701 5 0.500000
701 0 -1.000000
701 0 -1.000000
701 0 -1.000000
701 0 -1.000000
701 0 -1.000000
701 0 -1.000000
702 6 0.500000
702 5 0.500000
702 0 -1.000000
702 0 -1.000000
702 0 -1.000000
702 0 -1.000000
702 0 -1.000000
702 0 -1.000000
703 6 0.500000
703 5 0.500000
703 0 -1.000000
703 0 -1.000000
703 0 -1.000000
703 0 -1.000000
703 0 -1.000000
703 0 -1.000000
704 5 0.500000
704 4 0.500000
704 0 -1.000000
704 0 -1.000000
704 0 -1.000000
704 0 -1.000000
704 0 -1.000000
704 0 -1.000000
705 6 0.500000
705 5 0.500000
705 0 -1.000000
705 0 -1.000000
705 0 -1.000000
705 0 -1.000000
705 0 -1.000000
705 0 -1.000000
706 5 0.500000
706 4 0.500000
706 0 -1.000000
706 0 -1.000000
706 0 -1.000000
706 0 -1.000000
706 0 -1.000000
706 0 -1.000000
707 5 0.500000
707 4 0.500000
707 0 -1.000000
707 0 -1.000000
707 0 -1.000000
707 0 -1.000000
707 0 -1.000000
707 0 -1.000000
708 5 0.500000
708 4 0.500000
708 0 -1.000000
708 0 -1.000000
708 0 -1.000000
708 0 -1.000000
708 0 -1.000000
708 0 -1.000000
709 6 0.500000
709 5 0.500000
709 0 -1.000000
709 0 -1.000000
709 0 -1.000000
709 0 -1.000000
709 0 -1.000000
709 0 -1.000000
710 6 0.500000
710 5 0.500000
710 0 -1.000000
710 0 -1.000000
710 0 -1.000000
710 0 -1.000000
710 0 -1.000000
710 0 -1.000000
711 6 0.500000
711 5 0.500000
711 0 -1.000000
711 0 -1.000000
711 0 -1.000000
711 0 -1.000000
711 0 -1.000000
711 0 -1.000000
712 6 0.500000
712 5 0.500000
712 0 -1.000000
712 0 -1.000000
712 0 -1.000000
712 0 -1.000000
712 0 -1.000000
712 0 -1.000000
713 6 0.500000
713 5 0.500000
713 0 -1.000000
713 0 -1.000000
713 0 -1.000000
713 0 -1.000000
713 0 -1.000000
713 0 -1.000000
714 6 0.500000
714 5 0.500000
714 0 -1.000000
714 0 -1.000000
714 0 -1.000000
714 0 -1.000000
714 0 -1.000000
714 0 -1.000000
715 6 0.500000
715 5 0.500000
715 0 -1.000000
715 0 -1.000000
715 0 -1.000000
715 0 -1.000000
715 0 -1.000000
715 0 -1.000000
716 6 0.500000
716 5 0.500000
716 0 -1.000000
716 0 -1.000000
716 0 -1.000000
716 0 -1.000000
716 0 -1.000000
716 0 -1.000000
717 5 0.500000
717 4 0.500000
717 0 -1.000000
717 0 -1.000000
717 0 -1.000000
717 0 -1.000000
717 0 -1.000000
717 0 -1.000000
718 6 0.500000
718 5 0.500000
718 0 -1.000000
718 0 -1.000000
718 0 -1.000000
718 0 -1.000000
718 0 -1.000000
718 0 -1.000000
719 6 0.500000
719 5 0.500000
719 0 -1.000000
719 0 -1.000000
719 0 -1.000000
719 0 -1.000000
719 0 -1.000000
719 0 -1.000000
720 5 0.500000
720 4 0.500000
720 0 -1.000000
720 0 -1.000000
720 0 -1.000000
720 0 -1.000000
720 0 -1.000000
720 0 -1.000000
721 5 0.500000
721 4 0.500000
721 0 -1.000000
721 0 -1.000000
721 0 -1.000000
721 0 -1.000000
721 0 -1.000000
721 0 -1.000000
722 6 0.500000
722 5 0.500000
722 0 -1.000000
722 0 -1.000000
722 0 -1.000000
722 0 -1.000000
722 0 -1.000000
722 0 -1.000000
723 5 0.500000
723 4 0.500000
723 0 -1.000000
723 0 -1.000000
723 0 -1.000000
723 0 -1.000000
723 0 -1.000000
723 0 -1.000000
724 5 0.500000
724 4 0.500000
724 0 -1.000000
724 0 -1.000000
724 0 -1.000000
724 0 -1.000000
724 0 -1.000000
724 0 -1.000000
725 6 0.500000
725 5 0.500000
725 0 -1.000000
725 0 -1.000000
725 0 -1.000000
725 0 -1.000000
725 0 -1.000000
725 0 -1.000000
726 6 0.500000
726 5 0.500000
726 0 -1.000000
726 0 -1.000000
726 0 -1.000000
726 0 -1.000000
726 0 -1.000000
726 0 -1.000000
727 5 0.500000
727 4 0.500000
727 0 -1.000000
727 0 -1.000000
727 0 -1.000000
727 0 -1.000000
727 0 -1.000000
727 0 -1.000000
728 6 0.500000
728 5 0.500000
728 0 -1.000000
728 0 -1.000000
728 0 -1.000000
728 0 -1.000000
728 0 -1.000000
728 0 -1.000000
729 6 0.500000
729 5 0.500000
729 0 -1.000000
729 0 -1.000000
729 0 -1.000000
729 0 -1.000000
729 0 -1.000000
729 0 -1.000000
730 6 0.500000
730 5 0.500000
730 0 -1.000000
730 0 -1.000000
730 0 -1.000000
730 0 -1.000000
730 0 -1.000000
730 0 -1.000000
731 6 0.500000
731 5 0.500000
731 0 -1.000000
731 0 -1.000000
731 0 -1.000000
731 0 -1.000000
731 0 -1.000000
731 0 -1.000000
732 6 0.500000
732 5 0.500000
732 0 -1.000000
732 0 -1.000000
732 0 -1.000000
732 0 -1.000000
732 0 -1.000000
732 0 -1.000000
733 6 0.500000
733 5 0.500000
733 0 -1.000000
733 0 -1.000000
733 0 -1.000000
733 0 -1.000000
733 0 -1.000000
733 0 -1.000000
734 6 0.500000
734 5 0.500000
734 0 -1.000000
734 0 -1.000000
734 0 -1.000000
734 0 -1.000000
734 0 -1.000000
734 0 -1.000000
735 5 0.500000
735 4 0.500000
735 0 -1.000000
735 0 -1.000000
735 0 -1.000000
735 0 -1.000000
735 0 -1.000000
735 0 -1.000000
736 6 0.500000
736 5 0.500000
736 0 -1.000000
736 0 -1.000000
736 0 -1.000000
736 0 -1.000000
736 0 -1.000000
736 0 -1.000000
737 6 0.500000
737 5 0.500000
737 0 -1.000000
737 0 -1.000000
737 0 -1.000000
737 0 -1.000000
737 0 -1.000000
737 0 -1.000000
738 6 0.500000
738 5 0.500000
738 0 -1.000000
738 0 -1.000000
738 0 -1.000000
738 0 -1.000000
738 0 -1.000000
738 0 -1.000000
739 5 0.500000
739 4 0.500000
739 0 -1.000000
739 0 -1.000000
739 0 -1.000000
739 0 -1.000000
739 0 -1.000000
739 0 -1.000000
740 5 0.500000
740 4 0.500000
740 0 -1.000000
740 0 -1.000000
740 0 -1.000000
740 0 -1.000000
740 0 -1.000000
740 0 -1.000000
741 6 0.500000
741 5 0.500000
741 0 -1.000000
741 0 -1.000000
741 0 -1.000000
741 0 -1.000000
741 0 -1.000000
741 0 -1.000000
742 6 0.500000
742 5 0.500000
742 0 -1.000000
742 0 -1.000000
742 0 -1.000000
742 0 -1.000000
742 0 -1.000000
742 0 -1.000000
743 5 0.500000
743 4 0.500000
743 0 -1.000000
743 0 -1.000000
743 0 -1.000000
743 0 -1.000000
743 0 -1.000000
743 0 -1.000000
744 5 0.500000
744 4 0.500000
744 0 -1.000000
744 0 -1.000000
744 0 -1.000000
744 0 -1.000000
744 0 -1.000000
744 0 -1.000000
745 5 0.500000
745 4 0.500000
745 0 -1.000000
745 0 -1.000000
745 0 -1.000000
745 0 -1.000000
745 0 -1.000000
745 0 -1.000000
746 6 0.500000
746 5 0.500000
746 0 -1.000000
746 0 -1.000000
746 0 -1.000000
746 0 -1.000000
746 0 -1.000000
746 0 -1.000000
747 6 0.500000
747 5 0.500000
747 0 -1.000000
747 0 -1.000000
747 0 -1.000000
747 0 -1.000000
747 0 -1.000000
747 0 -1.000000
748 6 0.500000
748 5 0.500000
748 0 -1.000000
748 0 -1.000000
748 0 -1.000000
748 0 -1.000000
748 0 -1.000000
748 0 -1.000000
749 6 0.500000
749 5 0.500000
749 0 -1.000000
749 0 -1.000000
749 0 -1.000000
749 0 -1.000000
749 0 -1.000000
749 0 -1.000000
750 6 0.500000
750 5 0.500000
750 0 -1.000000
750 0 -1.000000
750 0 -1.000000
750 0 -1.000000
750 0 -1.000000
750 0 -1.000000
751 6 0.500000
751 5 0.500000
751 0 -1.000000
751 0 -1.000000
751 0 -1.000000
751 0 -1.000000
751 0 -1.000000
751 0 -1.000000
752 6 0.500000
752 5 0.500000
752 0 -1.000000
752 0 -1.000000
752 0 -1.000000
752 0 -1.000000
752 0 -1.000000
752 0 -1.000000
753 5 0.500000
753 4 0.500000
753 0 -1.000000
753 0 -1.000000
753 0 -1.000000
753 0 -1.000000
753 0 -1.000000
753 0 -1.000000
754 6 0.500000
754 5 0.500000
754 0 -1.000000
754 0 -1.000000
754 0 -1.000000
754 0 -1.000000
754 0 -1.000000
754 0 -1.000000
755 6 0.500000
755 5 0.500000
755 0 -1.000000
755 0 -1.000000
755 0 -1.000000
755 0 -1.000000
755 0 -1.000000
755 0 -1.000000
756 5 0.500000
756 4 0.500000
756 0 -1.000000
756 0 -1.000000
756 0 -1.000000
756 0 -1.000000
756 0 -1.000000
756 0 -1.000000
757 6 0.500000
757 5 0.500000
757 0 -1.000000
757 0 -1.000000
757 0 -1.000000
757 0 -1.000000
757 0 -1.000000
757 0 -1.000000
758 5 0.500000
758 4 0.500000
758 0 -1.000000
758 0 -1.000000
758 0 -1.000000
758 0 -1.000000
758 0 -1.000000
758 0 -1.000000
759 5 0.500000
759 4 0.500000
759 0 -1.000000
759 0 -1.000000
759 0 -1.000000
759 0 -1.000000
759 0 -1.000000
759 0 -1.000000
760 6 0.500000
760 5 0.500000
760 0 -1.000000
760 0 -1.000000
760 0 -1.000000
760 0 -1.000000
760 0 -1.000000
760 0 -1.000000
761 5 0.500000
761 4 0.500000
761 0 -1.000000
761 0 -1.000000
761 0 -1.000000
761 0 -1.000000
761 0 -1.000000
761 0 -1.000000
762 6 0.500000
762 5 0.500000
762 0 -1.000000
762 0 -1.000000
762 0 -1.000000
762 0 -1.000000
762 0 -1.000000
762 0 -1.000000
763 6 0.500000
763 5 0.500000
763 0 -1.000000
763 0 -1.000000
763 0 -1.000000
763 0 -1.000000
763 0 -1.000000
763 0 -1.000000
764 5 0.500000
764 4 0.500000
764 0 -1.000000
764 0 -1.000000
764 0 -1.000000
764 0 -1.000000
764 0 -1.000000
764 0 -1.000000
765 6 1.000000
765 0 -1.000000
765 0 -1.000000
765 0 -1.000000
765 0 -1.000000
765 0 -1.000000
765 0 -1.000000
765 0 -1.000000
766 9 1.000000
766 0 -1.000000
766 0 -1.000000
766 0 -1.000000
766 0 -1.000000
766 0 -1.000000
766 0 -1.000000
766 0 -1.000000
767 9 1.000000
767 0 -1.000000
767 0 -1.000000
767 0 -1.000000
767 0 -1.000000
767 0 -1.000000
767 0 -1.000000
767 0 -1.000000
768 9 1.000000
768 0 -1.000000
768 0 -1.000000
768 0 -1.000000
768 0 -1.000000
768 0 -1.000000
768 0 -1.000000
768 0 -1.000000
769 6 1.000000
769 0 -1.000000
769 0 -1.000000
769 0 -1.000000
769 0 -1.000000
769 0 -1.000000
769 0 -1.000000
769 0 -1.000000
770 6 1.000000
770 0 -1.000000
770 0 -1.000000
770 0 -1.000000
770 0 -1.000000
770 0 -1.000000
770 0 -1.000000
770 0 -1.000000
771 9 0.500000
771 10 0.500000
771 0 -1.000000
771 0 -1.000000
771 0 -1.000000
771 0 -1.000000
771 0 -1.000000
771 0 -1.000000
772 9 1.000000
772 0 -1.000000
772 0 -1.000000
772 0 -1.000000
772 0 -1.000000
772 0 -1.000000
772 0 -1.000000
772 0 -1.000000
773 9 1.000000
773 0 -1.000000
773 0 -1.000000
773 0 -1.000000
773 0 -1.000000
773 0 -1.000000
773 0 -1.000000
773 0 -1.000000
774 9 0.500000
774 10 0.500000
774 0 -1.000000
774 0 -1.000000
774 0 -1.000000
774 0 -1.000000
774 0 -1.000000
774 0 -1.000000
775 9 0.500000
775 10 0.500000
775 0 -1.000000
775 0 -1.000000
775 0 -1.000000
775 0 -1.000000
775 0 -1.000000
775 0 -1.000000
776 9 1.000000
776 0 -1.000000
776 0 -1.000000
776 0 -1.000000
776 0 -1.000000
776 0 -1.000000
776 0 -1.000000
776 0 -1.000000
777 10 1.000000
777 0 -1.000000
777 0 -1.000000
777 0 -1.000000
777 0 -1.000000
777 0 -1.000000
777 0 -1.000000
777 0 -1.000000
778 10 1.000000
778 0 -1.000000
778 0 -1.000000
778 0 -1.000000
778 0 -1.000000
778 0 -1.000000
778 0 -1.000000
778 0 -1.000000
779 10 1.000000
779 0 -1.000000
779 0 -1.000000
779 0 -1.000000
779 0 -1.000000
779 0 -1.000000
779 0 -1.000000
779 0 -1.000000
780 10 1.000000
780 0 -1.000000
780 0 -1.000000
780 0 -1.000000
780 0 -1.000000
780 0 -1.000000
780 0 -1.000000
780 0 -1.000000
781 10 1.000000
781 0 -1.000000
781 0 -1.000000
781 0 -1.000000
781 0 -1.000000
781 0 -1.000000
781 0 -1.000000
781 0 -1.000000
782 10 1.000000
782 0 -1.000000
782 0 -1.000000
782 0 -1.000000
782 0 -1.000000
782 0 -1.000000
782 0 -1.000000
782 0 -1.000000
783 10 1.000000
783 0 -1.000000
783 0 -1.000000
783 0 -1.000000
783 0 -1.000000
783 0 -1.000000
783 0 -1.000000
783 0 -1.000000
784 10 1.000000
784 0 -1.000000
784 0 -1.000000
784 0 -1.000000
784 0 -1.000000
784 0 -1.000000
784 0 -1.000000
784 0 -1.000000
785 10 1.000000
785 0 -1.000000
785 0 -1.000000
785 0 -1.000000
785 0 -1.000000
785 0 -1.000000
785 0 -1.000000
785 0 -1.000000
786 9 0.500000
786 10 0.500000
786 0 -1.000000
786 0 -1.000000
786 0 -1.000000
786 0 -1.000000
786 0 -1.000000
786 0 -1.000000
787 9 0.500000
787 10 0.500000
787 0 -1.000000
787 0 -1.000000
787 0 -1.000000
787 0 -1.000000
787 0 -1.000000
787 0 -1.000000
788 10 1.000000
788 0 -1.000000
788 0 -1.000000
788 0 -1.000000
788 0 -1.000000
788 0 -1.000000
788 0 -1.000000
788 0 -1.000000
789 10 1.000000
789 0 -1.000000
789 0 -1.000000
789 0 -1.000000
789 0 -1.000000
789 0 -1.000000
789 0 -1.000000
789 0 -1.000000
790 10 1.000000
790 0 -1.000000
790 0 -1.000000
790 0 -1.000000
790 0 -1.000000
790 0 -1.000000
790 0 -1.000000
790 0 -1.000000
791 9 0.500000
791 10 0.500000
791 0 -1.000000
791 0 -1.000000
791 0 -1.000000
791 0 -1.000000
791 0 -1.000000
791 0 -1.000000
792 9 0.500000
792 10 0.500000
792 0 -1.000000
792 0 -1.000000
792 0 -1.000000
792 0 -1.000000
792 0 -1.000000
792 0 -1.000000
793 9 1.000000
793 0 -1.000000
793 0 -1.000000
793 0 -1.000000
793 0 -1.000000
793 0 -1.000000
793 0 -1.000000
793 0 -1.000000
794 9 1.000000
794 0 -1.000000
794 0 -1.000000
794 0 -1.000000
794 0 -1.000000
794 0 -1.000000
794 0 -1.000000
794 0 -1.000000
795 9 1.000000
795 0 -1.000000
795 0 -1.000000
795 0 -1.000000
