0 3 0.500000
0 50 0.500000
0 0 -1.000000
0 0 -1.000000
0 0 -1.000000
0 0 -1.000000
0 0 -1.000000
0 0 -1.000000
1 3 0.500000
1 50 0.500000
1 0 -1.000000
1 0 -1.000000
1 0 -1.000000
1 0 -1.000000
1 0 -1.000000
1 0 -1.000000
2 3 0.500000
2 50 0.500000
2 0 -1.000000
2 0 -1.000000
2 0 -1.000000
2 0 -1.000000
2 0 -1.000000
2 0 -1.000000
3 3 0.500000
3 50 0.500000
3 0 -1.000000
3 0 -1.000000
3 0 -1.000000
3 0 -1.000000
3 0 -1.000000
3 0 -1.000000
4 3 0.500000
4 50 0.500000
4 0 -1.000000
4 0 -1.000000
4 0 -1.000000
4 0 -1.000000
4 0 -1.000000
4 0 -1.000000
5 3 0.500000
5 50 0.500000
5 0 -1.000000
5 0 -1.000000
5 0 -1.000000
5 0 -1.000000
5 0 -1.000000
5 0 -1.000000
6 3 0.900000
6 49 0.100000
6 0 -1.000000
6 0 -1.000000
6 0 -1.000000
6 0 -1.000000
6 0 -1.000000
6 0 -1.000000
7 3 0.900000
7 49 0.100000
7 0 -1.000000
7 0 -1.000000
7 0 -1.000000
7 0 -1.000000
7 0 -1.000000
7 0 -1.000000
8 3 0.750000
8 49 0.250000
8 0 -1.000000
8 0 -1.000000
8 0 -1.000000
8 0 -1.000000
8 0 -1.000000
8 0 -1.000000
9 3 0.500000
9 51 0.500000
9 0 -1.000000
9 0 -1.000000
9 0 -1.000000
9 0 -1.000000
9 0 -1.000000
9 0 -1.000000
10 3 0.750000
10 51 0.250000
10 0 -1.000000
10 0 -1.000000
10 0 -1.000000
10 0 -1.000000
10 0 -1.000000
10 0 -1.000000
11 3 0.750000
11 49 0.250000
11 0 -1.000000
11 0 -1.000000
11 0 -1.000000
11 0 -1.000000
11 0 -1.000000
11 0 -1.000000
12 3 0.750000
12 49 0.250000
12 0 -1.000000
12 0 -1.000000
12 0 -1.000000
12 0 -1.000000
12 0 -1.000000
12 0 -1.000000
13 3 0.750000
13 49 0.250000
13 0 -1.000000
13 0 -1.000000
13 0 -1.000000
13 0 -1.000000
13 0 -1.000000
13 0 -1.000000
14 3 0.500000
14 51 0.500000
14 0 -1.000000
14 0 -1.000000
14 0 -1.000000
14 0 -1.000000
14 0 -1.000000
14 0 -1.000000
15 3 0.900000
15 49 0.100000
15 0 -1.000000
15 0 -1.000000
15 0 -1.000000
15 0 -1.000000
15 0 -1.000000
15 0 -1.000000
16 3 0.900000
16 49 0.100000
16 0 -1.000000
16 0 -1.000000
16 0 -1.000000
16 0 -1.000000
16 0 -1.000000
16 0 -1.000000
17 3 0.750000
17 49 0.250000
17 0 -1.000000
17 0 -1.000000
17 0 -1.000000
17 0 -1.000000
17 0 -1.000000
17 0 -1.000000
18 3 0.750000
18 49 0.250000
18 0 -1.000000
18 0 -1.000000
18 0 -1.000000
18 0 -1.000000
18 0 -1.000000
18 0 -1.000000
19 3 0.750000
19 49 0.250000
19 0 -1.000000
19 0 -1.000000
19 0 -1.000000
19 0 -1.000000
19 0 -1.000000
19 0 -1.000000
20 3 0.900000
20 49 0.100000
20 0 -1.000000
20 0 -1.000000
20 0 -1.000000
20 0 -1.000000
20 0 -1.000000
20 0 -1.000000
21 3 0.900000
21 51 0.100000
21 0 -1.000000
21 0 -1.000000
21 0 -1.000000
21 0 -1.000000
21 0 -1.000000
21 0 -1.000000
22 3 0.750000
22 49 0.250000
22 0 -1.000000
22 0 -1.000000
22 0 -1.000000
22 0 -1.000000
22 0 -1.000000
22 0 -1.000000
23 3 0.750000
23 49 0.250000
23 0 -1.000000
23 0 -1.000000
23 0 -1.000000
23 0 -1.000000
23 0 -1.000000
23 0 -1.000000
24 3 0.750000
24 49 0.250000
24 0 -1.000000
24 0 -1.000000
24 0 -1.000000
24 0 -1.000000
24 0 -1.000000
24 0 -1.000000
25 3 0.750000
25 51 0.250000
25 0 -1.000000
25 0 -1.000000
25 0 -1.000000
25 0 -1.000000
25 0 -1.000000
25 0 -1.000000
26 3 0.900000
26 51 0.100000
26 0 -1.000000
26 0 -1.000000
26 0 -1.000000
26 0 -1.000000
26 0 -1.000000
26 0 -1.000000
27 3 0.750000
27 49 0.250000
27 0 -1.000000
27 0 -1.000000
27 0 -1.000000
27 0 -1.000000
27 0 -1.000000
27 0 -1.000000
28 3 0.900000
28 51 0.100000
28 0 -1.000000
28 0 -1.000000
28 0 -1.000000
28 0 -1.000000
28 0 -1.000000
28 0 -1.000000
29 3 0.660965
29 4 0.339035
29 0 -1.000000
29 0 -1.000000
29 0 -1.000000
29 0 -1.000000
29 0 -1.000000
29 0 -1.000000
30 3 0.660965
30 4 0.339035
30 0 -1.000000
30 0 -1.000000
30 0 -1.000000
30 0 -1.000000
30 0 -1.000000
30 0 -1.000000
31 3 0.681828
31 4 0.318172
31 0 -1.000000
31 0 -1.000000
31 0 -1.000000
31 0 -1.000000
31 0 -1.000000
31 0 -1.000000
32 3 0.750000
32 49 0.250000
32 0 -1.000000
32 0 -1.000000
32 0 -1.000000
32 0 -1.000000
32 0 -1.000000
32 0 -1.000000
33 3 0.562094
33 4 0.437906
33 0 -1.000000
33 0 -1.000000
33 0 -1.000000
33 0 -1.000000
33 0 -1.000000
33 0 -1.000000
34 3 0.750000
34 49 0.250000
34 0 -1.000000
34 0 -1.000000
34 0 -1.000000
34 0 -1.000000
34 0 -1.000000
34 0 -1.000000
35 3 0.750000
35 49 0.250000
35 0 -1.000000
35 0 -1.000000
35 0 -1.000000
35 0 -1.000000
35 0 -1.000000
35 0 -1.000000
36 3 0.750000
36 49 0.250000
36 0 -1.000000
36 0 -1.000000
36 0 -1.000000
36 0 -1.000000
36 0 -1.000000
36 0 -1.000000
37 3 0.562266
37 4 0.256155
37 44 0.181580
37 0 -1.000000
37 0 -1.000000
37 0 -1.000000
37 0 -1.000000
37 0 -1.000000
38 3 0.562094
38 4 0.437906
38 0 -1.000000
38 0 -1.000000
38 0 -1.000000
38 0 -1.000000
38 0 -1.000000
38 0 -1.000000
39 3 0.900000
39 49 0.100000
39 0 -1.000000
39 0 -1.000000
39 0 -1.000000
39 0 -1.000000
39 0 -1.000000
39 0 -1.000000
40 3 0.750000
40 49 0.250000
40 0 -1.000000
40 0 -1.000000
40 0 -1.000000
40 0 -1.000000
40 0 -1.000000
40 0 -1.000000
41 3 0.750000
41 49 0.250000
41 0 -1.000000
41 0 -1.000000
41 0 -1.000000
41 0 -1.000000
41 0 -1.000000
41 0 -1.000000
42 3 0.750000
42 49 0.250000
42 0 -1.000000
42 0 -1.000000
42 0 -1.000000
42 0 -1.000000
42 0 -1.000000
42 0 -1.000000
43 3 0.750000
43 49 0.250000
43 0 -1.000000
43 0 -1.000000
43 0 -1.000000
43 0 -1.000000
43 0 -1.000000
43 0 -1.000000
44 3 0.900000
44 49 0.100000
44 0 -1.000000
44 0 -1.000000
44 0 -1.000000
44 0 -1.000000
44 0 -1.000000
44 0 -1.000000
45 3 0.750000
45 49 0.250000
45 0 -1.000000
45 0 -1.000000
45 0 -1.000000
45 0 -1.000000
45 0 -1.000000
45 0 -1.000000
46 3 0.900000
46 52 0.100000
46 0 -1.000000
46 0 -1.000000
46 0 -1.000000
46 0 -1.000000
46 0 -1.000000
46 0 -1.000000
47 3 0.750000
47 52 0.250000
47 0 -1.000000
47 0 -1.000000
47 0 -1.000000
47 0 -1.000000
47 0 -1.000000
47 0 -1.000000
48 3 0.750000
48 52 0.250000
48 0 -1.000000
48 0 -1.000000
48 0 -1.000000
48 0 -1.000000
48 0 -1.000000
48 0 -1.000000
49 3 0.900000
49 49 0.100000
49 0 -1.000000
49 0 -1.000000
49 0 -1.000000
49 0 -1.000000
49 0 -1.000000
49 0 -1.000000
50 3 0.750000
50 49 0.250000
50 0 -1.000000
50 0 -1.000000
50 0 -1.000000
50 0 -1.000000
50 0 -1.000000
50 0 -1.000000
51 3 0.750000
51 52 0.250000
51 0 -1.000000
51 0 -1.000000
51 0 -1.000000
51 0 -1.000000
51 0 -1.000000
51 0 -1.000000
52 3 0.900000
52 49 0.100000
52 0 -1.000000
52 0 -1.000000
52 0 -1.000000
52 0 -1.000000
52 0 -1.000000
52 0 -1.000000
53 3 0.900000
53 49 0.100000
53 0 -1.000000
53 0 -1.000000
53 0 -1.000000
53 0 -1.000000
53 0 -1.000000
53 0 -1.000000
54 3 0.900000
54 49 0.100000
54 0 -1.000000
54 0 -1.000000
54 0 -1.000000
54 0 -1.000000
54 0 -1.000000
54 0 -1.000000
55 3 0.750000
55 52 0.250000
55 0 -1.000000
55 0 -1.000000
55 0 -1.000000
55 0 -1.000000
55 0 -1.000000
55 0 -1.000000
56 3 0.750000
56 52 0.250000
56 0 -1.000000
56 0 -1.000000
56 0 -1.000000
56 0 -1.000000
56 0 -1.000000
56 0 -1.000000
57 3 0.750000
57 52 0.250000
57 0 -1.000000
57 0 -1.000000
57 0 -1.000000
57 0 -1.000000
57 0 -1.000000
57 0 -1.000000
58 3 0.900000
58 52 0.100000
58 0 -1.000000
58 0 -1.000000
58 0 -1.000000
58 0 -1.000000
58 0 -1.000000
58 0 -1.000000
59 3 0.750000
59 52 0.250000
59 0 -1.000000
59 0 -1.000000
59 0 -1.000000
59 0 -1.000000
59 0 -1.000000
59 0 -1.000000
60 3 0.750000
60 52 0.250000
60 0 -1.000000
60 0 -1.000000
60 0 -1.000000
60 0 -1.000000
60 0 -1.000000
60 0 -1.000000
61 3 0.500000
61 52 0.500000
61 0 -1.000000
61 0 -1.000000
61 0 -1.000000
61 0 -1.000000
61 0 -1.000000
61 0 -1.000000
62 3 0.750000
62 52 0.250000
62 0 -1.000000
62 0 -1.000000
62 0 -1.000000
62 0 -1.000000
62 0 -1.000000
62 0 -1.000000
63 3 0.500000
63 52 0.500000
63 0 -1.000000
63 0 -1.000000
63 0 -1.000000
63 0 -1.000000
63 0 -1.000000
63 0 -1.000000
64 3 0.500000
64 52 0.500000
64 0 -1.000000
64 0 -1.000000
64 0 -1.000000
64 0 -1.000000
64 0 -1.000000
64 0 -1.000000
65 3 0.750000
65 52 0.250000
65 0 -1.000000
65 0 -1.000000
65 0 -1.000000
65 0 -1.000000
65 0 -1.000000
65 0 -1.000000
66 3 0.750000
66 52 0.250000
66 0 -1.000000
66 0 -1.000000
66 0 -1.000000
66 0 -1.000000
66 0 -1.000000
66 0 -1.000000
67 3 0.750000
67 52 0.250000
67 0 -1.000000
67 0 -1.000000
67 0 -1.000000
67 0 -1.000000
67 0 -1.000000
67 0 -1.000000
68 3 0.500000
68 52 0.500000
68 0 -1.000000
68 0 -1.000000
68 0 -1.000000
68 0 -1.000000
68 0 -1.000000
68 0 -1.000000
69 3 1.000000
69 0 -1.000000
69 0 -1.000000
69 0 -1.000000
69 0 -1.000000
69 0 -1.000000
69 0 -1.000000
69 0 -1.000000
70 3 1.000000
70 0 -1.000000
70 0 -1.000000
70 0 -1.000000
70 0 -1.000000
70 0 -1.000000
70 0 -1.000000
70 0 -1.000000
71 3 0.750000
71 52 0.250000
71 0 -1.000000
71 0 -1.000000
71 0 -1.000000
71 0 -1.000000
71 0 -1.000000
71 0 -1.000000
72 3 0.750000
72 52 0.250000
72 0 -1.000000
72 0 -1.000000
72 0 -1.000000
72 0 -1.000000
72 0 -1.000000
72 0 -1.000000
73 3 0.750000
73 52 0.250000
73 0 -1.000000
73 0 -1.000000
73 0 -1.000000
73 0 -1.000000
73 0 -1.000000
73 0 -1.000000
74 3 1.000000
74 0 -1.000000
74 0 -1.000000
74 0 -1.000000
74 0 -1.000000
74 0 -1.000000
74 0 -1.000000
74 0 -1.000000
75 3 0.500000
75 52 0.500000
75 0 -1.000000
75 0 -1.000000
75 0 -1.000000
75 0 -1.000000
75 0 -1.000000
75 0 -1.000000
76 3 0.500000
76 52 0.500000
76 0 -1.000000
76 0 -1.000000
76 0 -1.000000
76 0 -1.000000
76 0 -1.000000
76 0 -1.000000
77 3 0.750000
77 52 0.250000
77 0 -1.000000
77 0 -1.000000
77 0 -1.000000
77 0 -1.000000
77 0 -1.000000
77 0 -1.000000
78 3 0.750000
78 52 0.250000
78 0 -1.000000
78 0 -1.000000
78 0 -1.000000
78 0 -1.000000
78 0 -1.000000
78 0 -1.000000
79 3 0.750000
79 52 0.250000
79 0 -1.000000
79 0 -1.000000
79 0 -1.000000
79 0 -1.000000
79 0 -1.000000
79 0 -1.000000
80 3 0.500000
80 52 0.500000
80 0 -1.000000
80 0 -1.000000
80 0 -1.000000
80 0 -1.000000
80 0 -1.000000
80 0 -1.000000
81 3 0.500000
81 52 0.500000
81 0 -1.000000
81 0 -1.000000
81 0 -1.000000
81 0 -1.000000
81 0 -1.000000
81 0 -1.000000
82 3 0.750000
82 52 0.250000
82 0 -1.000000
82 0 -1.000000
82 0 -1.000000
82 0 -1.000000
82 0 -1.000000
82 0 -1.000000
83 3 0.750000
83 52 0.250000
83 0 -1.000000
83 0 -1.000000
83 0 -1.000000
83 0 -1.000000
83 0 -1.000000
83 0 -1.000000
84 3 0.750000
84 52 0.250000
84 0 -1.000000
84 0 -1.000000
84 0 -1.000000
84 0 -1.000000
84 0 -1.000000
84 0 -1.000000
85 3 0.500000
85 52 0.500000
85 0 -1.000000
85 0 -1.000000
85 0 -1.000000
85 0 -1.000000
85 0 -1.000000
85 0 -1.000000
86 3 0.500000
86 52 0.500000
86 0 -1.000000
86 0 -1.000000
86 0 -1.000000
86 0 -1.000000
86 0 -1.000000
86 0 -1.000000
87 3 0.317242
87 4 0.567076
87 5 0.115683
87 0 -1.000000
87 0 -1.000000
87 0 -1.000000
87 0 -1.000000
87 0 -1.000000
88 3 0.432908
88 4 0.452410
88 5 0.114682
88 0 -1.000000
88 0 -1.000000
88 0 -1.000000
88 0 -1.000000
88 0 -1.000000
89 3 1.000000
89 0 -1.000000
89 0 -1.000000
89 0 -1.000000
89 0 -1.000000
89 0 -1.000000
89 0 -1.000000
89 0 -1.000000
90 3 1.000000
90 0 -1.000000
90 0 -1.000000
90 0 -1.000000
90 0 -1.000000
90 0 -1.000000
90 0 -1.000000
90 0 -1.000000
91 3 1.000000
91 0 -1.000000
91 0 -1.000000
91 0 -1.000000
91 0 -1.000000
91 0 -1.000000
91 0 -1.000000
91 0 -1.000000
92 3 0.317242
92 4 0.567076
92 5 0.115683
92 0 -1.000000
92 0 -1.000000
92 0 -1.000000
92 0 -1.000000
92 0 -1.000000
93 3 0.900000
93 53 0.100000
93 0 -1.000000
93 0 -1.000000
93 0 -1.000000
93 0 -1.000000
93 0 -1.000000
93 0 -1.000000
94 3 0.900000
94 52 0.100000
94 0 -1.000000
94 0 -1.000000
94 0 -1.000000
94 0 -1.000000
94 0 -1.000000
94 0 -1.000000
95 3 1.000000
95 0 -1.000000
95 0 -1.000000
95 0 -1.000000
95 0 -1.000000
95 0 -1.000000
95 0 -1.000000
95 0 -1.000000
96 3 1.000000
96 0 -1.000000
96 0 -1.000000
96 0 -1.000000
96 0 -1.000000
96 0 -1.000000
96 0 -1.000000
96 0 -1.000000
97 3 1.000000
97 0 -1.000000
97 0 -1.000000
97 0 -1.000000
97 0 -1.000000
97 0 -1.000000
97 0 -1.000000
97 0 -1.000000
98 3 0.900000
98 53 0.100000
98 0 -1.000000
98 0 -1.000000
98 0 -1.000000
98 0 -1.000000
98 0 -1.000000
98 0 -1.000000
99 3 0.500000
99 53 0.500000
99 0 -1.000000
99 0 -1.000000
99 0 -1.000000
99 0 -1.000000
99 0 -1.000000
99 0 -1.000000
100 3 0.500000
100 53 0.500000
100 0 -1.000000
100 0 -1.000000
100 0 -1.000000
100 0 -1.000000
100 0 -1.000000
100 0 -1.000000
101 3 0.900000
101 53 0.100000
101 0 -1.000000
101 0 -1.000000
101 0 -1.000000
101 0 -1.000000
101 0 -1.000000
101 0 -1.000000
102 3 0.900000
102 53 0.100000
102 0 -1.000000
102 0 -1.000000
102 0 -1.000000
102 0 -1.000000
102 0 -1.000000
102 0 -1.000000
103 3 0.900000
103 53 0.100000
103 0 -1.000000
103 0 -1.000000
103 0 -1.000000
103 0 -1.000000
103 0 -1.000000
103 0 -1.000000
104 3 0.500000
104 53 0.500000
104 0 -1.000000
104 0 -1.000000
104 0 -1.000000
104 0 -1.000000
104 0 -1.000000
104 0 -1.000000
105 3 0.900000
105 53 0.100000
105 0 -1.000000
105 0 -1.000000
105 0 -1.000000
105 0 -1.000000
105 0 -1.000000
105 0 -1.000000
106 3 0.900000
106 53 0.100000
106 0 -1.000000
106 0 -1.000000
106 0 -1.000000
106 0 -1.000000
106 0 -1.000000
106 0 -1.000000
107 3 0.500000
107 53 0.500000
107 0 -1.000000
107 0 -1.000000
107 0 -1.000000
107 0 -1.000000
107 0 -1.000000
107 0 -1.000000
108 3 0.500000
108 53 0.500000
108 0 -1.000000
108 0 -1.000000
108 0 -1.000000
108 0 -1.000000
108 0 -1.000000
108 0 -1.000000
109 3 0.500000
109 53 0.500000
109 0 -1.000000
109 0 -1.000000
109 0 -1.000000
109 0 -1.000000
109 0 -1.000000
109 0 -1.000000
110 3 0.900000
110 53 0.100000
110 0 -1.000000
110 0 -1.000000
110 0 -1.000000
110 0 -1.000000
110 0 -1.000000
110 0 -1.000000
111 3 0.900000
111 53 0.100000
111 0 -1.000000
111 0 -1.000000
111 0 -1.000000
111 0 -1.000000
111 0 -1.000000
111 0 -1.000000
112 3 0.440676
112 4 0.449500
112 5 0.109825
112 0 -1.000000
112 0 -1.000000
112 0 -1.000000
112 0 -1.000000
112 0 -1.000000
113 3 0.546423
113 4 0.453577
113 0 -1.000000
113 0 -1.000000
113 0 -1.000000
113 0 -1.000000
113 0 -1.000000
113 0 -1.000000
114 3 0.546423
114 4 0.453577
114 0 -1.000000
114 0 -1.000000
114 0 -1.000000
114 0 -1.000000
114 0 -1.000000
114 0 -1.000000
115 3 0.750000
115 51 0.250000
115 0 -1.000000
115 0 -1.000000
115 0 -1.000000
115 0 -1.000000
115 0 -1.000000
115 0 -1.000000
116 3 0.900000
116 53 0.100000
116 0 -1.000000
116 0 -1.000000
116 0 -1.000000
116 0 -1.000000
116 0 -1.000000
116 0 -1.000000
117 3 0.546423
117 4 0.453577
117 0 -1.000000
117 0 -1.000000
117 0 -1.000000
117 0 -1.000000
117 0 -1.000000
117 0 -1.000000
118 3 0.499995
118 4 0.400004
118 51 0.100000
118 0 -1.000000
118 0 -1.000000
118 0 -1.000000
118 0 -1.000000
118 0 -1.000000
119 3 0.750000
119 51 0.250000
119 0 -1.000000
119 0 -1.000000
119 0 -1.000000
119 0 -1.000000
119 0 -1.000000
119 0 -1.000000
120 3 0.750000
120 51 0.250000
120 0 -1.000000
120 0 -1.000000
120 0 -1.000000
120 0 -1.000000
120 0 -1.000000
120 0 -1.000000
121 3 0.750000
121 51 0.250000
121 0 -1.000000
121 0 -1.000000
121 0 -1.000000
121 0 -1.000000
121 0 -1.000000
121 0 -1.000000
122 3 0.546423
122 4 0.453577
122 0 -1.000000
122 0 -1.000000
122 0 -1.000000
122 0 -1.000000
122 0 -1.000000
122 0 -1.000000
123 3 0.750000
123 51 0.250000
123 0 -1.000000
123 0 -1.000000
123 0 -1.000000
123 0 -1.000000
123 0 -1.000000
123 0 -1.000000
124 3 0.750000
124 51 0.250000
124 0 -1.000000
124 0 -1.000000
124 0 -1.000000
124 0 -1.000000
124 0 -1.000000
124 0 -1.000000
125 3 0.500000
125 51 0.500000
125 0 -1.000000
125 0 -1.000000
125 0 -1.000000
125 0 -1.000000
125 0 -1.000000
125 0 -1.000000
126 3 0.500000
126 51 0.500000
126 0 -1.000000
126 0 -1.000000
126 0 -1.000000
126 0 -1.000000
126 0 -1.000000
126 0 -1.000000
127 3 0.750000
127 51 0.250000
127 0 -1.000000
127 0 -1.000000
127 0 -1.000000
127 0 -1.000000
127 0 -1.000000
127 0 -1.000000
128 3 0.750000
128 51 0.250000
128 0 -1.000000
128 0 -1.000000
128 0 -1.000000
128 0 -1.000000
128 0 -1.000000
128 0 -1.000000
129 3 0.750000
129 51 0.250000
129 0 -1.000000
129 0 -1.000000
129 0 -1.000000
129 0 -1.000000
129 0 -1.000000
129 0 -1.000000
130 3 0.500621
130 4 0.399379
130 51 0.100000
130 0 -1.000000
130 0 -1.000000
130 0 -1.000000
130 0 -1.000000
130 0 -1.000000
131 3 0.660965
131 4 0.339035
131 0 -1.000000
131 0 -1.000000
131 0 -1.000000
131 0 -1.000000
131 0 -1.000000
131 0 -1.000000
132 3 0.660965
132 4 0.339035
132 0 -1.000000
132 0 -1.000000
132 0 -1.000000
132 0 -1.000000
132 0 -1.000000
132 0 -1.000000
133 3 0.900000
133 51 0.100000
133 0 -1.000000
133 0 -1.000000
133 0 -1.000000
133 0 -1.000000
133 0 -1.000000
133 0 -1.000000
134 3 0.750000
134 51 0.250000
134 0 -1.000000
134 0 -1.000000
134 0 -1.000000
134 0 -1.000000
134 0 -1.000000
134 0 -1.000000
135 3 0.750000
135 51 0.250000
135 0 -1.000000
135 0 -1.000000
135 0 -1.000000
135 0 -1.000000
135 0 -1.000000
135 0 -1.000000
136 3 0.900000
136 51 0.100000
136 0 -1.000000
136 0 -1.000000
136 0 -1.000000
136 0 -1.000000
136 0 -1.000000
136 0 -1.000000
137 3 0.750000
137 51 0.250000
137 0 -1.000000
137 0 -1.000000
137 0 -1.000000
137 0 -1.000000
137 0 -1.000000
137 0 -1.000000
138 3 0.750000
138 51 0.250000
138 0 -1.000000
138 0 -1.000000
138 0 -1.000000
138 0 -1.000000
138 0 -1.000000
138 0 -1.000000
139 3 0.500000
139 51 0.500000
139 0 -1.000000
139 0 -1.000000
139 0 -1.000000
139 0 -1.000000
139 0 -1.000000
139 0 -1.000000
140 3 0.750000
140 51 0.250000
140 0 -1.000000
140 0 -1.000000
140 0 -1.000000
140 0 -1.000000
140 0 -1.000000
140 0 -1.000000
141 3 0.500000
141 51 0.500000
141 0 -1.000000
141 0 -1.000000
141 0 -1.000000
141 0 -1.000000
141 0 -1.000000
141 0 -1.000000
142 3 0.750000
142 51 0.250000
142 0 -1.000000
142 0 -1.000000
142 0 -1.000000
142 0 -1.000000
142 0 -1.000000
142 0 -1.000000
143 3 0.500000
143 51 0.500000
143 0 -1.000000
143 0 -1.000000
143 0 -1.000000
143 0 -1.000000
143 0 -1.000000
143 0 -1.000000
144 3 0.500000
144 51 0.500000
144 0 -1.000000
144 0 -1.000000
144 0 -1.000000
144 0 -1.000000
144 0 -1.000000
144 0 -1.000000
145 3 0.500000
145 51 0.500000
145 0 -1.000000
145 0 -1.000000
145 0 -1.000000
145 0 -1.000000
145 0 -1.000000
145 0 -1.000000
146 3 0.500000
146 51 0.500000
146 0 -1.000000
146 0 -1.000000
146 0 -1.000000
146 0 -1.000000
146 0 -1.000000
146 0 -1.000000
147 3 0.500000
147 51 0.500000
147 0 -1.000000
147 0 -1.000000
147 0 -1.000000
147 0 -1.000000
147 0 -1.000000
147 0 -1.000000
148 3 0.500000
148 51 0.500000
148 0 -1.000000
148 0 -1.000000
148 0 -1.000000
148 0 -1.000000
148 0 -1.000000
148 0 -1.000000
149 3 0.500000
149 51 0.500000
149 0 -1.000000
149 0 -1.000000
149 0 -1.000000
149 0 -1.000000
149 0 -1.000000
149 0 -1.000000
150 3 0.500000
150 51 0.500000
150 0 -1.000000
150 0 -1.000000
150 0 -1.000000
150 0 -1.000000
150 0 -1.000000
150 0 -1.000000
151 3 0.500000
151 51 0.500000
151 0 -1.000000
151 0 -1.000000
151 0 -1.000000
151 0 -1.000000
151 0 -1.000000
151 0 -1.000000
152 3 0.500000
152 51 0.500000
152 0 -1.000000
152 0 -1.000000
152 0 -1.000000
152 0 -1.000000
152 0 -1.000000
152 0 -1.000000
153 3 0.500000
153 51 0.500000
153 0 -1.000000
153 0 -1.000000
153 0 -1.000000
153 0 -1.000000
153 0 -1.000000
153 0 -1.000000
154 3 0.500000
154 51 0.500000
154 0 -1.000000
154 0 -1.000000
154 0 -1.000000
154 0 -1.000000
154 0 -1.000000
154 0 -1.000000
155 3 0.500000
155 51 0.500000
155 0 -1.000000
155 0 -1.000000
155 0 -1.000000
155 0 -1.000000
155 0 -1.000000
155 0 -1.000000
156 3 0.500000
156 51 0.500000
156 0 -1.000000
156 0 -1.000000
156 0 -1.000000
156 0 -1.000000
156 0 -1.000000
156 0 -1.000000
157 3 0.500000
157 51 0.500000
157 0 -1.000000
157 0 -1.000000
157 0 -1.000000
157 0 -1.000000
157 0 -1.000000
157 0 -1.000000
158 3 0.500000
158 51 0.500000
158 0 -1.000000
158 0 -1.000000
158 0 -1.000000
158 0 -1.000000
158 0 -1.000000
158 0 -1.000000
159 3 0.500000
159 51 0.500000
159 0 -1.000000
159 0 -1.000000
159 0 -1.000000
159 0 -1.000000
159 0 -1.000000
159 0 -1.000000
160 3 0.500000
160 51 0.500000
160 0 -1.000000
160 0 -1.000000
160 0 -1.000000
160 0 -1.000000
160 0 -1.000000
160 0 -1.000000
161 3 0.500000
161 51 0.500000
161 0 -1.000000
161 0 -1.000000
161 0 -1.000000
161 0 -1.000000
161 0 -1.000000
161 0 -1.000000
162 3 0.500000
162 51 0.500000
162 0 -1.000000
162 0 -1.000000
162 0 -1.000000
162 0 -1.000000
162 0 -1.000000
162 0 -1.000000
163 3 0.500000
163 51 0.500000
163 0 -1.000000
163 0 -1.000000
163 0 -1.000000
163 0 -1.000000
163 0 -1.000000
163 0 -1.000000
164 3 0.500000
164 51 0.500000
164 0 -1.000000
164 0 -1.000000
164 0 -1.000000
164 0 -1.000000
164 0 -1.000000
164 0 -1.000000
165 3 0.500000
165 51 0.500000
165 0 -1.000000
165 0 -1.000000
165 0 -1.000000
165 0 -1.000000
165 0 -1.000000
165 0 -1.000000
166 3 0.500000
166 51 0.500000
166 0 -1.000000
166 0 -1.000000
166 0 -1.000000
166 0 -1.000000
166 0 -1.000000
166 0 -1.000000
167 3 0.750000
167 51 0.250000
167 0 -1.000000
167 0 -1.000000
167 0 -1.000000
167 0 -1.000000
167 0 -1.000000
167 0 -1.000000
168 3 0.750000
168 51 0.250000
168 0 -1.000000
168 0 -1.000000
168 0 -1.000000
168 0 -1.000000
168 0 -1.000000
168 0 -1.000000
169 3 0.750000
169 51 0.250000
169 0 -1.000000
169 0 -1.000000
169 0 -1.000000
169 0 -1.000000
169 0 -1.000000
169 0 -1.000000
170 3 0.500000
170 51 0.500000
170 0 -1.000000
170 0 -1.000000
170 0 -1.000000
170 0 -1.000000
170 0 -1.000000
170 0 -1.000000
171 3 0.499995
171 4 0.400004
171 51 0.100000
171 0 -1.000000
171 0 -1.000000
171 0 -1.000000
171 0 -1.000000
171 0 -1.000000
172 3 0.500621
172 4 0.399379
172 51 0.100000
172 0 -1.000000
172 0 -1.000000
172 0 -1.000000
172 0 -1.000000
172 0 -1.000000
173 3 0.750000
173 51 0.250000
173 0 -1.000000
173 0 -1.000000
173 0 -1.000000
173 0 -1.000000
173 0 -1.000000
173 0 -1.000000
174 3 0.750000
174 51 0.250000
174 0 -1.000000
174 0 -1.000000
174 0 -1.000000
174 0 -1.000000
174 0 -1.000000
174 0 -1.000000
175 3 0.750000
175 51 0.250000
175 0 -1.000000
175 0 -1.000000
175 0 -1.000000
175 0 -1.000000
175 0 -1.000000
175 0 -1.000000
176 3 0.499995
176 4 0.400004
176 51 0.100000
176 0 -1.000000
176 0 -1.000000
176 0 -1.000000
176 0 -1.000000
176 0 -1.000000
177 3 0.750000
177 51 0.250000
177 0 -1.000000
177 0 -1.000000
177 0 -1.000000
177 0 -1.000000
177 0 -1.000000
177 0 -1.000000
178 3 0.750000
178 51 0.250000
178 0 -1.000000
178 0 -1.000000
178 0 -1.000000
178 0 -1.000000
178 0 -1.000000
178 0 -1.000000
179 3 0.500000
179 51 0.500000
179 0 -1.000000
179 0 -1.000000
179 0 -1.000000
179 0 -1.000000
179 0 -1.000000
179 0 -1.000000
180 3 0.500000
180 51 0.500000
180 0 -1.000000
180 0 -1.000000
180 0 -1.000000
180 0 -1.000000
180 0 -1.000000
180 0 -1.000000
181 3 0.500000
181 51 0.500000
181 0 -1.000000
181 0 -1.000000
181 0 -1.000000
181 0 -1.000000
181 0 -1.000000
181 0 -1.000000
182 3 0.750000
182 51 0.250000
182 0 -1.000000
182 0 -1.000000
182 0 -1.000000
182 0 -1.000000
182 0 -1.000000
182 0 -1.000000
183 3 0.500000
183 51 0.500000
183 0 -1.000000
183 0 -1.000000
183 0 -1.000000
183 0 -1.000000
183 0 -1.000000
183 0 -1.000000
184 3 0.500000
184 51 0.500000
184 0 -1.000000
184 0 -1.000000
184 0 -1.000000
184 0 -1.000000
184 0 -1.000000
184 0 -1.000000
185 3 0.750000
185 51 0.250000
185 0 -1.000000
185 0 -1.000000
185 0 -1.000000
185 0 -1.000000
185 0 -1.000000
185 0 -1.000000
186 3 0.750000
186 51 0.250000
186 0 -1.000000
186 0 -1.000000
186 0 -1.000000
186 0 -1.000000
186 0 -1.000000
186 0 -1.000000
187 3 0.750000
187 51 0.250000
187 0 -1.000000
187 0 -1.000000
187 0 -1.000000
187 0 -1.000000
187 0 -1.000000
187 0 -1.000000
188 3 0.500000
188 51 0.500000
188 0 -1.000000
188 0 -1.000000
188 0 -1.000000
188 0 -1.000000
188 0 -1.000000
188 0 -1.000000
189 3 0.750000
189 51 0.250000
189 0 -1.000000
189 0 -1.000000
189 0 -1.000000
189 0 -1.000000
189 0 -1.000000
189 0 -1.000000
190 3 0.500000
190 53 0.500000
190 0 -1.000000
190 0 -1.000000
190 0 -1.000000
190 0 -1.000000
190 0 -1.000000
190 0 -1.000000
191 3 0.500000
191 53 0.500000
191 0 -1.000000
191 0 -1.000000
191 0 -1.000000
191 0 -1.000000
191 0 -1.000000
191 0 -1.000000
192 3 0.500000
192 53 0.500000
192 0 -1.000000
192 0 -1.000000
192 0 -1.000000
192 0 -1.000000
192 0 -1.000000
192 0 -1.000000
193 3 0.750000
193 51 0.250000
193 0 -1.000000
193 0 -1.000000
193 0 -1.000000
193 0 -1.000000
193 0 -1.000000
193 0 -1.000000
194 3 0.750000
194 51 0.250000
194 0 -1.000000
194 0 -1.000000
194 0 -1.000000
194 0 -1.000000
194 0 -1.000000
194 0 -1.000000
195 3 0.750000
195 51 0.250000
195 0 -1.000000
195 0 -1.000000
195 0 -1.000000
195 0 -1.000000
195 0 -1.000000
195 0 -1.000000
196 3 0.750000
196 51 0.250000
196 0 -1.000000
196 0 -1.000000
196 0 -1.000000
196 0 -1.000000
196 0 -1.000000
196 0 -1.000000
197 3 0.500000
197 53 0.500000
197 0 -1.000000
197 0 -1.000000
197 0 -1.000000
197 0 -1.000000
197 0 -1.000000
197 0 -1.000000
198 3 0.500000
198 53 0.500000
198 0 -1.000000
198 0 -1.000000
198 0 -1.000000
198 0 -1.000000
198 0 -1.000000
198 0 -1.000000
199 3 0.900000
199 53 0.100000
199 0 -1.000000
199 0 -1.000000
199 0 -1.000000
199 0 -1.000000
199 0 -1.000000
199 0 -1.000000
200 3 0.750000
200 51 0.250000
200 0 -1.000000
200 0 -1.000000
200 0 -1.000000
200 0 -1.000000
200 0 -1.000000
200 0 -1.000000
201 3 0.900000
201 53 0.100000
201 0 -1.000000
201 0 -1.000000
201 0 -1.000000
201 0 -1.000000
201 0 -1.000000
201 0 -1.000000
202 3 0.750000
202 52 0.250000
202 0 -1.000000
202 0 -1.000000
202 0 -1.000000
202 0 -1.000000
202 0 -1.000000
202 0 -1.000000
203 3 0.750000
203 52 0.250000
203 0 -1.000000
203 0 -1.000000
203 0 -1.000000
203 0 -1.000000
203 0 -1.000000
203 0 -1.000000
204 3 0.750000
204 52 0.250000
204 0 -1.000000
204 0 -1.000000
204 0 -1.000000
204 0 -1.000000
204 0 -1.000000
204 0 -1.000000
205 3 0.900000
205 53 0.100000
205 0 -1.000000
205 0 -1.000000
205 0 -1.000000
205 0 -1.000000
205 0 -1.000000
205 0 -1.000000
206 3 0.900000
206 53 0.100000
206 0 -1.000000
206 0 -1.000000
206 0 -1.000000
206 0 -1.000000
206 0 -1.000000
206 0 -1.000000
207 3 0.900000
207 53 0.100000
207 0 -1.000000
207 0 -1.000000
207 0 -1.000000
207 0 -1.000000
207 0 -1.000000
207 0 -1.000000
208 3 0.750000
208 52 0.250000
208 0 -1.000000
208 0 -1.000000
208 0 -1.000000
208 0 -1.000000
208 0 -1.000000
208 0 -1.000000
209 3 0.900000
209 52 0.100000
209 0 -1.000000
209 0 -1.000000
209 0 -1.000000
209 0 -1.000000
209 0 -1.000000
209 0 -1.000000
210 3 0.900000
210 52 0.100000
210 0 -1.000000
210 0 -1.000000
210 0 -1.000000
210 0 -1.000000
210 0 -1.000000
210 0 -1.000000
211 3 0.900000
211 53 0.100000
211 0 -1.000000
211 0 -1.000000
211 0 -1.000000
211 0 -1.000000
211 0 -1.000000
211 0 -1.000000
212 3 0.900000
212 53 0.100000
212 0 -1.000000
212 0 -1.000000
212 0 -1.000000
212 0 -1.000000
212 0 -1.000000
212 0 -1.000000
213 3 1.000000
213 0 -1.000000
213 0 -1.000000
213 0 -1.000000
213 0 -1.000000
213 0 -1.000000
213 0 -1.000000
213 0 -1.000000
214 3 0.900000
214 52 0.100000
214 0 -1.000000
214 0 -1.000000
214 0 -1.000000
214 0 -1.000000
214 0 -1.000000
214 0 -1.000000
215 3 0.750000
215 52 0.250000
215 0 -1.000000
215 0 -1.000000
215 0 -1.000000
215 0 -1.000000
215 0 -1.000000
215 0 -1.000000
216 3 0.750000
216 52 0.250000
216 0 -1.000000
216 0 -1.000000
216 0 -1.000000
216 0 -1.000000
216 0 -1.000000
216 0 -1.000000
217 3 1.000000
217 0 -1.000000
217 0 -1.000000
217 0 -1.000000
217 0 -1.000000
217 0 -1.000000
217 0 -1.000000
217 0 -1.000000
218 3 1.000000
218 0 -1.000000
218 0 -1.000000
218 0 -1.000000
218 0 -1.000000
218 0 -1.000000
218 0 -1.000000
218 0 -1.000000
219 3 1.000000
219 0 -1.000000
219 0 -1.000000
219 0 -1.000000
219 0 -1.000000
219 0 -1.000000
219 0 -1.000000
219 0 -1.000000
220 3 0.378987
220 4 0.621013
220 0 -1.000000
220 0 -1.000000
220 0 -1.000000
220 0 -1.000000
220 0 -1.000000
220 0 -1.000000
221 3 0.317242
221 4 0.567076
221 5 0.115683
221 0 -1.000000
221 0 -1.000000
221 0 -1.000000
221 0 -1.000000
221 0 -1.000000
222 3 0.317242
222 4 0.567076
222 5 0.115683
222 0 -1.000000
222 0 -1.000000
222 0 -1.000000
222 0 -1.000000
222 0 -1.000000
223 3 1.000000
223 0 -1.000000
223 0 -1.000000
223 0 -1.000000
223 0 -1.000000
223 0 -1.000000
223 0 -1.000000
223 0 -1.000000
224 3 1.000000
224 0 -1.000000
224 0 -1.000000
224 0 -1.000000
224 0 -1.000000
224 0 -1.000000
224 0 -1.000000
224 0 -1.000000
225 3 0.500000
225 52 0.500000
225 0 -1.000000
225 0 -1.000000
225 0 -1.000000
225 0 -1.000000
225 0 -1.000000
225 0 -1.000000
226 3 0.500000
226 52 0.500000
226 0 -1.000000
226 0 -1.000000
226 0 -1.000000
226 0 -1.000000
226 0 -1.000000
226 0 -1.000000
227 3 0.500000
227 52 0.500000
227 0 -1.000000
227 0 -1.000000
227 0 -1.000000
227 0 -1.000000
227 0 -1.000000
227 0 -1.000000
228 3 0.500000
228 52 0.500000
228 0 -1.000000
228 0 -1.000000
228 0 -1.000000
228 0 -1.000000
228 0 -1.000000
228 0 -1.000000
229 3 0.500000
229 52 0.500000
229 0 -1.000000
229 0 -1.000000
229 0 -1.000000
229 0 -1.000000
229 0 -1.000000
229 0 -1.000000
230 3 0.500000
230 52 0.500000
230 0 -1.000000
230 0 -1.000000
230 0 -1.000000
230 0 -1.000000
230 0 -1.000000
230 0 -1.000000
231 3 1.000000
231 0 -1.000000
231 0 -1.000000
231 0 -1.000000
231 0 -1.000000
231 0 -1.000000
231 0 -1.000000
231 0 -1.000000
232 3 0.750000
232 49 0.250000
232 0 -1.000000
232 0 -1.000000
232 0 -1.000000
232 0 -1.000000
232 0 -1.000000
232 0 -1.000000
233 3 0.555945
233 4 0.444055
233 0 -1.000000
233 0 -1.000000
233 0 -1.000000
233 0 -1.000000
233 0 -1.000000
233 0 -1.000000
234 3 0.555945
234 4 0.444055
234 0 -1.000000
234 0 -1.000000
234 0 -1.000000
234 0 -1.000000
234 0 -1.000000
234 0 -1.000000
235 3 0.381531
235 4 0.618469
235 0 -1.000000
235 0 -1.000000
235 0 -1.000000
235 0 -1.000000
235 0 -1.000000
235 0 -1.000000
236 3 1.000000
236 0 -1.000000
236 0 -1.000000
236 0 -1.000000
236 0 -1.000000
236 0 -1.000000
236 0 -1.000000
236 0 -1.000000
237 3 0.900000
237 49 0.100000
237 0 -1.000000
237 0 -1.000000
237 0 -1.000000
237 0 -1.000000
237 0 -1.000000
237 0 -1.000000
238 3 0.750000
238 49 0.250000
238 0 -1.000000
238 0 -1.000000
238 0 -1.000000
238 0 -1.000000
238 0 -1.000000
238 0 -1.000000
239 3 0.900000
239 49 0.100000
239 0 -1.000000
239 0 -1.000000
239 0 -1.000000
239 0 -1.000000
239 0 -1.000000
239 0 -1.000000
240 3 0.900000
240 49 0.100000
240 0 -1.000000
240 0 -1.000000
240 0 -1.000000
240 0 -1.000000
240 0 -1.000000
240 0 -1.000000
241 3 0.750000
241 49 0.250000
241 0 -1.000000
241 0 -1.000000
241 0 -1.000000
241 0 -1.000000
241 0 -1.000000
241 0 -1.000000
242 3 0.900000
242 49 0.100000
242 0 -1.000000
242 0 -1.000000
242 0 -1.000000
242 0 -1.000000
242 0 -1.000000
242 0 -1.000000
243 3 0.555945
243 4 0.444055
243 0 -1.000000
243 0 -1.000000
243 0 -1.000000
243 0 -1.000000
243 0 -1.000000
243 0 -1.000000
244 3 0.750000
244 49 0.250000
244 0 -1.000000
244 0 -1.000000
244 0 -1.000000
244 0 -1.000000
244 0 -1.000000
244 0 -1.000000
245 3 0.750000
245 49 0.250000
245 0 -1.000000
245 0 -1.000000
245 0 -1.000000
245 0 -1.000000
245 0 -1.000000
245 0 -1.000000
246 3 0.750000
246 49 0.250000
246 0 -1.000000
246 0 -1.000000
246 0 -1.000000
246 0 -1.000000
246 0 -1.000000
246 0 -1.000000
247 3 0.562094
247 4 0.437906
247 0 -1.000000
247 0 -1.000000
247 0 -1.000000
247 0 -1.000000
247 0 -1.000000
247 0 -1.000000
248 3 0.555945
248 4 0.444055
248 0 -1.000000
248 0 -1.000000
248 0 -1.000000
248 0 -1.000000
248 0 -1.000000
248 0 -1.000000
249 3 0.900000
249 52 0.100000
249 0 -1.000000
249 0 -1.000000
249 0 -1.000000
249 0 -1.000000
249 0 -1.000000
249 0 -1.000000
250 3 0.750000
250 49 0.250000
250 0 -1.000000
250 0 -1.000000
250 0 -1.000000
250 0 -1.000000
250 0 -1.000000
250 0 -1.000000
251 3 0.750000
251 49 0.250000
251 0 -1.000000
251 0 -1.000000
251 0 -1.000000
251 0 -1.000000
251 0 -1.000000
251 0 -1.000000
252 3 0.750000
252 49 0.250000
252 0 -1.000000
252 0 -1.000000
252 0 -1.000000
252 0 -1.000000
252 0 -1.000000
252 0 -1.000000
253 3 0.750000
253 49 0.250000
253 0 -1.000000
253 0 -1.000000
253 0 -1.000000
253 0 -1.000000
253 0 -1.000000
253 0 -1.000000
254 3 0.900000
254 52 0.100000
254 0 -1.000000
254 0 -1.000000
254 0 -1.000000
254 0 -1.000000
254 0 -1.000000
254 0 -1.000000
255 3 0.750000
255 52 0.250000
255 0 -1.000000
255 0 -1.000000
255 0 -1.000000
255 0 -1.000000
255 0 -1.000000
255 0 -1.000000
256 3 0.900000
256 52 0.100000
256 0 -1.000000
256 0 -1.000000
256 0 -1.000000
256 0 -1.000000
256 0 -1.000000
256 0 -1.000000
257 3 0.750000
257 49 0.250000
257 0 -1.000000
257 0 -1.000000
257 0 -1.000000
257 0 -1.000000
257 0 -1.000000
257 0 -1.000000
258 3 0.750000
258 49 0.250000
258 0 -1.000000
258 0 -1.000000
258 0 -1.000000
258 0 -1.000000
258 0 -1.000000
258 0 -1.000000
259 3 1.000000
259 0 -1.000000
259 0 -1.000000
259 0 -1.000000
259 0 -1.000000
259 0 -1.000000
259 0 -1.000000
259 0 -1.000000
260 3 0.750000
260 52 0.250000
260 0 -1.000000
260 0 -1.000000
260 0 -1.000000
260 0 -1.000000
260 0 -1.000000
260 0 -1.000000
261 3 1.000000
261 0 -1.000000
261 0 -1.000000
261 0 -1.000000
261 0 -1.000000
261 0 -1.000000
261 0 -1.000000
261 0 -1.000000
262 3 1.000000
262 0 -1.000000
262 0 -1.000000
262 0 -1.000000
262 0 -1.000000
262 0 -1.000000
262 0 -1.000000
262 0 -1.000000
263 3 0.381531
263 4 0.618469
263 0 -1.000000
263 0 -1.000000
263 0 -1.000000
263 0 -1.000000
263 0 -1.000000
263 0 -1.000000
264 3 0.381531
264 4 0.618469
264 0 -1.000000
264 0 -1.000000
264 0 -1.000000
264 0 -1.000000
264 0 -1.000000
264 0 -1.000000
265 3 0.378987
265 4 0.621013
265 0 -1.000000
265 0 -1.000000
265 0 -1.000000
265 0 -1.000000
265 0 -1.000000
265 0 -1.000000
266 3 1.000000
266 0 -1.000000
266 0 -1.000000
266 0 -1.000000
266 0 -1.000000
266 0 -1.000000
266 0 -1.000000
266 0 -1.000000
267 3 0.750000
267 52 0.250000
267 0 -1.000000
267 0 -1.000000
267 0 -1.000000
267 0 -1.000000
267 0 -1.000000
267 0 -1.000000
268 3 0.500000
268 52 0.500000
268 0 -1.000000
268 0 -1.000000
268 0 -1.000000
268 0 -1.000000
268 0 -1.000000
268 0 -1.000000
269 3 0.750000
269 52 0.250000
269 0 -1.000000
269 0 -1.000000
269 0 -1.000000
269 0 -1.000000
269 0 -1.000000
269 0 -1.000000
270 3 0.750000
270 52 0.250000
270 0 -1.000000
270 0 -1.000000
270 0 -1.000000
270 0 -1.000000
270 0 -1.000000
270 0 -1.000000
271 3 0.900000
271 52 0.100000
271 0 -1.000000
271 0 -1.000000
271 0 -1.000000
271 0 -1.000000
271 0 -1.000000
271 0 -1.000000
272 3 0.750000
272 52 0.250000
272 0 -1.000000
272 0 -1.000000
272 0 -1.000000
272 0 -1.000000
272 0 -1.000000
272 0 -1.000000
273 3 0.432908
273 4 0.452410
273 5 0.114682
273 0 -1.000000
273 0 -1.000000
273 0 -1.000000
273 0 -1.000000
273 0 -1.000000
274 3 0.440676
274 4 0.449500
274 5 0.109825
274 0 -1.000000
274 0 -1.000000
274 0 -1.000000
274 0 -1.000000
274 0 -1.000000
275 3 0.900000
275 53 0.100000
275 0 -1.000000
275 0 -1.000000
275 0 -1.000000
275 0 -1.000000
275 0 -1.000000
275 0 -1.000000
276 3 0.900000
276 53 0.100000
276 0 -1.000000
276 0 -1.000000
276 0 -1.000000
276 0 -1.000000
276 0 -1.000000
276 0 -1.000000
277 3 1.000000
277 0 -1.000000
277 0 -1.000000
277 0 -1.000000
277 0 -1.000000
277 0 -1.000000
277 0 -1.000000
277 0 -1.000000
278 3 0.432908
278 4 0.452410
278 5 0.114682
278 0 -1.000000
278 0 -1.000000
278 0 -1.000000
278 0 -1.000000
278 0 -1.000000
279 3 0.500000
279 53 0.500000
279 0 -1.000000
279 0 -1.000000
279 0 -1.000000
279 0 -1.000000
279 0 -1.000000
279 0 -1.000000
280 3 0.900000
280 53 0.100000
280 0 -1.000000
280 0 -1.000000
280 0 -1.000000
280 0 -1.000000
280 0 -1.000000
280 0 -1.000000
281 3 1.000000
281 0 -1.000000
281 0 -1.000000
281 0 -1.000000
281 0 -1.000000
281 0 -1.000000
281 0 -1.000000
281 0 -1.000000
282 3 1.000000
282 0 -1.000000
282 0 -1.000000
282 0 -1.000000
282 0 -1.000000
282 0 -1.000000
282 0 -1.000000
282 0 -1.000000
283 3 0.900000
283 53 0.100000
283 0 -1.000000
283 0 -1.000000
283 0 -1.000000
283 0 -1.000000
283 0 -1.000000
283 0 -1.000000
284 3 0.500000
284 53 0.500000
284 0 -1.000000
284 0 -1.000000
284 0 -1.000000
284 0 -1.000000
284 0 -1.000000
284 0 -1.000000
285 3 0.500000
285 53 0.500000
285 0 -1.000000
285 0 -1.000000
285 0 -1.000000
285 0 -1.000000
285 0 -1.000000
285 0 -1.000000
286 3 0.750000
286 51 0.250000
286 0 -1.000000
286 0 -1.000000
286 0 -1.000000
286 0 -1.000000
286 0 -1.000000
286 0 -1.000000
287 3 0.750000
287 51 0.250000
287 0 -1.000000
287 0 -1.000000
287 0 -1.000000
287 0 -1.000000
287 0 -1.000000
287 0 -1.000000
288 3 0.750000
288 51 0.250000
288 0 -1.000000
288 0 -1.000000
288 0 -1.000000
288 0 -1.000000
288 0 -1.000000
288 0 -1.000000
289 3 0.500000
289 53 0.500000
289 0 -1.000000
289 0 -1.000000
289 0 -1.000000
289 0 -1.000000
289 0 -1.000000
289 0 -1.000000
290 3 0.500000
290 53 0.500000
290 0 -1.000000
290 0 -1.000000
290 0 -1.000000
290 0 -1.000000
290 0 -1.000000
290 0 -1.000000
291 3 0.750000
291 49 0.250000
291 0 -1.000000
291 0 -1.000000
291 0 -1.000000
291 0 -1.000000
291 0 -1.000000
291 0 -1.000000
292 3 0.750000
292 49 0.250000
292 0 -1.000000
292 0 -1.000000
292 0 -1.000000
292 0 -1.000000
292 0 -1.000000
292 0 -1.000000
293 3 0.750000
293 49 0.250000
293 0 -1.000000
293 0 -1.000000
293 0 -1.000000
293 0 -1.000000
293 0 -1.000000
293 0 -1.000000
294 3 0.750000
294 49 0.250000
294 0 -1.000000
294 0 -1.000000
294 0 -1.000000
294 0 -1.000000
294 0 -1.000000
294 0 -1.000000
295 3 0.750000
295 49 0.250000
295 0 -1.000000
295 0 -1.000000
295 0 -1.000000
295 0 -1.000000
295 0 -1.000000
295 0 -1.000000
296 3 0.750000
296 49 0.250000
296 0 -1.000000
296 0 -1.000000
296 0 -1.000000
296 0 -1.000000
296 0 -1.000000
296 0 -1.000000
297 3 0.750000
297 49 0.250000
297 0 -1.000000
297 0 -1.000000
297 0 -1.000000
297 0 -1.000000
297 0 -1.000000
297 0 -1.000000
298 3 0.750000
298 49 0.250000
298 0 -1.000000
298 0 -1.000000
298 0 -1.000000
298 0 -1.000000
298 0 -1.000000
298 0 -1.000000
299 3 0.900000
299 49 0.100000
299 0 -1.000000
299 0 -1.000000
299 0 -1.000000
299 0 -1.000000
299 0 -1.000000
299 0 -1.000000
300 3 0.900000
300 49 0.100000
300 0 -1.000000
300 0 -1.000000
300 0 -1.000000
300 0 -1.000000
300 0 -1.000000
300 0 -1.000000
301 3 0.900000
301 49 0.100000
301 0 -1.000000
301 0 -1.000000
301 0 -1.000000
301 0 -1.000000
301 0 -1.000000
301 0 -1.000000
302 3 0.750000
302 49 0.250000
302 0 -1.000000
302 0 -1.000000
302 0 -1.000000
302 0 -1.000000
302 0 -1.000000
302 0 -1.000000
303 3 0.681828
303 4 0.318172
303 0 -1.000000
303 0 -1.000000
303 0 -1.000000
303 0 -1.000000
303 0 -1.000000
303 0 -1.000000
304 3 0.750000
304 49 0.250000
304 0 -1.000000
304 0 -1.000000
304 0 -1.000000
304 0 -1.000000
304 0 -1.000000
304 0 -1.000000
305 3 0.750000
305 49 0.250000
305 0 -1.000000
305 0 -1.000000
305 0 -1.000000
305 0 -1.000000
305 0 -1.000000
305 0 -1.000000
306 3 0.750000
306 49 0.250000
306 0 -1.000000
306 0 -1.000000
306 0 -1.000000
306 0 -1.000000
306 0 -1.000000
306 0 -1.000000
307 3 0.681828
307 4 0.318172
307 0 -1.000000
307 0 -1.000000
307 0 -1.000000
307 0 -1.000000
307 0 -1.000000
307 0 -1.000000
308 3 0.750000
308 49 0.250000
308 0 -1.000000
308 0 -1.000000
308 0 -1.000000
308 0 -1.000000
308 0 -1.000000
308 0 -1.000000
309 3 0.750000
309 49 0.250000
309 0 -1.000000
309 0 -1.000000
309 0 -1.000000
309 0 -1.000000
309 0 -1.000000
309 0 -1.000000
310 3 0.750000
310 49 0.250000
310 0 -1.000000
310 0 -1.000000
310 0 -1.000000
310 0 -1.000000
310 0 -1.000000
310 0 -1.000000
311 3 0.681828
311 4 0.318172
311 0 -1.000000
311 0 -1.000000
311 0 -1.000000
311 0 -1.000000
311 0 -1.000000
311 0 -1.000000
312 3 0.500000
312 51 0.500000
312 0 -1.000000
312 0 -1.000000
312 0 -1.000000
312 0 -1.000000
312 0 -1.000000
312 0 -1.000000
313 3 0.500000
313 51 0.500000
313 0 -1.000000
313 0 -1.000000
313 0 -1.000000
313 0 -1.000000
313 0 -1.000000
313 0 -1.000000
314 3 0.750000
314 49 0.250000
314 0 -1.000000
314 0 -1.000000
314 0 -1.000000
314 0 -1.000000
314 0 -1.000000
314 0 -1.000000
315 3 0.750000
315 50 0.250000
315 0 -1.000000
315 0 -1.000000
315 0 -1.000000
315 0 -1.000000
315 0 -1.000000
315 0 -1.000000
316 3 0.810000
316 49 0.100000
316 50 0.090000
316 0 -1.000000
316 0 -1.000000
316 0 -1.000000
316 0 -1.000000
316 0 -1.000000
317 3 0.810000
317 49 0.100000
317 50 0.090000
317 0 -1.000000
317 0 -1.000000
317 0 -1.000000
317 0 -1.000000
317 0 -1.000000
318 3 0.810000
318 49 0.100000
318 50 0.090000
318 0 -1.000000
318 0 -1.000000
318 0 -1.000000
318 0 -1.000000
318 0 -1.000000
319 3 0.900000
319 49 0.100000
319 0 -1.000000
319 0 -1.000000
319 0 -1.000000
319 0 -1.000000
319 0 -1.000000
319 0 -1.000000
320 3 0.900000
320 49 0.100000
320 0 -1.000000
320 0 -1.000000
320 0 -1.000000
320 0 -1.000000
320 0 -1.000000
320 0 -1.000000
321 3 0.900000
321 49 0.100000
321 0 -1.000000
321 0 -1.000000
321 0 -1.000000
321 0 -1.000000
321 0 -1.000000
321 0 -1.000000
322 3 0.810000
322 49 0.100000
322 50 0.090000
322 0 -1.000000
322 0 -1.000000
322 0 -1.000000
322 0 -1.000000
322 0 -1.000000
323 3 0.810000
323 49 0.100000
323 50 0.090000
323 0 -1.000000
323 0 -1.000000
323 0 -1.000000
323 0 -1.000000
323 0 -1.000000
324 3 0.810000
324 49 0.100000
324 50 0.090000
324 0 -1.000000
324 0 -1.000000
324 0 -1.000000
324 0 -1.000000
324 0 -1.000000
325 3 0.810000
325 49 0.100000
325 50 0.090000
325 0 -1.000000
325 0 -1.000000
325 0 -1.000000
325 0 -1.000000
325 0 -1.000000
326 3 0.750000
326 50 0.250000
326 0 -1.000000
326 0 -1.000000
326 0 -1.000000
326 0 -1.000000
326 0 -1.000000
326 0 -1.000000
327 3 0.900000
327 49 0.100000
327 0 -1.000000
327 0 -1.000000
327 0 -1.000000
327 0 -1.000000
327 0 -1.000000
327 0 -1.000000
328 3 0.900000
328 49 0.100000
328 0 -1.000000
328 0 -1.000000
328 0 -1.000000
328 0 -1.000000
328 0 -1.000000
328 0 -1.000000
329 3 0.810000
329 49 0.100000
329 50 0.090000
329 0 -1.000000
329 0 -1.000000
329 0 -1.000000
329 0 -1.000000
329 0 -1.000000
330 3 0.810000
330 49 0.100000
330 50 0.090000
330 0 -1.000000
330 0 -1.000000
330 0 -1.000000
330 0 -1.000000
330 0 -1.000000
331 3 0.810000
331 49 0.100000
331 50 0.090000
331 0 -1.000000
331 0 -1.000000
331 0 -1.000000
331 0 -1.000000
331 0 -1.000000
332 3 0.900000
332 49 0.100000
332 0 -1.000000
332 0 -1.000000
332 0 -1.000000
332 0 -1.000000
332 0 -1.000000
332 0 -1.000000
333 3 0.675000
333 49 0.100000
333 50 0.225000
333 0 -1.000000
333 0 -1.000000
333 0 -1.000000
333 0 -1.000000
333 0 -1.000000
334 3 0.675000
334 49 0.100000
334 50 0.225000
334 0 -1.000000
334 0 -1.000000
334 0 -1.000000
334 0 -1.000000
334 0 -1.000000
335 3 0.900000
335 49 0.100000
335 0 -1.000000
335 0 -1.000000
335 0 -1.000000
335 0 -1.000000
335 0 -1.000000
335 0 -1.000000
336 3 0.900000
336 49 0.100000
336 0 -1.000000
336 0 -1.000000
336 0 -1.000000
336 0 -1.000000
336 0 -1.000000
336 0 -1.000000
337 3 0.900000
337 49 0.100000
337 0 -1.000000
337 0 -1.000000
337 0 -1.000000
337 0 -1.000000
337 0 -1.000000
337 0 -1.000000
338 3 0.675000
338 49 0.100000
338 50 0.225000
338 0 -1.000000
338 0 -1.000000
338 0 -1.000000
338 0 -1.000000
338 0 -1.000000
339 3 0.810000
339 49 0.100000
339 50 0.090000
339 0 -1.000000
339 0 -1.000000
339 0 -1.000000
339 0 -1.000000
339 0 -1.000000
340 3 0.810000
340 49 0.100000
340 50 0.090000
340 0 -1.000000
340 0 -1.000000
340 0 -1.000000
340 0 -1.000000
340 0 -1.000000
341 3 0.750000
341 50 0.250000
341 0 -1.000000
341 0 -1.000000
341 0 -1.000000
341 0 -1.000000
341 0 -1.000000
341 0 -1.000000
342 3 0.675000
342 49 0.100000
342 50 0.225000
342 0 -1.000000
342 0 -1.000000
342 0 -1.000000
342 0 -1.000000
342 0 -1.000000
343 3 0.500000
343 50 0.500000
343 0 -1.000000
343 0 -1.000000
343 0 -1.000000
343 0 -1.000000
343 0 -1.000000
343 0 -1.000000
344 3 0.500000
344 50 0.500000
344 0 -1.000000
344 0 -1.000000
344 0 -1.000000
344 0 -1.000000
344 0 -1.000000
344 0 -1.000000
345 3 0.500000
345 50 0.500000
345 0 -1.000000
345 0 -1.000000
345 0 -1.000000
345 0 -1.000000
345 0 -1.000000
345 0 -1.000000
346 3 0.675000
346 49 0.100000
346 50 0.225000
346 0 -1.000000
346 0 -1.000000
346 0 -1.000000
346 0 -1.000000
346 0 -1.000000
347 3 0.675000
347 49 0.100000
347 50 0.225000
347 0 -1.000000
347 0 -1.000000
347 0 -1.000000
347 0 -1.000000
347 0 -1.000000
348 3 0.500000
348 50 0.500000
348 0 -1.000000
348 0 -1.000000
348 0 -1.000000
348 0 -1.000000
348 0 -1.000000
348 0 -1.000000
349 3 0.500000
349 50 0.500000
349 0 -1.000000
349 0 -1.000000
349 0 -1.000000
349 0 -1.000000
349 0 -1.000000
349 0 -1.000000
350 3 0.675000
350 49 0.100000
350 50 0.225000
350 0 -1.000000
350 0 -1.000000
350 0 -1.000000
350 0 -1.000000
350 0 -1.000000
351 3 0.675000
351 49 0.100000
351 50 0.225000
351 0 -1.000000
351 0 -1.000000
351 0 -1.000000
351 0 -1.000000
351 0 -1.000000
352 3 0.675000
352 49 0.100000
352 50 0.225000
352 0 -1.000000
352 0 -1.000000
352 0 -1.000000
352 0 -1.000000
352 0 -1.000000
353 3 0.500000
353 50 0.500000
353 0 -1.000000
353 0 -1.000000
353 0 -1.000000
353 0 -1.000000
353 0 -1.000000
353 0 -1.000000
354 3 0.900000
354 49 0.100000
354 0 -1.000000
354 0 -1.000000
354 0 -1.000000
354 0 -1.000000
354 0 -1.000000
354 0 -1.000000
355 3 0.900000
355 49 0.100000
355 0 -1.000000
355 0 -1.000000
355 0 -1.000000
355 0 -1.000000
355 0 -1.000000
355 0 -1.000000
356 3 0.810000
356 49 0.100000
356 50 0.090000
356 0 -1.000000
356 0 -1.000000
356 0 -1.000000
356 0 -1.000000
356 0 -1.000000
357 3 0.810000
357 49 0.100000
357 50 0.090000
357 0 -1.000000
357 0 -1.000000
357 0 -1.000000
357 0 -1.000000
357 0 -1.000000
358 3 0.810000
358 49 0.100000
358 50 0.090000
358 0 -1.000000
358 0 -1.000000
358 0 -1.000000
358 0 -1.000000
358 0 -1.000000
359 3 0.900000
359 49 0.100000
359 0 -1.000000
359 0 -1.000000
359 0 -1.000000
359 0 -1.000000
359 0 -1.000000
359 0 -1.000000
360 3 0.900000
360 49 0.100000
360 0 -1.000000
360 0 -1.000000
360 0 -1.000000
360 0 -1.000000
360 0 -1.000000
360 0 -1.000000
361 3 0.750000
361 49 0.250000
361 0 -1.000000
361 0 -1.000000
361 0 -1.000000
361 0 -1.000000
361 0 -1.000000
361 0 -1.000000
362 3 0.750000
362 49 0.250000
362 0 -1.000000
362 0 -1.000000
362 0 -1.000000
362 0 -1.000000
362 0 -1.000000
362 0 -1.000000
363 3 0.900000
363 49 0.100000
363 0 -1.000000
363 0 -1.000000
363 0 -1.000000
363 0 -1.000000
363 0 -1.000000
363 0 -1.000000
364 3 0.750000
364 49 0.250000
364 0 -1.000000
364 0 -1.000000
364 0 -1.000000
364 0 -1.000000
364 0 -1.000000
364 0 -1.000000
365 3 0.900000
365 49 0.100000
365 0 -1.000000
365 0 -1.000000
365 0 -1.000000
365 0 -1.000000
365 0 -1.000000
365 0 -1.000000
366 3 0.750000
366 49 0.250000
366 0 -1.000000
366 0 -1.000000
366 0 -1.000000
366 0 -1.000000
366 0 -1.000000
366 0 -1.000000
367 3 0.750000
367 49 0.250000
367 0 -1.000000
367 0 -1.000000
367 0 -1.000000
367 0 -1.000000
367 0 -1.000000
367 0 -1.000000
368 3 0.900000
368 49 0.100000
368 0 -1.000000
368 0 -1.000000
368 0 -1.000000
368 0 -1.000000
368 0 -1.000000
368 0 -1.000000
369 3 0.900000
369 49 0.100000
369 0 -1.000000
369 0 -1.000000
369 0 -1.000000
369 0 -1.000000
369 0 -1.000000
369 0 -1.000000
370 3 0.900000
370 49 0.100000
370 0 -1.000000
370 0 -1.000000
370 0 -1.000000
370 0 -1.000000
370 0 -1.000000
370 0 -1.000000
371 3 0.750000
371 49 0.250000
371 0 -1.000000
371 0 -1.000000
371 0 -1.000000
371 0 -1.000000
371 0 -1.000000
371 0 -1.000000
372 3 0.675000
372 49 0.100000
372 50 0.225000
372 0 -1.000000
372 0 -1.000000
372 0 -1.000000
372 0 -1.000000
372 0 -1.000000
373 3 0.900000
373 49 0.100000
373 0 -1.000000
373 0 -1.000000
373 0 -1.000000
373 0 -1.000000
373 0 -1.000000
373 0 -1.000000
374 3 0.900000
374 49 0.100000
374 0 -1.000000
374 0 -1.000000
374 0 -1.000000
374 0 -1.000000
374 0 -1.000000
374 0 -1.000000
375 3 0.900000
375 49 0.100000
375 0 -1.000000
375 0 -1.000000
375 0 -1.000000
375 0 -1.000000
375 0 -1.000000
375 0 -1.000000
376 3 0.675000
376 49 0.100000
376 50 0.225000
376 0 -1.000000
376 0 -1.000000
376 0 -1.000000
376 0 -1.000000
376 0 -1.000000
377 3 0.675000
377 49 0.100000
377 50 0.225000
377 0 -1.000000
377 0 -1.000000
377 0 -1.000000
377 0 -1.000000
377 0 -1.000000
378 3 0.900000
378 49 0.100000
378 0 -1.000000
378 0 -1.000000
378 0 -1.000000
378 0 -1.000000
378 0 -1.000000
378 0 -1.000000
379 3 0.900000
379 49 0.100000
379 0 -1.000000
379 0 -1.000000
379 0 -1.000000
379 0 -1.000000
379 0 -1.000000
379 0 -1.000000
380 3 0.750000
380 49 0.250000
380 0 -1.000000
380 0 -1.000000
380 0 -1.000000
380 0 -1.000000
380 0 -1.000000
380 0 -1.000000
381 3 0.675000
381 49 0.100000
381 50 0.225000
381 0 -1.000000
381 0 -1.000000
381 0 -1.000000
381 0 -1.000000
381 0 -1.000000
382 3 0.675000
382 49 0.100000
382 50 0.225000
382 0 -1.000000
382 0 -1.000000
382 0 -1.000000
382 0 -1.000000
382 0 -1.000000
383 3 0.900000
383 49 0.100000
383 0 -1.000000
383 0 -1.000000
383 0 -1.000000
383 0 -1.000000
383 0 -1.000000
383 0 -1.000000
384 3 0.900000
384 49 0.100000
384 0 -1.000000
384 0 -1.000000
384 0 -1.000000
384 0 -1.000000
384 0 -1.000000
384 0 -1.000000
385 3 0.900000
385 49 0.100000
385 0 -1.000000
385 0 -1.000000
385 0 -1.000000
385 0 -1.000000
385 0 -1.000000
385 0 -1.000000
386 3 0.675000
386 49 0.100000
386 50 0.225000
386 0 -1.000000
386 0 -1.000000
386 0 -1.000000
386 0 -1.000000
386 0 -1.000000
387 3 0.500000
387 50 0.500000
387 0 -1.000000
387 0 -1.000000
387 0 -1.000000
387 0 -1.000000
387 0 -1.000000
387 0 -1.000000
388 3 0.675000
388 49 0.100000
388 50 0.225000
388 0 -1.000000
388 0 -1.000000
388 0 -1.000000
388 0 -1.000000
388 0 -1.000000
389 3 0.675000
389 49 0.100000
389 50 0.225000
389 0 -1.000000
389 0 -1.000000
389 0 -1.000000
389 0 -1.000000
389 0 -1.000000
390 3 0.675000
390 49 0.100000
390 50 0.225000
390 0 -1.000000
390 0 -1.000000
390 0 -1.000000
390 0 -1.000000
390 0 -1.000000
391 3 0.500000
391 50 0.500000
391 0 -1.000000
391 0 -1.000000
391 0 -1.000000
391 0 -1.000000
391 0 -1.000000
391 0 -1.000000
392 3 0.500000
392 50 0.500000
392 0 -1.000000
392 0 -1.000000
392 0 -1.000000
392 0 -1.000000
392 0 -1.000000
392 0 -1.000000
393 3 0.750000
393 49 0.250000
393 0 -1.000000
393 0 -1.000000
393 0 -1.000000
393 0 -1.000000
393 0 -1.000000
393 0 -1.000000
394 3 0.900000
394 49 0.100000
394 0 -1.000000
394 0 -1.000000
394 0 -1.000000
394 0 -1.000000
394 0 -1.000000
394 0 -1.000000
395 3 0.750000
395 49 0.250000
395 0 -1.000000
395 0 -1.000000
395 0 -1.000000
395 0 -1.000000
395 0 -1.000000
395 0 -1.000000
396 3 0.681828
396 4 0.318172
396 0 -1.000000
396 0 -1.000000
396 0 -1.000000
396 0 -1.000000
396 0 -1.000000
396 0 -1.000000
397 3 0.562266
397 4 0.256155
397 44 0.181580
397 0 -1.000000
397 0 -1.000000
397 0 -1.000000
397 0 -1.000000
397 0 -1.000000
398 3 0.750000
398 49 0.250000
398 0 -1.000000
398 0 -1.000000
398 0 -1.000000
398 0 -1.000000
398 0 -1.000000
398 0 -1.000000
399 3 0.900000
399 49 0.100000
399 0 -1.000000
399 0 -1.000000
399 0 -1.000000
399 0 -1.000000
399 0 -1.000000
399 0 -1.000000
400 3 0.900000
400 49 0.100000
400 0 -1.000000
400 0 -1.000000
400 0 -1.000000
400 0 -1.000000
400 0 -1.000000
400 0 -1.000000
401 3 0.750000
401 49 0.250000
401 0 -1.000000
401 0 -1.000000
401 0 -1.000000
401 0 -1.000000
401 0 -1.000000
401 0 -1.000000
402 3 0.750000
402 51 0.250000
402 0 -1.000000
402 0 -1.000000
402 0 -1.000000
402 0 -1.000000
402 0 -1.000000
402 0 -1.000000
403 3 1.000000
403 0 -1.000000
403 0 -1.000000
403 0 -1.000000
403 0 -1.000000
403 0 -1.000000
403 0 -1.000000
403 0 -1.000000
404 3 0.500000
404 4 0.500000
404 0 -1.000000
404 0 -1.000000
404 0 -1.000000
404 0 -1.000000
404 0 -1.000000
404 0 -1.000000
405 3 0.500000
405 4 0.500000
405 0 -1.000000
405 0 -1.000000
405 0 -1.000000
405 0 -1.000000
405 0 -1.000000
405 0 -1.000000
406 3 0.500000
406 4 0.500000
406 0 -1.000000
406 0 -1.000000
406 0 -1.000000
406 0 -1.000000
406 0 -1.000000
406 0 -1.000000
407 3 0.750000
407 51 0.250000
407 0 -1.000000
407 0 -1.000000
407 0 -1.000000
407 0 -1.000000
407 0 -1.000000
407 0 -1.000000
408 3 0.500000
408 51 0.500000
408 0 -1.000000
408 0 -1.000000
408 0 -1.000000
408 0 -1.000000
408 0 -1.000000
408 0 -1.000000
409 3 0.750000
409 51 0.250000
409 0 -1.000000
409 0 -1.000000
409 0 -1.000000
409 0 -1.000000
409 0 -1.000000
409 0 -1.000000
410 3 0.500000
410 4 0.500000
410 0 -1.000000
410 0 -1.000000
410 0 -1.000000
410 0 -1.000000
410 0 -1.000000
410 0 -1.000000
411 3 0.500000
411 4 0.500000
411 0 -1.000000
411 0 -1.000000
411 0 -1.000000
411 0 -1.000000
411 0 -1.000000
411 0 -1.000000
412 3 0.500000
412 4 0.500000
412 0 -1.000000
412 0 -1.000000
412 0 -1.000000
412 0 -1.000000
412 0 -1.000000
412 0 -1.000000
413 3 0.500000
413 51 0.500000
413 0 -1.000000
413 0 -1.000000
413 0 -1.000000
413 0 -1.000000
413 0 -1.000000
413 0 -1.000000
414 3 0.500000
414 51 0.500000
414 0 -1.000000
414 0 -1.000000
414 0 -1.000000
414 0 -1.000000
414 0 -1.000000
414 0 -1.000000
415 3 0.500000
415 4 0.500000
415 0 -1.000000
415 0 -1.000000
415 0 -1.000000
415 0 -1.000000
415 0 -1.000000
415 0 -1.000000
416 3 0.500000
416 4 0.500000
416 0 -1.000000
416 0 -1.000000
416 0 -1.000000
416 0 -1.000000
416 0 -1.000000
416 0 -1.000000
417 3 0.500000
417 4 0.500000
417 0 -1.000000
417 0 -1.000000
417 0 -1.000000
417 0 -1.000000
417 0 -1.000000
417 0 -1.000000
418 3 0.500000
418 51 0.500000
418 0 -1.000000
418 0 -1.000000
418 0 -1.000000
418 0 -1.000000
418 0 -1.000000
418 0 -1.000000
419 3 0.500000
419 51 0.500000
419 0 -1.000000
419 0 -1.000000
419 0 -1.000000
419 0 -1.000000
419 0 -1.000000
419 0 -1.000000
420 3 1.000000
420 0 -1.000000
420 0 -1.000000
420 0 -1.000000
420 0 -1.000000
420 0 -1.000000
420 0 -1.000000
420 0 -1.000000
421 3 0.500000
421 4 0.500000
421 0 -1.000000
421 0 -1.000000
421 0 -1.000000
421 0 -1.000000
421 0 -1.000000
421 0 -1.000000
422 3 0.500000
422 4 0.500000
422 0 -1.000000
422 0 -1.000000
422 0 -1.000000
422 0 -1.000000
422 0 -1.000000
422 0 -1.000000
423 3 0.500000
423 4 0.500000
423 0 -1.000000
423 0 -1.000000
423 0 -1.000000
423 0 -1.000000
423 0 -1.000000
423 0 -1.000000
424 3 1.000000
424 0 -1.000000
424 0 -1.000000
424 0 -1.000000
424 0 -1.000000
424 0 -1.000000
424 0 -1.000000
424 0 -1.000000
425 3 1.000000
425 0 -1.000000
425 0 -1.000000
425 0 -1.000000
425 0 -1.000000
425 0 -1.000000
425 0 -1.000000
425 0 -1.000000
426 3 0.500000
426 4 0.500000
426 0 -1.000000
426 0 -1.000000
426 0 -1.000000
426 0 -1.000000
426 0 -1.000000
426 0 -1.000000
427 3 1.000000
427 0 -1.000000
427 0 -1.000000
427 0 -1.000000
427 0 -1.000000
427 0 -1.000000
427 0 -1.000000
427 0 -1.000000
428 3 1.000000
428 0 -1.000000
428 0 -1.000000
428 0 -1.000000
428 0 -1.000000
428 0 -1.000000
428 0 -1.000000
428 0 -1.000000
429 3 1.000000
429 0 -1.000000
429 0 -1.000000
429 0 -1.000000
429 0 -1.000000
429 0 -1.000000
429 0 -1.000000
429 0 -1.000000
430 3 0.500000
430 4 0.500000
430 0 -1.000000
430 0 -1.000000
430 0 -1.000000
430 0 -1.000000
430 0 -1.000000
430 0 -1.000000
431 3 0.500000
431 4 0.500000
431 0 -1.000000
431 0 -1.000000
431 0 -1.000000
431 0 -1.000000
431 0 -1.000000
431 0 -1.000000
432 3 1.000000
432 0 -1.000000
432 0 -1.000000
432 0 -1.000000
432 0 -1.000000
432 0 -1.000000
432 0 -1.000000
432 0 -1.000000
433 3 1.000000
433 0 -1.000000
433 0 -1.000000
433 0 -1.000000
433 0 -1.000000
433 0 -1.000000
433 0 -1.000000
433 0 -1.000000
434 3 0.500000
434 4 0.500000
434 0 -1.000000
434 0 -1.000000
434 0 -1.000000
434 0 -1.000000
434 0 -1.000000
434 0 -1.000000
435 3 0.500000
435 4 0.500000
435 0 -1.000000
435 0 -1.000000
435 0 -1.000000
435 0 -1.000000
435 0 -1.000000
435 0 -1.000000
436 3 0.500000
436 4 0.500000
436 0 -1.000000
436 0 -1.000000
436 0 -1.000000
436 0 -1.000000
436 0 -1.000000
436 0 -1.000000
437 3 1.000000
437 0 -1.000000
437 0 -1.000000
437 0 -1.000000
437 0 -1.000000
437 0 -1.000000
437 0 -1.000000
437 0 -1.000000
438 3 0.750000
438 52 0.250000
438 0 -1.000000
438 0 -1.000000
438 0 -1.000000
438 0 -1.000000
438 0 -1.000000
438 0 -1.000000
439 3 0.700000
439 52 0.300000
439 0 -1.000000
439 0 -1.000000
439 0 -1.000000
439 0 -1.000000
439 0 -1.000000
439 0 -1.000000
440 3 1.000000
440 0 -1.000000
440 0 -1.000000
440 0 -1.000000
440 0 -1.000000
440 0 -1.000000
440 0 -1.000000
440 0 -1.000000
441 3 1.000000
441 0 -1.000000
441 0 -1.000000
441 0 -1.000000
441 0 -1.000000
441 0 -1.000000
441 0 -1.000000
441 0 -1.000000
442 3 1.000000
442 0 -1.000000
442 0 -1.000000
442 0 -1.000000
442 0 -1.000000
442 0 -1.000000
442 0 -1.000000
442 0 -1.000000
443 3 0.750000
443 52 0.250000
443 0 -1.000000
443 0 -1.000000
443 0 -1.000000
443 0 -1.000000
443 0 -1.000000
443 0 -1.000000
444 3 1.000000
444 0 -1.000000
444 0 -1.000000
444 0 -1.000000
444 0 -1.000000
444 0 -1.000000
444 0 -1.000000
444 0 -1.000000
445 3 0.500000
445 4 0.500000
445 0 -1.000000
445 0 -1.000000
445 0 -1.000000
445 0 -1.000000
445 0 -1.000000
445 0 -1.000000
446 3 0.500000
446 4 0.500000
446 0 -1.000000
446 0 -1.000000
446 0 -1.000000
446 0 -1.000000
446 0 -1.000000
446 0 -1.000000
447 3 0.500000
447 4 0.500000
447 0 -1.000000
447 0 -1.000000
447 0 -1.000000
447 0 -1.000000
447 0 -1.000000
447 0 -1.000000
448 3 1.000000
448 0 -1.000000
448 0 -1.000000
448 0 -1.000000
448 0 -1.000000
448 0 -1.000000
448 0 -1.000000
448 0 -1.000000
449 3 1.000000
449 0 -1.000000
449 0 -1.000000
449 0 -1.000000
449 0 -1.000000
449 0 -1.000000
449 0 -1.000000
449 0 -1.000000
450 3 0.599806
450 52 0.100194
450 53 0.300000
450 0 -1.000000
450 0 -1.000000
450 0 -1.000000
450 0 -1.000000
450 0 -1.000000
451 3 0.750000
451 52 0.250000
451 0 -1.000000
451 0 -1.000000
451 0 -1.000000
451 0 -1.000000
451 0 -1.000000
451 0 -1.000000
452 3 1.000000
452 0 -1.000000
452 0 -1.000000
452 0 -1.000000
452 0 -1.000000
452 0 -1.000000
452 0 -1.000000
452 0 -1.000000
453 3 1.000000
453 0 -1.000000
453 0 -1.000000
453 0 -1.000000
453 0 -1.000000
453 0 -1.000000
453 0 -1.000000
453 0 -1.000000
454 3 1.000000
454 0 -1.000000
454 0 -1.000000
454 0 -1.000000
454 0 -1.000000
454 0 -1.000000
454 0 -1.000000
454 0 -1.000000
455 3 0.599806
455 52 0.100194
455 53 0.300000
455 0 -1.000000
455 0 -1.000000
455 0 -1.000000
455 0 -1.000000
455 0 -1.000000
456 3 1.000000
456 0 -1.000000
456 0 -1.000000
456 0 -1.000000
456 0 -1.000000
456 0 -1.000000
456 0 -1.000000
456 0 -1.000000
457 3 0.500000
457 53 0.500000
457 0 -1.000000
457 0 -1.000000
457 0 -1.000000
457 0 -1.000000
457 0 -1.000000
457 0 -1.000000
458 3 0.599806
458 52 0.100194
458 53 0.300000
458 0 -1.000000
458 0 -1.000000
458 0 -1.000000
458 0 -1.000000
458 0 -1.000000
459 3 0.599806
459 52 0.100194
459 53 0.300000
459 0 -1.000000
459 0 -1.000000
459 0 -1.000000
459 0 -1.000000
459 0 -1.000000
460 3 1.000000
460 0 -1.000000
460 0 -1.000000
460 0 -1.000000
460 0 -1.000000
460 0 -1.000000
460 0 -1.000000
460 0 -1.000000
461 3 1.000000
461 0 -1.000000
461 0 -1.000000
461 0 -1.000000
461 0 -1.000000
461 0 -1.000000
461 0 -1.000000
461 0 -1.000000
462 3 1.000000
462 0 -1.000000
462 0 -1.000000
462 0 -1.000000
462 0 -1.000000
462 0 -1.000000
462 0 -1.000000
462 0 -1.000000
463 3 0.500000
463 53 0.500000
463 0 -1.000000
463 0 -1.000000
463 0 -1.000000
463 0 -1.000000
463 0 -1.000000
463 0 -1.000000
464 3 0.500000
464 53 0.500000
464 0 -1.000000
464 0 -1.000000
464 0 -1.000000
464 0 -1.000000
464 0 -1.000000
464 0 -1.000000
465 3 0.500000
465 53 0.500000
465 0 -1.000000
465 0 -1.000000
465 0 -1.000000
465 0 -1.000000
465 0 -1.000000
465 0 -1.000000
466 3 1.000000
466 0 -1.000000
466 0 -1.000000
466 0 -1.000000
466 0 -1.000000
466 0 -1.000000
466 0 -1.000000
466 0 -1.000000
467 3 1.000000
467 0 -1.000000
467 0 -1.000000
467 0 -1.000000
467 0 -1.000000
467 0 -1.000000
467 0 -1.000000
467 0 -1.000000
468 3 0.375000
468 51 0.375000
468 53 0.250000
468 0 -1.000000
468 0 -1.000000
468 0 -1.000000
468 0 -1.000000
468 0 -1.000000
469 3 0.500000
469 53 0.500000
469 0 -1.000000
469 0 -1.000000
469 0 -1.000000
469 0 -1.000000
469 0 -1.000000
469 0 -1.000000
470 3 1.000000
470 0 -1.000000
470 0 -1.000000
470 0 -1.000000
470 0 -1.000000
470 0 -1.000000
470 0 -1.000000
470 0 -1.000000
471 3 1.000000
471 0 -1.000000
471 0 -1.000000
471 0 -1.000000
471 0 -1.000000
471 0 -1.000000
471 0 -1.000000
471 0 -1.000000
472 3 0.750000
472 51 0.250000
472 0 -1.000000
472 0 -1.000000
472 0 -1.000000
472 0 -1.000000
472 0 -1.000000
472 0 -1.000000
473 3 0.375000
473 51 0.375000
473 53 0.250000
473 0 -1.000000
473 0 -1.000000
473 0 -1.000000
473 0 -1.000000
473 0 -1.000000
474 3 0.250000
474 51 0.750000
474 0 -1.000000
474 0 -1.000000
474 0 -1.000000
474 0 -1.000000
474 0 -1.000000
474 0 -1.000000
475 3 0.375000
475 51 0.375000
475 53 0.250000
475 0 -1.000000
475 0 -1.000000
475 0 -1.000000
475 0 -1.000000
475 0 -1.000000
476 3 0.750000
476 51 0.250000
476 0 -1.000000
476 0 -1.000000
476 0 -1.000000
476 0 -1.000000
476 0 -1.000000
476 0 -1.000000
477 3 0.750000
477 51 0.250000
477 0 -1.000000
477 0 -1.000000
477 0 -1.000000
477 0 -1.000000
477 0 -1.000000
477 0 -1.000000
478 3 0.500000
478 51 0.500000
478 0 -1.000000
478 0 -1.000000
478 0 -1.000000
478 0 -1.000000
478 0 -1.000000
478 0 -1.000000
479 3 0.250000
479 51 0.750000
479 0 -1.000000
479 0 -1.000000
479 0 -1.000000
479 0 -1.000000
479 0 -1.000000
479 0 -1.000000
480 3 0.100000
480 51 0.900000
480 0 -1.000000
480 0 -1.000000
480 0 -1.000000
480 0 -1.000000
480 0 -1.000000
480 0 -1.000000
481 3 0.250000
481 51 0.750000
481 0 -1.000000
481 0 -1.000000
481 0 -1.000000
481 0 -1.000000
481 0 -1.000000
481 0 -1.000000
482 3 0.500000
482 51 0.500000
482 0 -1.000000
482 0 -1.000000
482 0 -1.000000
482 0 -1.000000
482 0 -1.000000
482 0 -1.000000
483 3 0.500000
483 51 0.500000
483 0 -1.000000
483 0 -1.000000
483 0 -1.000000
483 0 -1.000000
483 0 -1.000000
483 0 -1.000000
484 3 0.500000
484 51 0.500000
484 0 -1.000000
484 0 -1.000000
484 0 -1.000000
484 0 -1.000000
484 0 -1.000000
484 0 -1.000000
485 3 0.100000
485 51 0.900000
485 0 -1.000000
485 0 -1.000000
485 0 -1.000000
485 0 -1.000000
485 0 -1.000000
485 0 -1.000000
486 3 0.500000
486 4 0.500000
486 0 -1.000000
486 0 -1.000000
486 0 -1.000000
486 0 -1.000000
486 0 -1.000000
486 0 -1.000000
487 3 0.500000
487 4 0.500000
487 0 -1.000000
487 0 -1.000000
487 0 -1.000000
487 0 -1.000000
487 0 -1.000000
487 0 -1.000000
488 3 1.000000
488 0 -1.000000
488 0 -1.000000
488 0 -1.000000
488 0 -1.000000
488 0 -1.000000
488 0 -1.000000
488 0 -1.000000
489 3 1.000000
489 0 -1.000000
489 0 -1.000000
489 0 -1.000000
489 0 -1.000000
489 0 -1.000000
489 0 -1.000000
489 0 -1.000000
490 3 0.750000
490 51 0.250000
490 0 -1.000000
490 0 -1.000000
490 0 -1.000000
490 0 -1.000000
490 0 -1.000000
490 0 -1.000000
491 3 0.500000
491 4 0.500000
491 0 -1.000000
491 0 -1.000000
491 0 -1.000000
491 0 -1.000000
491 0 -1.000000
491 0 -1.000000
492 3 0.500000
492 51 0.500000
492 0 -1.000000
492 0 -1.000000
492 0 -1.000000
492 0 -1.000000
492 0 -1.000000
492 0 -1.000000
493 3 0.500000
493 4 0.500000
493 0 -1.000000
493 0 -1.000000
493 0 -1.000000
493 0 -1.000000
493 0 -1.000000
493 0 -1.000000
494 3 0.500000
494 4 0.500000
494 0 -1.000000
494 0 -1.000000
494 0 -1.000000
494 0 -1.000000
494 0 -1.000000
494 0 -1.000000
495 3 0.500000
495 4 0.500000
495 0 -1.000000
495 0 -1.000000
495 0 -1.000000
495 0 -1.000000
495 0 -1.000000
495 0 -1.000000
496 3 0.750000
496 51 0.250000
496 0 -1.000000
496 0 -1.000000
496 0 -1.000000
496 0 -1.000000
496 0 -1.000000
496 0 -1.000000
497 3 0.500000
497 51 0.500000
497 0 -1.000000
497 0 -1.000000
497 0 -1.000000
497 0 -1.000000
497 0 -1.000000
497 0 -1.000000
498 3 0.500000
498 4 0.500000
498 0 -1.000000
498 0 -1.000000
498 0 -1.000000
498 0 -1.000000
498 0 -1.000000
498 0 -1.000000
499 3 0.500000
499 51 0.500000
499 0 -1.000000
499 0 -1.000000
499 0 -1.000000
499 0 -1.000000
499 0 -1.000000
499 0 -1.000000
500 3 0.500000
500 51 0.500000
500 0 -1.000000
500 0 -1.000000
500 0 -1.000000
500 0 -1.000000
500 0 -1.000000
500 0 -1.000000
501 3 0.500000
501 51 0.500000
501 0 -1.000000
501 0 -1.000000
501 0 -1.000000
501 0 -1.000000
501 0 -1.000000
501 0 -1.000000
502 3 0.500000
502 4 0.500000
502 0 -1.000000
502 0 -1.000000
502 0 -1.000000
502 0 -1.000000
502 0 -1.000000
502 0 -1.000000
503 3 0.500000
503 4 0.500000
503 0 -1.000000
503 0 -1.000000
503 0 -1.000000
503 0 -1.000000
503 0 -1.000000
503 0 -1.000000
504 3 1.000000
504 0 -1.000000
504 0 -1.000000
504 0 -1.000000
504 0 -1.000000
504 0 -1.000000
504 0 -1.000000
504 0 -1.000000
505 3 1.000000
505 0 -1.000000
505 0 -1.000000
505 0 -1.000000
505 0 -1.000000
505 0 -1.000000
505 0 -1.000000
505 0 -1.000000
506 3 0.500000
506 4 0.500000
506 0 -1.000000
506 0 -1.000000
506 0 -1.000000
506 0 -1.000000
506 0 -1.000000
506 0 -1.000000
507 3 0.500000
507 4 0.500000
507 0 -1.000000
507 0 -1.000000
507 0 -1.000000
507 0 -1.000000
507 0 -1.000000
507 0 -1.000000
508 3 0.500000
508 4 0.500000
508 0 -1.000000
508 0 -1.000000
508 0 -1.000000
508 0 -1.000000
508 0 -1.000000
508 0 -1.000000
509 3 1.000000
509 0 -1.000000
509 0 -1.000000
509 0 -1.000000
509 0 -1.000000
509 0 -1.000000
509 0 -1.000000
509 0 -1.000000
510 3 0.500000
510 4 0.500000
510 0 -1.000000
510 0 -1.000000
510 0 -1.000000
510 0 -1.000000
510 0 -1.000000
510 0 -1.000000
511 3 1.000000
511 0 -1.000000
511 0 -1.000000
511 0 -1.000000
511 0 -1.000000
511 0 -1.000000
511 0 -1.000000
511 0 -1.000000
512 3 1.000000
512 0 -1.000000
512 0 -1.000000
512 0 -1.000000
512 0 -1.000000
512 0 -1.000000
512 0 -1.000000
512 0 -1.000000
513 3 1.000000
513 0 -1.000000
513 0 -1.000000
513 0 -1.000000
513 0 -1.000000
513 0 -1.000000
513 0 -1.000000
513 0 -1.000000
514 3 0.500000
514 4 0.500000
514 0 -1.000000
514 0 -1.000000
514 0 -1.000000
514 0 -1.000000
514 0 -1.000000
514 0 -1.000000
515 3 0.500000
515 4 0.500000
515 0 -1.000000
515 0 -1.000000
515 0 -1.000000
515 0 -1.000000
515 0 -1.000000
515 0 -1.000000
516 3 0.500000
516 4 0.500000
516 0 -1.000000
516 0 -1.000000
516 0 -1.000000
516 0 -1.000000
516 0 -1.000000
516 0 -1.000000
517 3 0.500000
517 4 0.500000
517 0 -1.000000
517 0 -1.000000
517 0 -1.000000
517 0 -1.000000
517 0 -1.000000
517 0 -1.000000
518 3 1.000000
518 0 -1.000000
518 0 -1.000000
518 0 -1.000000
518 0 -1.000000
518 0 -1.000000
518 0 -1.000000
518 0 -1.000000
519 3 1.000000
519 0 -1.000000
519 0 -1.000000
519 0 -1.000000
519 0 -1.000000
519 0 -1.000000
519 0 -1.000000
519 0 -1.000000
520 3 1.000000
520 0 -1.000000
520 0 -1.000000
520 0 -1.000000
520 0 -1.000000
520 0 -1.000000
520 0 -1.000000
520 0 -1.000000
521 3 0.500000
521 4 0.500000
521 0 -1.000000
521 0 -1.000000
521 0 -1.000000
521 0 -1.000000
521 0 -1.000000
521 0 -1.000000
522 3 1.000000
522 0 -1.000000
522 0 -1.000000
522 0 -1.000000
522 0 -1.000000
522 0 -1.000000
522 0 -1.000000
522 0 -1.000000
523 3 0.700000
523 52 0.300000
523 0 -1.000000
523 0 -1.000000
523 0 -1.000000
523 0 -1.000000
523 0 -1.000000
523 0 -1.000000
524 3 0.750000
524 52 0.250000
524 0 -1.000000
524 0 -1.000000
524 0 -1.000000
524 0 -1.000000
524 0 -1.000000
524 0 -1.000000
525 3 0.750000
525 52 0.250000
525 0 -1.000000
525 0 -1.000000
525 0 -1.000000
525 0 -1.000000
525 0 -1.000000
525 0 -1.000000
526 3 1.000000
526 0 -1.000000
526 0 -1.000000
526 0 -1.000000
526 0 -1.000000
526 0 -1.000000
526 0 -1.000000
526 0 -1.000000
527 3 1.000000
527 0 -1.000000
527 0 -1.000000
527 0 -1.000000
527 0 -1.000000
527 0 -1.000000
527 0 -1.000000
527 0 -1.000000
528 3 0.500000
528 4 0.500000
528 0 -1.000000
528 0 -1.000000
528 0 -1.000000
528 0 -1.000000
528 0 -1.000000
528 0 -1.000000
529 3 1.000000
529 0 -1.000000
529 0 -1.000000
529 0 -1.000000
529 0 -1.000000
529 0 -1.000000
529 0 -1.000000
529 0 -1.000000
530 3 1.000000
530 0 -1.000000
530 0 -1.000000
530 0 -1.000000
530 0 -1.000000
530 0 -1.000000
530 0 -1.000000
530 0 -1.000000
531 3 1.000000
531 0 -1.000000
531 0 -1.000000
531 0 -1.000000
531 0 -1.000000
531 0 -1.000000
531 0 -1.000000
531 0 -1.000000
532 3 0.500000
532 4 0.500000
532 0 -1.000000
532 0 -1.000000
532 0 -1.000000
532 0 -1.000000
532 0 -1.000000
532 0 -1.000000
533 3 0.500000
533 4 0.500000
533 0 -1.000000
533 0 -1.000000
533 0 -1.000000
533 0 -1.000000
533 0 -1.000000
533 0 -1.000000
534 3 0.599806
534 49 0.300000
534 52 0.100194
534 0 -1.000000
534 0 -1.000000
534 0 -1.000000
534 0 -1.000000
534 0 -1.000000
535 3 1.000000
535 0 -1.000000
535 0 -1.000000
535 0 -1.000000
535 0 -1.000000
535 0 -1.000000
535 0 -1.000000
535 0 -1.000000
536 3 1.000000
536 0 -1.000000
536 0 -1.000000
536 0 -1.000000
536 0 -1.000000
536 0 -1.000000
536 0 -1.000000
536 0 -1.000000
537 3 1.000000
537 0 -1.000000
537 0 -1.000000
537 0 -1.000000
537 0 -1.000000
537 0 -1.000000
537 0 -1.000000
537 0 -1.000000
538 3 0.750000
538 52 0.250000
538 0 -1.000000
538 0 -1.000000
538 0 -1.000000
538 0 -1.000000
538 0 -1.000000
538 0 -1.000000
539 3 0.599806
539 49 0.300000
539 52 0.100194
539 0 -1.000000
539 0 -1.000000
539 0 -1.000000
539 0 -1.000000
539 0 -1.000000
540 3 1.000000
540 0 -1.000000
540 0 -1.000000
540 0 -1.000000
540 0 -1.000000
540 0 -1.000000
540 0 -1.000000
540 0 -1.000000
541 3 1.000000
541 0 -1.000000
541 0 -1.000000
541 0 -1.000000
541 0 -1.000000
541 0 -1.000000
541 0 -1.000000
541 0 -1.000000
542 3 0.599806
542 49 0.300000
542 52 0.100194
542 0 -1.000000
542 0 -1.000000
542 0 -1.000000
542 0 -1.000000
542 0 -1.000000
543 3 0.599806
543 49 0.300000
543 52 0.100194
543 0 -1.000000
543 0 -1.000000
543 0 -1.000000
543 0 -1.000000
543 0 -1.000000
544 3 0.500000
544 49 0.500000
544 0 -1.000000
544 0 -1.000000
544 0 -1.000000
544 0 -1.000000
544 0 -1.000000
544 0 -1.000000
545 3 1.000000
545 0 -1.000000
545 0 -1.000000
545 0 -1.000000
545 0 -1.000000
545 0 -1.000000
545 0 -1.000000
545 0 -1.000000
546 3 1.000000
546 0 -1.000000
546 0 -1.000000
546 0 -1.000000
546 0 -1.000000
546 0 -1.000000
546 0 -1.000000
546 0 -1.000000
547 3 1.000000
547 0 -1.000000
547 0 -1.000000
547 0 -1.000000
547 0 -1.000000
547 0 -1.000000
547 0 -1.000000
547 0 -1.000000
548 3 0.500000
548 49 0.500000
548 0 -1.000000
548 0 -1.000000
548 0 -1.000000
548 0 -1.000000
548 0 -1.000000
548 0 -1.000000
549 3 0.500000
549 49 0.500000
549 0 -1.000000
549 0 -1.000000
549 0 -1.000000
549 0 -1.000000
549 0 -1.000000
549 0 -1.000000
550 3 0.500000
550 49 0.500000
550 0 -1.000000
550 0 -1.000000
550 0 -1.000000
550 0 -1.000000
550 0 -1.000000
550 0 -1.000000
551 3 1.000000
551 0 -1.000000
551 0 -1.000000
551 0 -1.000000
551 0 -1.000000
551 0 -1.000000
551 0 -1.000000
551 0 -1.000000
552 3 0.375000
552 49 0.250000
552 51 0.375000
552 0 -1.000000
552 0 -1.000000
552 0 -1.000000
552 0 -1.000000
552 0 -1.000000
553 3 0.750000
553 51 0.250000
553 0 -1.000000
553 0 -1.000000
553 0 -1.000000
553 0 -1.000000
553 0 -1.000000
553 0 -1.000000
554 3 1.000000
554 0 -1.000000
554 0 -1.000000
554 0 -1.000000
554 0 -1.000000
554 0 -1.000000
554 0 -1.000000
554 0 -1.000000
555 3 1.000000
555 0 -1.000000
555 0 -1.000000
555 0 -1.000000
555 0 -1.000000
555 0 -1.000000
555 0 -1.000000
555 0 -1.000000
556 3 0.500000
556 49 0.500000
556 0 -1.000000
556 0 -1.000000
556 0 -1.000000
556 0 -1.000000
556 0 -1.000000
556 0 -1.000000
557 3 0.375000
557 49 0.250000
557 51 0.375000
557 0 -1.000000
557 0 -1.000000
557 0 -1.000000
557 0 -1.000000
557 0 -1.000000
558 3 0.250000
558 51 0.750000
558 0 -1.000000
558 0 -1.000000
558 0 -1.000000
558 0 -1.000000
558 0 -1.000000
558 0 -1.000000
559 3 0.500000
559 51 0.500000
559 0 -1.000000
559 0 -1.000000
559 0 -1.000000
559 0 -1.000000
559 0 -1.000000
559 0 -1.000000
560 3 0.750000
560 51 0.250000
560 0 -1.000000
560 0 -1.000000
560 0 -1.000000
560 0 -1.000000
560 0 -1.000000
560 0 -1.000000
561 3 0.750000
561 51 0.250000
561 0 -1.000000
561 0 -1.000000
561 0 -1.000000
561 0 -1.000000
561 0 -1.000000
561 0 -1.000000
562 3 0.375000
562 49 0.250000
562 51 0.375000
562 0 -1.000000
562 0 -1.000000
562 0 -1.000000
562 0 -1.000000
562 0 -1.000000
563 3 0.250000
563 51 0.750000
563 0 -1.000000
563 0 -1.000000
563 0 -1.000000
563 0 -1.000000
563 0 -1.000000
563 0 -1.000000
564 3 0.500000
564 51 0.500000
564 0 -1.000000
564 0 -1.000000
564 0 -1.000000
564 0 -1.000000
564 0 -1.000000
564 0 -1.000000
565 3 0.250000
565 51 0.750000
565 0 -1.000000
565 0 -1.000000
565 0 -1.000000
565 0 -1.000000
565 0 -1.000000
565 0 -1.000000
566 3 0.100000
566 51 0.900000
566 0 -1.000000
566 0 -1.000000
566 0 -1.000000
566 0 -1.000000
566 0 -1.000000
566 0 -1.000000
567 3 0.100000
567 51 0.900000
567 0 -1.000000
567 0 -1.000000
567 0 -1.000000
567 0 -1.000000
567 0 -1.000000
567 0 -1.000000
568 3 0.500000
568 51 0.500000
568 0 -1.000000
568 0 -1.000000
568 0 -1.000000
568 0 -1.000000
568 0 -1.000000
568 0 -1.000000
569 3 0.500000
569 51 0.500000
569 0 -1.000000
569 0 -1.000000
569 0 -1.000000
569 0 -1.000000
569 0 -1.000000
569 0 -1.000000
570 5 1.000000
570 0 -1.000000
570 0 -1.000000
570 0 -1.000000
570 0 -1.000000
570 0 -1.000000
570 0 -1.000000
570 0 -1.000000
571 5 1.000000
571 0 -1.000000
571 0 -1.000000
571 0 -1.000000
571 0 -1.000000
571 0 -1.000000
571 0 -1.000000
571 0 -1.000000
572 5 1.000000
572 0 -1.000000
572 0 -1.000000
572 0 -1.000000
572 0 -1.000000
572 0 -1.000000
572 0 -1.000000
572 0 -1.000000
573 5 1.000000
573 0 -1.000000
573 0 -1.000000
573 0 -1.000000
573 0 -1.000000
573 0 -1.000000
573 0 -1.000000
573 0 -1.000000
574 5 1.000000
574 0 -1.000000
574 0 -1.000000
574 0 -1.000000
574 0 -1.000000
574 0 -1.000000
574 0 -1.000000
574 0 -1.000000
575 5 1.000000
575 0 -1.000000
575 0 -1.000000
575 0 -1.000000
575 0 -1.000000
575 0 -1.000000
575 0 -1.000000
575 0 -1.000000
576 8 1.000000
576 0 -1.000000
576 0 -1.000000
576 0 -1.000000
576 0 -1.000000
576 0 -1.000000
576 0 -1.000000
576 0 -1.000000
577 8 1.000000
577 0 -1.000000
577 0 -1.000000
577 0 -1.000000
577 0 -1.000000
577 0 -1.000000
577 0 -1.000000
577 0 -1.000000
578 8 1.000000
578 0 -1.000000
578 0 -1.000000
578 0 -1.000000
578 0 -1.000000
578 0 -1.000000
578 0 -1.000000
578 0 -1.000000
579 8 1.000000
579 0 -1.000000
579 0 -1.000000
579 0 -1.000000
579 0 -1.000000
579 0 -1.000000
579 0 -1.000000
579 0 -1.000000
580 8 1.000000
580 0 -1.000000
580 0 -1.000000
580 0 -1.000000
580 0 -1.000000
580 0 -1.000000
580 0 -1.000000
580 0 -1.000000
581 8 1.000000
581 0 -1.000000
581 0 -1.000000
581 0 -1.000000
581 0 -1.000000
581 0 -1.000000
581 0 -1.000000
581 0 -1.000000
582 8 1.000000
582 0 -1.000000
582 0 -1.000000
582 0 -1.000000
582 0 -1.000000
582 0 -1.000000
582 0 -1.000000
582 0 -1.000000
583 8 1.000000
583 0 -1.000000
583 0 -1.000000
583 0 -1.000000
583 0 -1.000000
583 0 -1.000000
583 0 -1.000000
583 0 -1.000000
584 8 1.000000
584 0 -1.000000
584 0 -1.000000
584 0 -1.000000
584 0 -1.000000
584 0 -1.000000
584 0 -1.000000
584 0 -1.000000
585 8 1.000000
585 0 -1.000000
585 0 -1.000000
585 0 -1.000000
585 0 -1.000000
585 0 -1.000000
585 0 -1.000000
585 0 -1.000000
586 8 1.000000
586 0 -1.000000
586 0 -1.000000
586 0 -1.000000
586 0 -1.000000
586 0 -1.000000
586 0 -1.000000
586 0 -1.000000
587 8 1.000000
587 0 -1.000000
587 0 -1.000000
587 0 -1.000000
587 0 -1.000000
587 0 -1.000000
587 0 -1.000000
587 0 -1.000000
588 5 1.000000
588 0 -1.000000
588 0 -1.000000
588 0 -1.000000
588 0 -1.000000
588 0 -1.000000
588 0 -1.000000
588 0 -1.000000
589 5 1.000000
589 0 -1.000000
589 0 -1.000000
589 0 -1.000000
589 0 -1.000000
589 0 -1.000000
589 0 -1.000000
589 0 -1.000000
590 5 1.000000
590 0 -1.000000
590 0 -1.000000
590 0 -1.000000
590 0 -1.000000
590 0 -1.000000
590 0 -1.000000
590 0 -1.000000
591 5 1.000000
591 0 -1.000000
591 0 -1.000000
591 0 -1.000000
591 0 -1.000000
591 0 -1.000000
591 0 -1.000000
591 0 -1.000000
592 5 1.000000
592 0 -1.000000
592 0 -1.000000
592 0 -1.000000
592 0 -1.000000
592 0 -1.000000
592 0 -1.000000
592 0 -1.000000
593 5 1.000000
593 0 -1.000000
593 0 -1.000000
593 0 -1.000000
593 0 -1.000000
593 0 -1.000000
593 0 -1.000000
593 0 -1.000000
594 8 1.000000
594 0 -1.000000
594 0 -1.000000
594 0 -1.000000
594 0 -1.000000
594 0 -1.000000
594 0 -1.000000
594 0 -1.000000
595 8 1.000000
595 0 -1.000000
595 0 -1.000000
595 0 -1.000000
595 0 -1.000000
595 0 -1.000000
595 0 -1.000000
595 0 -1.000000
596 8 1.000000
596 0 -1.000000
596 0 -1.000000
596 0 -1.000000
596 0 -1.000000
596 0 -1.000000
596 0 -1.000000
596 0 -1.000000
597 8 1.000000
597 0 -1.000000
597 0 -1.000000
597 0 -1.000000
597 0 -1.000000
597 0 -1.000000
597 0 -1.000000
597 0 -1.000000
598 8 1.000000
598 0 -1.000000
598 0 -1.000000
598 0 -1.000000
598 0 -1.000000
598 0 -1.000000
598 0 -1.000000
598 0 -1.000000
599 8 1.000000
599 0 -1.000000
599 0 -1.000000
599 0 -1.000000
599 0 -1.000000
599 0 -1.000000
599 0 -1.000000
599 0 -1.000000
600 5 1.000000
600 0 -1.000000
600 0 -1.000000
600 0 -1.000000
600 0 -1.000000
600 0 -1.000000
600 0 -1.000000
600 0 -1.000000
601 5 1.000000
601 0 -1.000000
601 0 -1.000000
601 0 -1.000000
601 0 -1.000000
601 0 -1.000000
601 0 -1.000000
601 0 -1.000000
602 5 1.000000
602 0 -1.000000
602 0 -1.000000
602 0 -1.000000
602 0 -1.000000
602 0 -1.000000
602 0 -1.000000
602 0 -1.000000
603 5 1.000000
603 0 -1.000000
603 0 -1.000000
603 0 -1.000000
603 0 -1.000000
603 0 -1.000000
603 0 -1.000000
603 0 -1.000000
604 5 1.000000
604 0 -1.000000
604 0 -1.000000
604 0 -1.000000
604 0 -1.000000
604 0 -1.000000
604 0 -1.000000
604 0 -1.000000
605 5 1.000000
605 0 -1.000000
605 0 -1.000000
605 0 -1.000000
605 0 -1.000000
605 0 -1.000000
605 0 -1.000000
605 0 -1.000000
606 5 1.000000
606 0 -1.000000
606 0 -1.000000
606 0 -1.000000
606 0 -1.000000
606 0 -1.000000
606 0 -1.000000
606 0 -1.000000
607 5 1.000000
607 0 -1.000000
607 0 -1.000000
607 0 -1.000000
607 0 -1.000000
607 0 -1.000000
607 0 -1.000000
607 0 -1.000000
608 5 1.000000
608 0 -1.000000
608 0 -1.000000
608 0 -1.000000
608 0 -1.000000
608 0 -1.000000
608 0 -1.000000
608 0 -1.000000
609 5 1.000000
609 0 -1.000000
609 0 -1.000000
609 0 -1.000000
609 0 -1.000000
609 0 -1.000000
609 0 -1.000000
609 0 -1.000000
610 5 1.000000
610 0 -1.000000
610 0 -1.000000
610 0 -1.000000
610 0 -1.000000
610 0 -1.000000
610 0 -1.000000
610 0 -1.000000
611 5 1.000000
611 0 -1.000000
611 0 -1.000000
611 0 -1.000000
611 0 -1.000000
611 0 -1.000000
611 0 -1.000000
611 0 -1.000000
612 5 1.000000
612 0 -1.000000
612 0 -1.000000
612 0 -1.000000
612 0 -1.000000
612 0 -1.000000
612 0 -1.000000
612 0 -1.000000
613 5 1.000000
613 0 -1.000000
613 0 -1.000000
613 0 -1.000000
613 0 -1.000000
613 0 -1.000000
613 0 -1.000000
613 0 -1.000000
614 5 1.000000
614 0 -1.000000
614 0 -1.000000
614 0 -1.000000
614 0 -1.000000
614 0 -1.000000
614 0 -1.000000
614 0 -1.000000
615 5 1.000000
615 0 -1.000000
615 0 -1.000000
615 0 -1.000000
615 0 -1.000000
615 0 -1.000000
615 0 -1.000000
615 0 -1.000000
616 5 1.000000
616 0 -1.000000
616 0 -1.000000
616 0 -1.000000
616 0 -1.000000
616 0 -1.000000
616 0 -1.000000
616 0 -1.000000
617 5 1.000000
617 0 -1.000000
617 0 -1.000000
617 0 -1.000000
617 0 -1.000000
617 0 -1.000000
617 0 -1.000000
617 0 -1.000000
618 5 1.000000
618 0 -1.000000
618 0 -1.000000
618 0 -1.000000
618 0 -1.000000
618 0 -1.000000
618 0 -1.000000
618 0 -1.000000
619 5 0.900000
619 7 0.100000
619 0 -1.000000
619 0 -1.000000
619 0 -1.000000
619 0 -1.000000
619 0 -1.000000
619 0 -1.000000
620 5 0.900000
620 7 0.100000
620 0 -1.000000
620 0 -1.000000
620 0 -1.000000
620 0 -1.000000
620 0 -1.000000
620 0 -1.000000
621 5 0.900000
621 7 0.100000
621 0 -1.000000
621 0 -1.000000
621 0 -1.000000
621 0 -1.000000
621 0 -1.000000
621 0 -1.000000
622 5 1.000000
622 0 -1.000000
622 0 -1.000000
622 0 -1.000000
622 0 -1.000000
622 0 -1.000000
622 0 -1.000000
622 0 -1.000000
623 5 1.000000
623 0 -1.000000
623 0 -1.000000
623 0 -1.000000
623 0 -1.000000
623 0 -1.000000
623 0 -1.000000
623 0 -1.000000
624 5 0.750000
624 7 0.250000
624 0 -1.000000
624 0 -1.000000
624 0 -1.000000
624 0 -1.000000
624 0 -1.000000
624 0 -1.000000
625 5 0.900000
625 7 0.100000
625 0 -1.000000
625 0 -1.000000
625 0 -1.000000
625 0 -1.000000
625 0 -1.000000
625 0 -1.000000
626 5 0.500000
626 8 0.500000
626 0 -1.000000
626 0 -1.000000
626 0 -1.000000
626 0 -1.000000
626 0 -1.000000
626 0 -1.000000
627 5 0.500000
627 8 0.500000
627 0 -1.000000
627 0 -1.000000
627 0 -1.000000
627 0 -1.000000
627 0 -1.000000
627 0 -1.000000
628 5 0.500000
628 8 0.500000
628 0 -1.000000
628 0 -1.000000
628 0 -1.000000
628 0 -1.000000
628 0 -1.000000
628 0 -1.000000
629 5 0.750000
629 7 0.250000
629 0 -1.000000
629 0 -1.000000
629 0 -1.000000
629 0 -1.000000
629 0 -1.000000
629 0 -1.000000
630 5 1.000000
630 0 -1.000000
630 0 -1.000000
630 0 -1.000000
630 0 -1.000000
630 0 -1.000000
630 0 -1.000000
630 0 -1.000000
631 5 0.500000
631 8 0.500000
631 0 -1.000000
631 0 -1.000000
631 0 -1.000000
631 0 -1.000000
631 0 -1.000000
631 0 -1.000000
632 5 0.500000
632 8 0.500000
632 0 -1.000000
632 0 -1.000000
632 0 -1.000000
632 0 -1.000000
632 0 -1.000000
632 0 -1.000000
633 5 0.500000
633 8 0.500000
633 0 -1.000000
633 0 -1.000000
633 0 -1.000000
633 0 -1.000000
633 0 -1.000000
633 0 -1.000000
634 5 1.000000
634 0 -1.000000
634 0 -1.000000
634 0 -1.000000
634 0 -1.000000
634 0 -1.000000
634 0 -1.000000
634 0 -1.000000
635 5 1.000000
635 0 -1.000000
635 0 -1.000000
635 0 -1.000000
635 0 -1.000000
635 0 -1.000000
635 0 -1.000000
635 0 -1.000000
636 5 1.000000
636 0 -1.000000
636 0 -1.000000
636 0 -1.000000
636 0 -1.000000
636 0 -1.000000
636 0 -1.000000
636 0 -1.000000
637 5 0.500000
637 8 0.500000
637 0 -1.000000
637 0 -1.000000
637 0 -1.000000
637 0 -1.000000
637 0 -1.000000
637 0 -1.000000
638 5 0.500000
638 8 0.500000
638 0 -1.000000
638 0 -1.000000
638 0 -1.000000
638 0 -1.000000
638 0 -1.000000
638 0 -1.000000
639 5 0.500000
639 8 0.500000
639 0 -1.000000
639 0 -1.000000
639 0 -1.000000
639 0 -1.000000
639 0 -1.000000
639 0 -1.000000
640 5 1.000000
640 0 -1.000000
640 0 -1.000000
640 0 -1.000000
640 0 -1.000000
640 0 -1.000000
640 0 -1.000000
640 0 -1.000000
641 5 1.000000
641 0 -1.000000
641 0 -1.000000
641 0 -1.000000
641 0 -1.000000
641 0 -1.000000
641 0 -1.000000
641 0 -1.000000
642 5 0.500000
642 8 0.500000
642 0 -1.000000
642 0 -1.000000
642 0 -1.000000
642 0 -1.000000
642 0 -1.000000
642 0 -1.000000
643 5 1.000000
643 0 -1.000000
643 0 -1.000000
643 0 -1.000000
643 0 -1.000000
643 0 -1.000000
643 0 -1.000000
643 0 -1.000000
644 5 1.000000
644 0 -1.000000
644 0 -1.000000
644 0 -1.000000
644 0 -1.000000
644 0 -1.000000
644 0 -1.000000
644 0 -1.000000
645 5 1.000000
645 0 -1.000000
645 0 -1.000000
645 0 -1.000000
645 0 -1.000000
645 0 -1.000000
645 0 -1.000000
645 0 -1.000000
646 5 0.500000
646 8 0.500000
646 0 -1.000000
646 0 -1.000000
646 0 -1.000000
646 0 -1.000000
646 0 -1.000000
646 0 -1.000000
647 5 0.500000
647 8 0.500000
647 0 -1.000000
647 0 -1.000000
647 0 -1.000000
647 0 -1.000000
647 0 -1.000000
647 0 -1.000000
648 5 1.000000
648 0 -1.000000
648 0 -1.000000
648 0 -1.000000
648 0 -1.000000
648 0 -1.000000
648 0 -1.000000
648 0 -1.000000
649 5 1.000000
649 0 -1.000000
649 0 -1.000000
649 0 -1.000000
649 0 -1.000000
649 0 -1.000000
649 0 -1.000000
649 0 -1.000000
650 5 1.000000
650 0 -1.000000
650 0 -1.000000
650 0 -1.000000
650 0 -1.000000
650 0 -1.000000
650 0 -1.000000
650 0 -1.000000
651 5 1.000000
651 0 -1.000000
651 0 -1.000000
651 0 -1.000000
651 0 -1.000000
651 0 -1.000000
651 0 -1.000000
651 0 -1.000000
652 5 1.000000
652 0 -1.000000
652 0 -1.000000
652 0 -1.000000
652 0 -1.000000
652 0 -1.000000
652 0 -1.000000
652 0 -1.000000
653 5 1.000000
653 0 -1.000000
653 0 -1.000000
653 0 -1.000000
653 0 -1.000000
653 0 -1.000000
653 0 -1.000000
653 0 -1.000000
654 5 0.500000
654 8 0.500000
654 0 -1.000000
654 0 -1.000000
654 0 -1.000000
654 0 -1.000000
654 0 -1.000000
654 0 -1.000000
655 5 0.750000
655 7 0.250000
655 0 -1.000000
655 0 -1.000000
655 0 -1.000000
655 0 -1.000000
655 0 -1.000000
655 0 -1.000000
656 5 0.750000
656 7 0.250000
656 0 -1.000000
656 0 -1.000000
656 0 -1.000000
656 0 -1.000000
656 0 -1.000000
656 0 -1.000000
657 5 0.750000
657 7 0.250000
657 0 -1.000000
657 0 -1.000000
657 0 -1.000000
657 0 -1.000000
657 0 -1.000000
657 0 -1.000000
658 5 0.500000
658 8 0.500000
658 0 -1.000000
658 0 -1.000000
658 0 -1.000000
658 0 -1.000000
658 0 -1.000000
658 0 -1.000000
659 5 0.500000
659 8 0.500000
659 0 -1.000000
659 0 -1.000000
659 0 -1.000000
659 0 -1.000000
659 0 -1.000000
659 0 -1.000000
660 5 1.000000
660 0 -1.000000
660 0 -1.000000
660 0 -1.000000
660 0 -1.000000
660 0 -1.000000
660 0 -1.000000
660 0 -1.000000
661 5 1.000000
661 0 -1.000000
661 0 -1.000000
661 0 -1.000000
661 0 -1.000000
661 0 -1.000000
661 0 -1.000000
661 0 -1.000000
662 5 1.000000
662 0 -1.000000
662 0 -1.000000
662 0 -1.000000
662 0 -1.000000
662 0 -1.000000
662 0 -1.000000
662 0 -1.000000
663 5 1.000000
663 0 -1.000000
663 0 -1.000000
663 0 -1.000000
663 0 -1.000000
663 0 -1.000000
663 0 -1.000000
663 0 -1.000000
664 5 1.000000
664 0 -1.000000
664 0 -1.000000
664 0 -1.000000
664 0 -1.000000
664 0 -1.000000
664 0 -1.000000
664 0 -1.000000
665 5 1.000000
665 0 -1.000000
665 0 -1.000000
665 0 -1.000000
665 0 -1.000000
665 0 -1.000000
665 0 -1.000000
665 0 -1.000000
666 5 1.000000
666 0 -1.000000
666 0 -1.000000
666 0 -1.000000
666 0 -1.000000
666 0 -1.000000
666 0 -1.000000
666 0 -1.000000
667 5 1.000000
667 0 -1.000000
667 0 -1.000000
667 0 -1.000000
667 0 -1.000000
667 0 -1.000000
667 0 -1.000000
667 0 -1.000000
668 5 1.000000
668 0 -1.000000
668 0 -1.000000
668 0 -1.000000
668 0 -1.000000
668 0 -1.000000
668 0 -1.000000
668 0 -1.000000
669 5 1.000000
669 0 -1.000000
669 0 -1.000000
669 0 -1.000000
669 0 -1.000000
669 0 -1.000000
669 0 -1.000000
669 0 -1.000000
670 5 1.000000
670 0 -1.000000
670 0 -1.000000
670 0 -1.000000
670 0 -1.000000
670 0 -1.000000
670 0 -1.000000
670 0 -1.000000
671 5 1.000000
671 0 -1.000000
671 0 -1.000000
671 0 -1.000000
671 0 -1.000000
671 0 -1.000000
671 0 -1.000000
671 0 -1.000000
672 12 1.000000
672 0 -1.000000
672 0 -1.000000
672 0 -1.000000
672 0 -1.000000
672 0 -1.000000
672 0 -1.000000
672 0 -1.000000
673 12 1.000000
673 0 -1.000000
673 0 -1.000000
673 0 -1.000000
673 0 -1.000000
673 0 -1.000000
673 0 -1.000000
673 0 -1.000000
674 12 1.000000
674 0 -1.000000
674 0 -1.000000
674 0 -1.000000
674 0 -1.000000
674 0 -1.000000
674 0 -1.000000
674 0 -1.000000
675 12 1.000000
675 0 -1.000000
675 0 -1.000000
675 0 -1.000000
675 0 -1.000000
675 0 -1.000000
675 0 -1.000000
675 0 -1.000000
676 12 1.000000
676 0 -1.000000
676 0 -1.000000
676 0 -1.000000
676 0 -1.000000
676 0 -1.000000
676 0 -1.000000
676 0 -1.000000
677 12 1.000000
677 0 -1.000000
677 0 -1.000000
677 0 -1.000000
677 0 -1.000000
677 0 -1.000000
677 0 -1.000000
677 0 -1.000000
678 5 1.000000
678 0 -1.000000
678 0 -1.000000
678 0 -1.000000
678 0 -1.000000
678 0 -1.000000
678 0 -1.000000
678 0 -1.000000
679 5 1.000000
679 0 -1.000000
679 0 -1.000000
679 0 -1.000000
679 0 -1.000000
679 0 -1.000000
679 0 -1.000000
679 0 -1.000000
680 5 0.500000
680 8 0.500000
680 0 -1.000000
680 0 -1.000000
680 0 -1.000000
680 0 -1.000000
680 0 -1.000000
680 0 -1.000000
681 5 0.500000
681 8 0.500000
681 0 -1.000000
681 0 -1.000000
681 0 -1.000000
681 0 -1.000000
681 0 -1.000000
681 0 -1.000000
682 5 0.500000
682 8 0.500000
682 0 -1.000000
682 0 -1.000000
682 0 -1.000000
682 0 -1.000000
682 0 -1.000000
682 0 -1.000000
683 5 1.000000
683 0 -1.000000
683 0 -1.000000
683 0 -1.000000
683 0 -1.000000
683 0 -1.000000
683 0 -1.000000
683 0 -1.000000
684 5 0.750000
684 7 0.250000
684 0 -1.000000
684 0 -1.000000
684 0 -1.000000
684 0 -1.000000
684 0 -1.000000
684 0 -1.000000
685 5 0.500000
685 8 0.500000
685 0 -1.000000
685 0 -1.000000
685 0 -1.000000
685 0 -1.000000
685 0 -1.000000
685 0 -1.000000
686 5 1.000000
686 0 -1.000000
686 0 -1.000000
686 0 -1.000000
686 0 -1.000000
686 0 -1.000000
686 0 -1.000000
686 0 -1.000000
687 5 1.000000
687 0 -1.000000
687 0 -1.000000
687 0 -1.000000
687 0 -1.000000
687 0 -1.000000
687 0 -1.000000
687 0 -1.000000
688 5 1.000000
688 0 -1.000000
688 0 -1.000000
688 0 -1.000000
688 0 -1.000000
688 0 -1.000000
688 0 -1.000000
688 0 -1.000000
689 5 0.750000
689 7 0.250000
689 0 -1.000000
689 0 -1.000000
689 0 -1.000000
689 0 -1.000000
689 0 -1.000000
689 0 -1.000000
690 5 1.000000
690 0 -1.000000
690 0 -1.000000
690 0 -1.000000
690 0 -1.000000
690 0 -1.000000
690 0 -1.000000
690 0 -1.000000
691 5 1.000000
691 0 -1.000000
691 0 -1.000000
691 0 -1.000000
691 0 -1.000000
691 0 -1.000000
691 0 -1.000000
691 0 -1.000000
692 5 1.000000
692 0 -1.000000
692 0 -1.000000
692 0 -1.000000
692 0 -1.000000
692 0 -1.000000
692 0 -1.000000
692 0 -1.000000
693 5 1.000000
693 0 -1.000000
693 0 -1.000000
693 0 -1.000000
693 0 -1.000000
693 0 -1.000000
693 0 -1.000000
693 0 -1.000000
694 5 1.000000
694 0 -1.000000
694 0 -1.000000
694 0 -1.000000
694 0 -1.000000
694 0 -1.000000
694 0 -1.000000
694 0 -1.000000
695 5 1.000000
695 0 -1.000000
695 0 -1.000000
695 0 -1.000000
695 0 -1.000000
695 0 -1.000000
695 0 -1.000000
695 0 -1.000000
696 5 1.000000
696 0 -1.000000
696 0 -1.000000
696 0 -1.000000
696 0 -1.000000
696 0 -1.000000
696 0 -1.000000
696 0 -1.000000
697 5 1.000000
697 0 -1.000000
697 0 -1.000000
697 0 -1.000000
697 0 -1.000000
697 0 -1.000000
697 0 -1.000000
697 0 -1.000000
698 5 1.000000
698 0 -1.000000
698 0 -1.000000
698 0 -1.000000
698 0 -1.000000
698 0 -1.000000
698 0 -1.000000
698 0 -1.000000
699 5 1.000000
699 0 -1.000000
699 0 -1.000000
699 0 -1.000000
699 0 -1.000000
699 0 -1.000000
699 0 -1.000000
699 0 -1.000000
700 5 1.000000
700 0 -1.000000
700 0 -1.000000
700 0 -1.000000
700 0 -1.000000
700 0 -1.000000
700 0 -1.000000
700 0 -1.000000
701 5 1.000000
701 0 -1.000000
701 0 -1.000000
701 0 -1.000000
701 0 -1.000000
701 0 -1.000000
701 0 -1.000000
701 0 -1.000000
702 5 1.000000
702 0 -1.000000
702 0 -1.000000
702 0 -1.000000
702 0 -1.000000
702 0 -1.000000
702 0 -1.000000
702 0 -1.000000
703 5 0.750000
703 7 0.250000
703 0 -1.000000
703 0 -1.000000
703 0 -1.000000
703 0 -1.000000
703 0 -1.000000
703 0 -1.000000
704 5 0.750000
704 7 0.250000
704 0 -1.000000
704 0 -1.000000
704 0 -1.000000
704 0 -1.000000
704 0 -1.000000
704 0 -1.000000
705 5 0.750000
705 7 0.250000
705 0 -1.000000
705 0 -1.000000
705 0 -1.000000
705 0 -1.000000
705 0 -1.000000
705 0 -1.000000
706 5 1.000000
706 0 -1.000000
706 0 -1.000000
706 0 -1.000000
706 0 -1.000000
706 0 -1.000000
706 0 -1.000000
706 0 -1.000000
707 5 1.000000
707 0 -1.000000
707 0 -1.000000
707 0 -1.000000
707 0 -1.000000
707 0 -1.000000
707 0 -1.000000
707 0 -1.000000
708 5 0.750000
708 7 0.250000
708 0 -1.000000
708 0 -1.000000
708 0 -1.000000
708 0 -1.000000
708 0 -1.000000
708 0 -1.000000
709 5 0.750000
709 7 0.250000
709 0 -1.000000
709 0 -1.000000
709 0 -1.000000
709 0 -1.000000
709 0 -1.000000
709 0 -1.000000
710 5 0.750000
710 7 0.250000
710 0 -1.000000
710 0 -1.000000
710 0 -1.000000
710 0 -1.000000
710 0 -1.000000
710 0 -1.000000
711 5 0.750000
711 7 0.250000
711 0 -1.000000
711 0 -1.000000
711 0 -1.000000
711 0 -1.000000
711 0 -1.000000
711 0 -1.000000
712 5 0.750000
712 7 0.250000
712 0 -1.000000
712 0 -1.000000
712 0 -1.000000
712 0 -1.000000
712 0 -1.000000
712 0 -1.000000
713 5 0.750000
713 7 0.250000
713 0 -1.000000
713 0 -1.000000
713 0 -1.000000
713 0 -1.000000
713 0 -1.000000
713 0 -1.000000
714 5 0.750000
714 7 0.250000
714 0 -1.000000
714 0 -1.000000
714 0 -1.000000
714 0 -1.000000
714 0 -1.000000
714 0 -1.000000
715 5 0.900000
715 7 0.100000
715 0 -1.000000
715 0 -1.000000
715 0 -1.000000
715 0 -1.000000
715 0 -1.000000
715 0 -1.000000
716 5 0.900000
716 7 0.100000
716 0 -1.000000
716 0 -1.000000
716 0 -1.000000
716 0 -1.000000
716 0 -1.000000
716 0 -1.000000
717 5 0.900000
717 7 0.100000
717 0 -1.000000
717 0 -1.000000
717 0 -1.000000
717 0 -1.000000
717 0 -1.000000
717 0 -1.000000
718 5 0.750000
718 7 0.250000
718 0 -1.000000
718 0 -1.000000
718 0 -1.000000
718 0 -1.000000
718 0 -1.000000
718 0 -1.000000
719 5 0.750000
719 7 0.250000
719 0 -1.000000
719 0 -1.000000
719 0 -1.000000
719 0 -1.000000
719 0 -1.000000
719 0 -1.000000
720 5 0.500000
720 8 0.500000
720 0 -1.000000
720 0 -1.000000
720 0 -1.000000
720 0 -1.000000
720 0 -1.000000
720 0 -1.000000
721 8 1.000000
721 0 -1.000000
721 0 -1.000000
721 0 -1.000000
721 0 -1.000000
721 0 -1.000000
721 0 -1.000000
721 0 -1.000000
722 8 1.000000
722 0 -1.000000
722 0 -1.000000
722 0 -1.000000
722 0 -1.000000
722 0 -1.000000
722 0 -1.000000
722 0 -1.000000
723 8 1.000000
723 0 -1.000000
723 0 -1.000000
723 0 -1.000000
723 0 -1.000000
723 0 -1.000000
723 0 -1.000000
723 0 -1.000000
724 5 0.500000
724 8 0.500000
724 0 -1.000000
724 0 -1.000000
724 0 -1.000000
724 0 -1.000000
724 0 -1.000000
724 0 -1.000000
725 5 0.500000
725 8 0.500000
725 0 -1.000000
725 0 -1.000000
725 0 -1.000000
725 0 -1.000000
725 0 -1.000000
725 0 -1.000000
726 8 1.000000
726 0 -1.000000
726 0 -1.000000
726 0 -1.000000
726 0 -1.000000
726 0 -1.000000
726 0 -1.000000
726 0 -1.000000
727 8 1.000000
727 0 -1.000000
727 0 -1.000000
727 0 -1.000000
727 0 -1.000000
727 0 -1.000000
727 0 -1.000000
727 0 -1.000000
728 8 1.000000
728 0 -1.000000
728 0 -1.000000
728 0 -1.000000
728 0 -1.000000
728 0 -1.000000
728 0 -1.000000
728 0 -1.000000
729 8 1.000000
729 0 -1.000000
729 0 -1.000000
729 0 -1.000000
729 0 -1.000000
729 0 -1.000000
729 0 -1.000000
729 0 -1.000000
730 8 1.000000
730 0 -1.000000
730 0 -1.000000
730 0 -1.000000
730 0 -1.000000
730 0 -1.000000
730 0 -1.000000
730 0 -1.000000
731 8 1.000000
731 0 -1.000000
731 0 -1.000000
731 0 -1.000000
731 0 -1.000000
731 0 -1.000000
731 0 -1.000000
731 0 -1.000000
732 8 1.000000
732 0 -1.000000
732 0 -1.000000
732 0 -1.000000
732 0 -1.000000
732 0 -1.000000
732 0 -1.000000
732 0 -1.000000
733 8 1.000000
733 0 -1.000000
733 0 -1.000000
733 0 -1.000000
733 0 -1.000000
733 0 -1.000000
733 0 -1.000000
733 0 -1.000000
734 8 1.000000
734 0 -1.000000
734 0 -1.000000
734 0 -1.000000
734 0 -1.000000
734 0 -1.000000
734 0 -1.000000
734 0 -1.000000
735 8 1.000000
735 0 -1.000000
735 0 -1.000000
735 0 -1.000000
735 0 -1.000000
735 0 -1.000000
735 0 -1.000000
735 0 -1.000000
736 8 1.000000
736 0 -1.000000
736 0 -1.000000
736 0 -1.000000
736 0 -1.000000
736 0 -1.000000
736 0 -1.000000
736 0 -1.000000
737 8 1.000000
737 0 -1.000000
737 0 -1.000000
737 0 -1.000000
737 0 -1.000000
737 0 -1.000000
737 0 -1.000000
737 0 -1.000000
738 5 0.500000
738 8 0.500000
738 0 -1.000000
738 0 -1.000000
738 0 -1.000000
738 0 -1.000000
738 0 -1.000000
738 0 -1.000000
739 5 0.500000
739 8 0.500000
739 0 -1.000000
739 0 -1.000000
739 0 -1.000000
739 0 -1.000000
739 0 -1.000000
739 0 -1.000000
740 8 1.000000
740 0 -1.000000
740 0 -1.000000
740 0 -1.000000
740 0 -1.000000
740 0 -1.000000
740 0 -1.000000
740 0 -1.000000
741 8 1.000000
741 0 -1.000000
741 0 -1.000000
741 0 -1.000000
741 0 -1.000000
741 0 -1.000000
741 0 -1.000000
741 0 -1.000000
742 8 1.000000
742 0 -1.000000
742 0 -1.000000
742 0 -1.000000
742 0 -1.000000
742 0 -1.000000
742 0 -1.000000
742 0 -1.000000
743 5 0.500000
743 8 0.500000
743 0 -1.000000
743 0 -1.000000
743 0 -1.000000
743 0 -1.000000
743 0 -1.000000
743 0 -1.000000
744 5 0.900000
744 7 0.100000
744 0 -1.000000
744 0 -1.000000
744 0 -1.000000
744 0 -1.000000
744 0 -1.000000
744 0 -1.000000
745 5 1.000000
745 0 -1.000000
745 0 -1.000000
745 0 -1.000000
745 0 -1.000000
745 0 -1.000000
745 0 -1.000000
745 0 -1.000000
746 5 1.000000
746 0 -1.000000
746 0 -1.000000
746 0 -1.000000
746 0 -1.000000
746 0 -1.000000
746 0 -1.000000
746 0 -1.000000
747 5 1.000000
747 0 -1.000000
747 0 -1.000000
747 0 -1.000000
747 0 -1.000000
747 0 -1.000000
747 0 -1.000000
747 0 -1.000000
748 5 0.500000
748 8 0.500000
748 0 -1.000000
748 0 -1.000000
748 0 -1.000000
748 0 -1.000000
748 0 -1.000000
748 0 -1.000000
749 5 0.900000
749 7 0.100000
749 0 -1.000000
749 0 -1.000000
749 0 -1.000000
749 0 -1.000000
749 0 -1.000000
749 0 -1.000000
750 8 1.000000
750 0 -1.000000
750 0 -1.000000
750 0 -1.000000
750 0 -1.000000
750 0 -1.000000
750 0 -1.000000
750 0 -1.000000
751 8 1.000000
751 0 -1.000000
751 0 -1.000000
751 0 -1.000000
751 0 -1.000000
751 0 -1.000000
751 0 -1.000000
751 0 -1.000000
752 8 1.000000
752 0 -1.000000
752 0 -1.000000
752 0 -1.000000
752 0 -1.000000
752 0 -1.000000
752 0 -1.000000
752 0 -1.000000
753 8 1.000000
753 0 -1.000000
753 0 -1.000000
753 0 -1.000000
753 0 -1.000000
753 0 -1.000000
753 0 -1.000000
753 0 -1.000000
754 8 1.000000
754 0 -1.000000
754 0 -1.000000
754 0 -1.000000
754 0 -1.000000
754 0 -1.000000
754 0 -1.000000
754 0 -1.000000
755 8 1.000000
755 0 -1.000000
755 0 -1.000000
755 0 -1.000000
755 0 -1.000000
755 0 -1.000000
755 0 -1.000000
755 0 -1.000000
756 8 1.000000
756 0 -1.000000
756 0 -1.000000
756 0 -1.000000
756 0 -1.000000
756 0 -1.000000
756 0 -1.000000
756 0 -1.000000
757 8 1.000000
757 0 -1.000000
757 0 -1.000000
757 0 -1.000000
757 0 -1.000000
757 0 -1.000000
757 0 -1.000000
757 0 -1.000000
758 8 1.000000
758 0 -1.000000
758 0 -1.000000
758 0 -1.000000
758 0 -1.000000
758 0 -1.000000
758 0 -1.000000
758 0 -1.000000
759 8 1.000000
759 0 -1.000000
759 0 -1.000000
759 0 -1.000000
759 0 -1.000000
759 0 -1.000000
759 0 -1.000000
759 0 -1.000000
760 8 1.000000
760 0 -1.000000
760 0 -1.000000
760 0 -1.000000
760 0 -1.000000
760 0 -1.000000
760 0 -1.000000
760 0 -1.000000
761 8 1.000000
761 0 -1.000000
761 0 -1.000000
761 0 -1.000000
761 0 -1.000000
761 0 -1.000000
761 0 -1.000000
761 0 -1.000000
762 8 1.000000
762 0 -1.000000
762 0 -1.000000
762 0 -1.000000
762 0 -1.000000
762 0 -1.000000
762 0 -1.000000
762 0 -1.000000
763 8 1.000000
763 0 -1.000000
763 0 -1.000000
763 0 -1.000000
763 0 -1.000000
763 0 -1.000000
763 0 -1.000000
763 0 -1.000000
764 8 1.000000
764 0 -1.000000
764 0 -1.000000
764 0 -1.000000
764 0 -1.000000
764 0 -1.000000
764 0 -1.000000
764 0 -1.000000
765 8 1.000000
765 0 -1.000000
765 0 -1.000000
765 0 -1.000000
765 0 -1.000000
765 0 -1.000000
765 0 -1.000000
765 0 -1.000000
766 8 1.000000
766 0 -1.000000
766 0 -1.000000
766 0 -1.000000
766 0 -1.000000
766 0 -1.000000
766 0 -1.000000
766 0 -1.000000
767 8 1.000000
767 0 -1.000000
767 0 -1.000000
767 0 -1.000000
767 0 -1.000000
767 0 -1.000000
767 0 -1.000000
767 0 -1.000000
768 8 1.000000
768 0 -1.000000
768 0 -1.000000
768 0 -1.000000
768 0 -1.000000
768 0 -1.000000
768 0 -1.000000
768 0 -1.000000
769 8 1.000000
769 0 -1.000000
769 0 -1.000000
769 0 -1.000000
769 0 -1.000000
769 0 -1.000000
769 0 -1.000000
769 0 -1.000000
770 8 1.000000
770 0 -1.000000
770 0 -1.000000
770 0 -1.000000
770 0 -1.000000
770 0 -1.000000
770 0 -1.000000
770 0 -1.000000
771 8 1.000000
771 0 -1.000000
771 0 -1.000000
771 0 -1.000000
771 0 -1.000000
771 0 -1.000000
771 0 -1.000000
771 0 -1.000000
772 8 1.000000
772 0 -1.000000
772 0 -1.000000
772 0 -1.000000
772 0 -1.000000
772 0 -1.000000
772 0 -1.000000
772 0 -1.000000
773 8 1.000000
773 0 -1.000000
773 0 -1.000000
773 0 -1.000000
773 0 -1.000000
773 0 -1.000000
773 0 -1.000000
773 0 -1.000000
774 5 1.000000
774 0 -1.000000
774 0 -1.000000
774 0 -1.000000
774 0 -1.000000
774 0 -1.000000
774 0 -1.000000
774 0 -1.000000
775 5 1.000000
775 0 -1.000000
775 0 -1.000000
775 0 -1.000000
775 0 -1.000000
775 0 -1.000000
775 0 -1.000000
775 0 -1.000000
776 5 1.000000
776 0 -1.000000
776 0 -1.000000
776 0 -1.000000
776 0 -1.000000
776 0 -1.000000
776 0 -1.000000
776 0 -1.000000
777 5 1.000000
777 0 -1.000000
777 0 -1.000000
777 0 -1.000000
777 0 -1.000000
777 0 -1.000000
777 0 -1.000000
777 0 -1.000000
778 5 1.000000
778 0 -1.000000
778 0 -1.000000
778 0 -1.000000
778 0 -1.000000
778 0 -1.000000
778 0 -1.000000
778 0 -1.000000
779 5 1.000000
779 0 -1.000000
779 0 -1.000000
779 0 -1.000000
779 0 -1.000000
779 0 -1.000000
779 0 -1.000000
779 0 -1.000000
780 5 1.000000
780 0 -1.000000
780 0 -1.000000
780 0 -1.000000
780 0 -1.000000
780 0 -1.000000
780 0 -1.000000
780 0 -1.000000
781 5 1.000000
781 0 -1.000000
781 0 -1.000000
781 0 -1.000000
781 0 -1.000000
781 0 -1.000000
781 0 -1.000000
781 0 -1.000000
782 5 1.000000
782 0 -1.000000
782 0 -1.000000
782 0 -1.000000
782 0 -1.000000
782 0 -1.000000
782 0 -1.000000
782 0 -1.000000
783 5 1.000000
783 0 -1.000000
783 0 -1.000000
783 0 -1.000000
783 0 -1.000000
783 0 -1.000000
783 0 -1.000000
783 0 -1.000000
784 5 1.000000
784 0 -1.000000
784 0 -1.000000
784 0 -1.000000
784 0 -1.000000
784 0 -1.000000
784 0 -1.000000
784 0 -1.000000
785 5 1.000000
785 0 -1.000000
785 0 -1.000000
785 0 -1.000000
785 0 -1.000000
785 0 -1.000000
785 0 -1.000000
785 0 -1.000000
786 5 1.000000
786 0 -1.000000
786 0 -1.000000
786 0 -1.000000
786 0 -1.000000
786 0 -1.000000
786 0 -1.000000
786 0 -1.000000
787 5 1.000000
787 0 -1.000000
787 0 -1.000000
787 0 -1.000000
787 0 -1.000000
787 0 -1.000000
787 0 -1.000000
787 0 -1.000000
788 5 1.000000
788 0 -1.000000
788 0 -1.000000
788 0 -1.000000
788 0 -1.000000
788 0 -1.000000
788 0 -1.000000
788 0 -1.000000
789 5 1.000000
789 0 -1.000000
789 0 -1.000000
789 0 -1.000000
789 0 -1.000000
789 0 -1.000000
789 0 -1.000000
789 0 -1.000000
790 5 1.000000
790 0 -1.000000
790 0 -1.000000
790 0 -1.000000
790 0 -1.000000
790 0 -1.000000
790 0 -1.000000
790 0 -1.000000
791 5 1.000000
791 0 -1.000000
791 0 -1.000000
791 0 -1.000000
791 0 -1.000000
791 0 -1.000000
791 0 -1.000000
791 0 -1.000000
792 5 1.000000
792 0 -1.000000
792 0 -1.000000
792 0 -1.000000
792 0 -1.000000
792 0 -1.000000
792 0 -1.000000
792 0 -1.000000
793 5 1.000000
793 0 -1.000000
793 0 -1.000000
793 0 -1.000000
793 0 -1.000000
793 0 -1.000000
793 0 -1.000000
793 0 -1.000000
794 5 1.000000
794 0 -1.000000
794 0 -1.000000
794 0 -1.000000
794 0 -1.000000
794 0 -1.000000
794 0 -1.000000
794 0 -1.000000
795 5 1.000000
795 0 -1.000000
795 0 -1.000000
